{"learner":{"attributes":{"best_iteration":"180","best_score":"0.5552565009885618"},"feature_names":["cms_segid_obj","cms_group_id_obj","final_gender_code_obj","age_level_obj","pvalue_level_obj","shopping_level_obj","occupation_obj","new_user_class_level _obj","cate_id_obj","campaign_id_obj","customer_obj","brand_obj","pid_obj","is_good_obj","time_stamp_hour_obj","time_stamp_week_obj","price_mm","ctr_conv"],"feature_types":["int","int","int","int","int","int","int","int","int","int","int","int","int","int","int","int","float","float"],"gradient_booster":{"model":{"gbtree_model_param":{"num_parallel_tree":"1","num_trees":"200"},"iteration_indptr":[0,1,2,3,4,5,6,7,8,9,10,11,12,13,14,15,16,17,18,19,20,21,22,23,24,25,26,27,28,29,30,31,32,33,34,35,36,37,38,39,40,41,42,43,44,45,46,47,48,49,50,51,52,53,54,55,56,57,58,59,60,61,62,63,64,65,66,67,68,69,70,71,72,73,74,75,76,77,78,79,80,81,82,83,84,85,86,87,88,89,90,91,92,93,94,95,96,97,98,99,100,101,102,103,104,105,106,107,108,109,110,111,112,113,114,115,116,117,118,119,120,121,122,123,124,125,126,127,128,129,130,131,132,133,134,135,136,137,138,139,140,141,142,143,144,145,146,147,148,149,150,151,152,153,154,155,156,157,158,159,160,161,162,163,164,165,166,167,168,169,170,171,172,173,174,175,176,177,178,179,180,181,182,183,184,185,186,187,188,189,190,191,192,193,194,195,196,197,198,199,200],"tree_info":[0,0,0,0,0,0,0,0,0,0,0,0,0,0,0,0,0,0,0,0,0,0,0,0,0,0,0,0,0,0,0,0,0,0,0,0,0,0,0,0,0,0,0,0,0,0,0,0,0,0,0,0,0,0,0,0,0,0,0,0,0,0,0,0,0,0,0,0,0,0,0,0,0,0,0,0,0,0,0,0,0,0,0,0,0,0,0,0,0,0,0,0,0,0,0,0,0,0,0,0,0,0,0,0,0,0,0,0,0,0,0,0,0,0,0,0,0,0,0,0,0,0,0,0,0,0,0,0,0,0,0,0,0,0,0,0,0,0,0,0,0,0,0,0,0,0,0,0,0,0,0,0,0,0,0,0,0,0,0,0,0,0,0,0,0,0,0,0,0,0,0,0,0,0,0,0,0,0,0,0,0,0,0,0,0,0,0,0,0,0,0,0,0,0,0,0,0,0,0,0],"trees":[{"base_weights":[-7.6360685E-1,-7.732157E-1,-6.819995E-1,-7.554233E-1,-7.839864E-1,-5.945005E-1,-6.904697E-1,-7.827127E-1,-7.461638E-1,-7.947726E-1,-7.6582223E-1,-6.267258E-1,-4.3970606E-1,-6.6220033E-1,-7.122498E-1,-7.8457355E-2,-6.980266E-2,-7.3820546E-2,-7.731981E-2,-7.909016E-2,-8.218531E-2,-7.6368004E-2,-8.9148685E-2,6.2063564E-2,-6.2837236E-2,-3.545813E-2,-7.391357E-2,-6.818197E-2,-6.361686E-2,-7.229277E-2,-6.493527E-2],"categories":[],"categories_nodes":[],"categories_segments":[],"categories_sizes":[],"default_left":[0,0,0,0,0,0,0,0,0,0,0,0,0,0,0,0,0,0,0,0,0,0,0,0,0,0,0,0,0,0,0],"id":0,"left_children":[1,3,5,7,9,11,13,15,17,19,21,23,25,27,29,-1,-1,-1,-1,-1,-1,-1,-1,-1,-1,-1,-1,-1,-1,-1,-1],"loss_changes":[1.4048438E2,3.0234375E1,1.3634766E1,1.475E1,1.9023438E1,8.104309E0,1.01640625E1,1.8720703E0,9.185547E0,5.9375E0,9.375E0,3.2410278E0,7.2014694E0,3.4128418E0,6.074707E0,0E0,0E0,0E0,0E0,0E0,0E0,0E0,0E0,0E0,0E0,0E0,0E0,0E0,0E0,0E0,0E0],"parents":[2147483647,0,0,1,1,2,2,3,3,4,4,5,5,6,6,7,7,8,8,9,9,10,10,11,11,12,12,13,13,14,14],"right_children":[2,4,6,8,10,12,14,16,18,20,22,24,26,28,30,-1,-1,-1,-1,-1,-1,-1,-1,-1,-1,-1,-1,-1,-1,-1,-1],"split_conditions":[1E0,2E0,3E0,2E0,5E0,8.3E1,2E0,9.4E1,5.9E1,1.1E1,9.4E1,2E0,9.4E1,6E1,8.6E1,-7.8457355E-2,-6.980266E-2,-7.3820546E-2,-7.731981E-2,-7.909016E-2,-8.218531E-2,-7.6368004E-2,-8.9148685E-2,6.2063564E-2,-6.2837236E-2,-3.545813E-2,-7.391357E-2,-6.818197E-2,-6.361686E-2,-7.229277E-2,-6.493527E-2],"split_indices":[10,12,1,2,7,10,12,0,8,1,8,2,10,10,10,0,0,0,0,0,0,0,0,0,0,0,0,0,0,0,0],"split_type":[0,0,0,0,0,0,0,0,0,0,0,0,0,0,0,0,0,0,0,0,0,0,0,0,0,0,0,0,0,0,0],"sum_hessian":[1.7983083E5,1.608795E5,1.8951324E4,6.0691934E4,1.0018757E5,1.6789121E3,1.7272412E4,1.5354884E4,4.533705E4,6.2833293E4,3.735428E4,1.3870961E3,2.918161E2,7.53014E3,9.742271E3,1.5016653E4,3.3823038E2,3.504799E4,1.02890625E4,5.5001277E4,7.8320146E3,3.673514E4,6.191398E2,1.333047E0,1.385763E3,2.2892053E2,6.289558E1,4.2795654E3,3.2505745E3,8.319425E3,1.422846E3],"tree_param":{"num_deleted":"0","num_feature":"18","num_nodes":"31","size_leaf_vector":"1"}},{"base_weights":[-7.302702E-1,-7.3878855E-1,-6.046629E-1,-7.588716E-1,-7.3134154E-1,-6.158195E-1,-4.5415258E-1,-7.575168E-1,-9.4253856E-1,-7.309239E-1,-9.5476365E-1,-6.533846E-1,-5.560637E-1,-6.6451454E-1,-3.7645972E-1,-7.6631635E-2,-7.376575E-2,-1.0143335E-1,-8.847025E-2,-6.982387E-2,-7.3273115E-2,-7.573904E-2,-9.8900765E-2,-6.391005E-2,-7.4504E-2,-5.439477E-3,-5.7218637E-2,-7.041388E-2,-3.9270464E-2,-3.0127058E-2,-5.3255893E-2],"categories":[],"categories_nodes":[],"categories_segments":[],"categories_sizes":[],"default_left":[0,0,0,0,0,0,0,0,0,0,0,0,0,0,0,0,0,0,0,0,0,0,0,0,0,0,0,0,0,0,0],"id":1,"left_children":[1,3,5,7,9,11,13,15,17,19,21,23,25,27,29,-1,-1,-1,-1,-1,-1,-1,-1,-1,-1,-1,-1,-1,-1,-1,-1],"loss_changes":[1.8155469E2,2.3265625E1,1.7868408E1,1.0001953E1,1.01484375E1,2.221753E1,1.2002182E1,6.90625E0,3.9492798E-1,6.34375E0,6.945343E-1,7.6030273E0,3.1428345E1,1.8871384E0,6.2923203E0,0E0,0E0,0E0,0E0,0E0,0E0,0E0,0E0,0E0,0E0,0E0,0E0,0E0,0E0,0E0,0E0],"parents":[2147483647,0,0,1,1,2,2,3,3,4,4,5,5,6,6,7,7,8,8,9,9,10,10,11,11,12,12,13,13,14,14],"right_children":[2,4,6,8,10,12,14,16,18,20,22,24,26,28,30,-1,-1,-1,-1,-1,-1,-1,-1,-1,-1,-1,-1,-1,-1,-1,-1],"split_conditions":[9E0,2E0,9.1E1,9.9E1,1E2,7.1E1,3.3E1,5E0,4E0,3E0,3E0,3.5E1,7.3E1,2E0,4.7E1,-7.6631635E-2,-7.376575E-2,-1.0143335E-1,-8.847025E-2,-6.982387E-2,-7.3273115E-2,-7.573904E-2,-9.8900765E-2,-6.391005E-2,-7.4504E-2,-5.439477E-3,-5.7218637E-2,-7.041388E-2,-3.9270464E-2,-3.0127058E-2,-5.3255893E-2],"split_indices":[9,2,11,11,11,9,10,7,4,1,5,11,9,6,9,0,0,0,0,0,0,0,0,0,0,0,0,0,0,0,0],"split_type":[0,0,0,0,0,0,0,0,0,0,0,0,0,0,0,0,0,0,0,0,0,0,0,0,0,0,0,0,0,0,0],"sum_hessian":[1.7009028E5,1.5928322E5,1.0807063E4,4.3059477E4,1.16223734E5,1.0058392E4,7.486724E2,4.274926E4,3.1021594E2,1.1601115E5,2.1258466E2,6.1698325E3,3.8885588E3,1.9989142E2,5.48781E2,2.9597248E4,1.3152013E4,1.3102713E2,1.7918881E2,6.0987666E3,1.0991238E5,3.4847935E1,1.7773672E2,5.3448335E3,8.2499884E2,1.2121535E2,3.7673435E3,1.7307074E2,2.6820683E1,3.7235617E2,1.7642484E2],"tree_param":{"num_deleted":"0","num_feature":"18","num_nodes":"31","size_leaf_vector":"1"}},{"base_weights":[-6.9395393E-1,-6.046366E-1,-7.076451E-1,-5.38278E-1,-6.354657E-1,-6.802806E-1,-7.255086E-1,-4.899719E-1,-5.643871E-1,-5.7602304E-1,-6.4533865E-1,-7.164598E-1,-6.6843104E-1,-6.9983816E-1,-7.507943E-1,-2.428207E-2,-5.021884E-2,1.0755279E-1,-5.6512088E-2,-5.66911E-2,-8.492734E-2,-6.403646E-2,-7.297299E-2,-6.721354E-2,-7.2990745E-2,-6.2359393E-2,-6.860656E-2,-7.13306E-2,-6.6267446E-2,-7.618534E-2,-7.272782E-2],"categories":[],"categories_nodes":[],"categories_segments":[],"categories_sizes":[],"default_left":[0,0,0,0,0,0,0,0,0,0,0,0,0,0,0,0,0,0,0,0,0,0,0,0,0,0,0,0,0,0,0],"id":2,"left_children":[1,3,5,7,9,11,13,15,17,19,21,23,25,27,29,-1,-1,-1,-1,-1,-1,-1,-1,-1,-1,-1,-1,-1,-1,-1,-1],"loss_changes":[1.9672656E2,4.3512207E1,6.785156E1,8.308228E0,8.215332E0,2.3201172E1,5.436328E1,7.11145E0,5.916748E0,4.73053E0,4.7958984E0,7.623535E0,3.2478516E1,2.0539062E1,1.0521484E1,0E0,0E0,0E0,0E0,0E0,0E0,0E0,0E0,0E0,0E0,0E0,0E0,0E0,0E0,0E0,0E0],"parents":[2147483647,0,0,1,1,2,2,3,3,4,4,5,5,6,6,7,7,8,8,9,9,10,10,11,11,12,12,13,13,14,14],"right_children":[2,4,6,8,10,12,14,16,18,20,22,24,26,28,30,-1,-1,-1,-1,-1,-1,-1,-1,-1,-1,-1,-1,-1,-1,-1,-1],"split_conditions":[2.004626E-2,-2.3130302E-3,2E0,-1.079414E-2,3E0,5E0,1.2474942E-1,2E0,2E0,4.1E1,8E1,6.630686E-2,1.8E1,5.3E1,6E0,-2.428207E-2,-5.021884E-2,1.0755279E-1,-5.6512088E-2,-5.66911E-2,-8.492734E-2,-6.403646E-2,-7.297299E-2,-6.721354E-2,-7.2990745E-2,-6.2359393E-2,-6.860656E-2,-7.13306E-2,-6.6267446E-2,-7.618534E-2,-7.272782E-2],"split_indices":[16,16,12,16,5,8,16,5,1,11,8,16,8,8,3,0,0,0,0,0,0,0,0,0,0,0,0,0,0,0,0],"split_type":[0,0,0,0,0,0,0,0,0,0,0,0,0,0,0,0,0,0,0,0,0,0,0,0,0,0,0,0,0,0,0],"sum_hessian":[1.6123194E5,2.1435822E4,1.3979612E5,6.805547E3,1.4630275E4,5.523003E4,8.4566086E4,2.394708E3,4.410839E3,2.09232E3,1.2537955E4,1.3611602E4,4.161843E4,4.197808E4,4.258801E4,1.1377625E2,2.2809316E3,1.3176838E0,4.4095215E3,2.0277748E3,6.454536E1,1.1848201E4,6.8975366E2,3.1802405E3,1.0431361E4,1.1758383E4,2.9860049E4,3.0798676E4,1.1179401E4,2.8944615E4,1.3643396E4],"tree_param":{"num_deleted":"0","num_feature":"18","num_nodes":"31","size_leaf_vector":"1"}},{"base_weights":[-6.6221905E-1,-6.713718E-1,-5.3443E-1,-5.8153874E-1,-6.848295E-1,-5.475566E-1,-3.5119614E-1,-5.2232075E-1,-6.1250633E-1,-6.661391E-1,-7.005065E-1,-5.8723414E-1,-4.8088267E-1,-2.7411038E-1,-5.6640345E-1,-5.513675E-2,-4.6684634E-2,-5.1630568E-2,-6.2035676E-2,-6.778332E-2,-6.3385926E-2,-7.280613E-2,-6.895229E-2,-5.6968838E-2,-6.974453E-2,-6.3316734E-4,-4.9639024E-2,-6.2458515E-2,-2.4888981E-2,-6.061384E-2,1.5621369E-2],"categories":[],"categories_nodes":[],"categories_segments":[],"categories_sizes":[],"default_left":[0,0,0,0,0,0,0,0,0,0,0,0,0,0,0,0,0,0,0,0,0,0,0,0,0,0,0,0,0,0,0],"id":3,"left_children":[1,3,5,7,9,11,13,15,17,19,21,23,25,27,29,-1,-1,-1,-1,-1,-1,-1,-1,-1,-1,-1,-1,-1,-1,-1,-1],"loss_changes":[1.7846094E2,1.720664E2,2.4396484E1,3.3776855E1,3.588672E1,2.4949219E1,1.1228142E1,1.0041382E1,8.895508E0,2.0939453E1,1.9910156E1,1.1156494E1,2.6223694E1,4.327381E0,5.2638474E0,0E0,0E0,0E0,0E0,0E0,0E0,0E0,0E0,0E0,0E0,0E0,0E0,0E0,0E0,0E0,0E0],"parents":[2147483647,0,0,1,1,2,2,3,3,4,4,5,5,6,6,7,7,8,8,9,9,10,10,11,11,12,12,13,13,14,14],"right_children":[2,4,6,8,10,12,14,16,18,20,22,24,26,28,30,-1,-1,-1,-1,-1,-1,-1,-1,-1,-1,-1,-1,-1,-1,-1,-1],"split_conditions":[6E0,2.004626E-2,9.1E1,-2.3130302E-3,1.2474942E-1,7.1E1,9.3E1,5E0,3E0,5.3E1,2E0,3.4E1,7.3E1,3E0,2.7E1,-5.513675E-2,-4.6684634E-2,-5.1630568E-2,-6.2035676E-2,-6.778332E-2,-6.3385926E-2,-7.280613E-2,-6.895229E-2,-5.6968838E-2,-6.974453E-2,-6.3316734E-4,-4.9639024E-2,-6.2458515E-2,-2.4888981E-2,-6.061384E-2,1.5621369E-2],"split_indices":[9,16,11,16,16,9,11,7,1,8,2,11,9,5,8,0,0,0,0,0,0,0,0,0,0,0,0,0,0,0,0],"split_type":[0,0,0,0,0,0,0,0,0,0,0,0,0,0,0,0,0,0,0,0,0,0,0,0,0,0,0,0,0,0,0],"sum_hessian":[1.528784E5,1.4265647E5,1.02219375E4,1.8592287E4,1.2406418E5,9.536753E3,6.851839E2,6.3902866E3,1.2202001E4,5.661304E4,6.745114E4,5.9738916E3,3.5628616E3,5.0615604E2,1.7902783E2,4.1883154E3,2.201971E3,9.256547E2,1.1276347E4,4.1543207E4,1.5069833E4,1.9205268E4,4.824587E4,5.1587773E3,8.151144E2,1.1278858E2,3.450073E3,3.2383076E1,4.7377295E2,1.6984943E2,9.178411E0],"tree_param":{"num_deleted":"0","num_feature":"18","num_nodes":"31","size_leaf_vector":"1"}},{"base_weights":[-6.289078E-1,-5.4874206E-1,-6.422114E-1,-4.6372363E-1,-5.6818336E-1,-6.528673E-1,-5.4772836E-1,-5.366962E-1,-4.3776307E-1,-4.954573E-1,-5.762368E-1,-6.2490976E-1,-6.708249E-1,-5.657599E-1,-4.513699E-1,-2.230831E-2,-5.4502096E-2,-4.547445E-2,-3.0490711E-2,-3.8921505E-2,-5.2835613E-2,-5.851492E-2,-5.219949E-2,-6.592292E-2,-6.1348077E-2,-6.481876E-2,-6.898154E-2,-1.4528043E-2,-5.69695E-2,-2.6761627E-2,-5.4602575E-2],"categories":[],"categories_nodes":[],"categories_segments":[],"categories_sizes":[],"default_left":[0,0,0,0,0,0,0,0,0,0,0,0,0,0,0,0,0,0,0,0,0,0,0,0,0,0,0,0,0,0,0],"id":4,"left_children":[1,3,5,7,9,11,13,15,17,19,21,23,25,27,29,-1,-1,-1,-1,-1,-1,-1,-1,-1,-1,-1,-1,-1,-1,-1,-1],"loss_changes":[1.5466016E2,3.3941406E1,1.2514844E2,7.0717773E0,9.577148E0,5.5816406E1,2.1707031E1,2.5091553E0,6.29187E0,5.68692E0,7.020508E0,1.6783203E1,2.8871094E1,1.7528564E1,3.459619E1,0E0,0E0,0E0,0E0,0E0,0E0,0E0,0E0,0E0,0E0,0E0,0E0,0E0,0E0,0E0,0E0],"parents":[2147483647,0,0,1,1,2,2,3,3,4,4,5,5,6,6,7,7,8,8,9,9,10,10,11,11,12,12,13,13,14,14],"right_children":[2,4,6,8,10,12,14,16,18,20,22,24,26,28,30,-1,-1,-1,-1,-1,-1,-1,-1,-1,-1,-1,-1,-1,-1,-1,-1],"split_conditions":[2.2359291E-2,-7.0161913E-3,1E0,2E0,3E0,2E0,8.5E1,3E0,8.865568E-1,3E0,2E0,2E0,1.22590594E-1,3E0,8.7E1,-2.230831E-2,-5.4502096E-2,-4.547445E-2,-3.0490711E-2,-3.8921505E-2,-5.2835613E-2,-5.851492E-2,-5.219949E-2,-6.592292E-2,-6.1348077E-2,-6.481876E-2,-6.898154E-2,-1.4528043E-2,-5.69695E-2,-2.6761627E-2,-5.4602575E-2],"split_indices":[16,16,10,12,3,12,10,1,17,5,10,2,16,10,10,0,0,0,0,0,0,0,0,0,0,0,0,0,0,0,0],"split_type":[0,0,0,0,0,0,0,0,0,0,0,0,0,0,0,0,0,0,0,0,0,0,0,0,0,0,0,0,0,0,0],"sum_hessian":[1.453481E5,2.0693543E4,1.24654555E5,3.8559675E3,1.6837576E4,1.1201534E5,1.2639209E4,1.0066637E3,2.8493037E3,1.6848809E3,1.5152695E4,4.3823535E4,6.819181E4,1.0642761E4,1.9964481E3,2.6749365E1,9.7991437E2,2.5242368E3,3.2506696E2,4.014106E2,1.2834702E3,1.3005931E4,2.1467646E3,1.093396E4,3.2889574E4,3.112507E4,3.7066742E4,9.902931E1,1.0543731E4,6.8006934E2,1.3163788E3],"tree_param":{"num_deleted":"0","num_feature":"18","num_nodes":"31","size_leaf_vector":"1"}},{"base_weights":[-5.961269E-1,-6.0677946E-1,-5.0817114E-1,-6.046725E-1,-7.125734E-1,-4.8627347E-1,-5.618442E-1,-6.286606E-1,-5.9553254E-1,-7.286003E-1,-6.571146E-1,-5.0631964E-1,-4.0777797E-1,-6.117944E-1,-4.8889065E-1,-6.1051942E-2,-6.544281E-2,-5.7750612E-2,-6.0702603E-2,-6.512652E-2,-7.4059896E-2,-5.2406203E-2,-7.817713E-2,-4.815672E-2,-5.5698246E-2,-2.2607883E-2,-5.193588E-2,-5.5542894E-2,-7.3289506E-2,-4.4732418E-2,-6.29723E-2],"categories":[],"categories_nodes":[],"categories_segments":[],"categories_sizes":[],"default_left":[0,0,0,0,0,0,0,0,0,0,0,0,0,0,0,0,0,0,0,0,0,0,0,0,0,0,0,0,0,0,0],"id":5,"left_children":[1,3,5,7,9,11,13,15,17,19,21,23,25,27,29,-1,-1,-1,-1,-1,-1,-1,-1,-1,-1,-1,-1,-1,-1,-1,-1],"loss_changes":[1.2935156E2,2.7078125E1,1.7304932E1,2.6164062E1,1.6584473E0,1.6519775E1,1.5469849E1,1.5201172E1,1.7810547E1,1.2402954E0,8.701035E0,1.0344971E1,4.3827423E1,1.7098816E1,1.0042633E1,0E0,0E0,0E0,0E0,0E0,0E0,0E0,0E0,0E0,0E0,0E0,0E0,0E0,0E0,0E0,0E0],"parents":[2147483647,0,0,1,1,2,2,3,3,4,4,5,5,6,6,7,7,8,8,9,9,10,10,11,11,12,12,13,13,14,14],"right_children":[2,4,6,8,10,12,14,16,18,20,22,24,26,28,30,-1,-1,-1,-1,-1,-1,-1,-1,-1,-1,-1,-1,-1,-1,-1,-1],"split_conditions":[1E0,9.4E1,4E1,2E0,9.9E1,8.3E1,8.7E1,2.4E1,2E0,3E0,1E2,4.9E1,8.7E1,7.1E1,9.3E1,-6.1051942E-2,-6.544281E-2,-5.7750612E-2,-6.0702603E-2,-6.512652E-2,-7.4059896E-2,-5.2406203E-2,-7.817713E-2,-4.815672E-2,-5.5698246E-2,-2.2607883E-2,-5.193588E-2,-5.5542894E-2,-7.3289506E-2,-4.4732418E-2,-6.29723E-2],"split_indices":[10,8,11,2,8,10,11,8,12,5,8,10,10,11,11,0,0,0,0,0,0,0,0,0,0,0,0,0,0,0,0],"split_type":[0,0,0,0,0,0,0,0,0,0,0,0,0,0,0,0,0,0,0,0,0,0,0,0,0,0,0,0,0,0,0],"sum_hessian":[1.3838716E5,1.2343209E5,1.4955063E4,1.2102847E5,2.4036309E3,1.0628771E4,4.326292E3,3.337273E4,8.7655734E4,1.8553251E3,5.483059E2,8.46224E3,2.1665315E3,2.5636292E3,1.7626628E3,1.9599023E4,1.3773707E4,3.414844E4,5.3507293E4,2.566165E2,1.5987085E3,2.6773856E2,2.8056735E2,5.6918623E3,2.7703777E3,8.2542676E2,1.3411049E3,1.7532E3,8.1042926E2,1.3641978E3,3.9846503E2],"tree_param":{"num_deleted":"0","num_feature":"18","num_nodes":"31","size_leaf_vector":"1"}},{"base_weights":[-5.6599367E-1,-4.8340216E-1,-5.798298E-1,-4.2444932E-1,-5.092197E-1,-5.898656E-1,-4.9251753E-1,-4.854222E-1,-4.0188915E-1,-4.3593702E-1,-5.1788723E-1,-5.609156E-1,-6.085759E-1,-5.115295E-1,-3.910589E-1,-4.6530012E-2,-5.892524E-2,-3.6767177E-2,-4.315003E-2,-4.807016E-2,-3.4617584E-2,-5.1559146E-2,-8.135905E-2,-5.758647E-2,-5.327928E-2,-5.8658402E-2,-6.2708065E-2,-5.2630913E-2,-4.22715E-2,-2.099732E-2,-4.8621487E-2],"categories":[],"categories_nodes":[],"categories_segments":[],"categories_sizes":[],"default_left":[0,0,0,0,0,0,0,0,0,0,0,0,0,0,0,0,0,0,0,0,0,0,0,0,0,0,0,0,0,0,0],"id":6,"left_children":[1,3,5,7,9,11,13,15,17,19,21,23,25,27,29,-1,-1,-1,-1,-1,-1,-1,-1,-1,-1,-1,-1,-1,-1,-1,-1],"loss_changes":[1.5032812E2,2.8575195E1,9.861328E1,7.737915E0,8.126953E0,5.4496094E1,2.2258057E1,2.9700012E0,4.112488E0,5.4476013E0,7.5600586E0,1.6405273E1,2.4654297E1,1.2644287E1,3.1631958E1,0E0,0E0,0E0,0E0,0E0,0E0,0E0,0E0,0E0,0E0,0E0,0E0,0E0,0E0,0E0,0E0],"parents":[2147483647,0,0,1,1,2,2,3,3,4,4,5,5,6,6,7,7,8,8,9,9,10,10,11,11,12,12,13,13,14,14],"right_children":[2,4,6,8,10,12,14,16,18,20,22,24,26,28,30,-1,-1,-1,-1,-1,-1,-1,-1,-1,-1,-1,-1,-1,-1,-1,-1],"split_conditions":[2.2359291E-2,-2.3130302E-3,1E0,2E0,3E0,2E0,8.6E1,6.7E1,-9.406323E-3,2.7E1,1E2,5.3E1,1.22590594E-1,9E1,8.7E1,-4.6530012E-2,-5.892524E-2,-3.6767177E-2,-4.315003E-2,-4.807016E-2,-3.4617584E-2,-5.1559146E-2,-8.135905E-2,-5.758647E-2,-5.327928E-2,-5.8658402E-2,-6.2708065E-2,-5.2630913E-2,-4.22715E-2,-2.099732E-2,-4.8621487E-2],"split_indices":[16,16,10,12,3,12,10,0,16,8,8,8,16,11,10,0,0,0,0,0,0,0,0,0,0,0,0,0,0,0,0],"split_type":[0,0,0,0,0,0,0,0,0,0,0,0,0,0,0,0,0,0,0,0,0,0,0,0,0,0,0,0,0,0,0],"sum_hessian":[1.317911E5,1.891546E4,1.1287563E5,5.766175E3,1.3149286E4,1.0123387E5,1.164177E4,1.5517574E3,4.2144175E3,1.3961747E3,1.1753111E4,3.9754066E4,6.1479797E4,9.801126E3,1.8406433E3,1.3044407E3,2.4731674E2,1.9613643E3,2.2530532E3,9.286795E2,4.6749518E2,1.1665286E4,8.7824615E1,2.5943775E4,1.3810292E4,2.8107838E4,3.337196E4,8.398594E3,1.4025321E3,6.351442E2,1.2054991E3],"tree_param":{"num_deleted":"0","num_feature":"18","num_nodes":"31","size_leaf_vector":"1"}},{"base_weights":[-5.3255427E-1,-5.425917E-1,-3.9711612E-1,-4.5363614E-1,-5.5621856E-1,-4.087056E-1,-2.3871897E-1,-3.817307E-1,-4.829635E-1,-5.2703816E-1,-5.7541347E-1,-4.4595736E-1,-3.4709525E-1,-4.8096484E-1,-1.5661791E-1,-4.4798136E-2,-3.5771843E-2,-5.2923806E-2,-4.593731E-2,-5.6346793E-2,-5.1545035E-2,-5.5029597E-2,-5.9783783E-2,-4.2538386E-2,-6.3889585E-2,2.6171386E-2,-3.6727693E-2,-5.137062E-2,-9.294901E-3,-5.050225E-2,-1.2708894E-2],"categories":[],"categories_nodes":[],"categories_segments":[],"categories_sizes":[],"default_left":[0,0,0,0,0,0,0,0,0,0,0,0,0,0,0,0,0,0,0,0,0,0,0,0,0,0,0,0,0,0,0],"id":7,"left_children":[1,3,5,7,9,11,13,15,17,19,21,23,25,27,29,-1,-1,-1,-1,-1,-1,-1,-1,-1,-1,-1,-1,-1,-1,-1,-1],"loss_changes":[1.7105078E2,1.4192188E2,1.5865967E1,3.2682617E1,5.6658203E1,1.8439697E1,1.1764168E1,7.0301514E0,1.1837402E1,1.675E1,3.421875E1,1.9755737E1,3.7660522E1,1.8604317E0,4.5251894E0,0E0,0E0,0E0,0E0,0E0,0E0,0E0,0E0,0E0,0E0,0E0,0E0,0E0,0E0,0E0,0E0],"parents":[2147483647,0,0,1,1,2,2,3,3,4,4,5,5,6,6,7,7,8,8,9,9,10,10,11,11,12,12,13,13,14,14],"right_children":[2,4,6,8,10,12,14,16,18,20,22,24,26,28,30,-1,-1,-1,-1,-1,-1,-1,-1,-1,-1,-1,-1,-1,-1,-1,-1],"split_conditions":[6E0,2.0030841E-2,9.1E1,-4.7031613E-3,2E0,7.1E1,3.3E1,2E0,3E0,2E0,1.22590594E-1,6.8E1,7.3E1,1.3E1,2E0,-4.4798136E-2,-3.5771843E-2,-5.2923806E-2,-4.593731E-2,-5.6346793E-2,-5.1545035E-2,-5.5029597E-2,-5.9783783E-2,-4.2538386E-2,-6.3889585E-2,2.6171386E-2,-3.6727693E-2,-5.137062E-2,-9.294901E-3,-5.050225E-2,-1.2708894E-2],"split_indices":[9,16,11,16,12,9,10,12,7,2,16,9,9,1,7,0,0,0,0,0,0,0,0,0,0,0,0,0,0,0,0],"split_type":[0,0,0,0,0,0,0,0,0,0,0,0,0,0,0,0,0,0,0,0,0,0,0,0,0,0,0,0,0,0,0],"sum_hessian":[1.25979336E5,1.1728428E5,8.695056E3,1.5584425E4,1.0169986E5,8.100766E3,5.942894E2,4.518906E3,1.1065519E4,4.036489E4,6.1334965E4,5.044465E3,3.0563013E3,1.4920116E2,4.450883E2,1.1974487E3,3.3214573E3,3.7291135E3,7.336405E3,9.729547E3,3.0635346E4,2.8942219E4,3.2392748E4,4.561288E3,4.8317722E2,9.7679794E1,2.9586213E3,1.372923E2,1.1908861E1,3.351782E1,4.1157047E2],"tree_param":{"num_deleted":"0","num_feature":"18","num_nodes":"31","size_leaf_vector":"1"}},{"base_weights":[-5.012938E-1,-5.112721E-1,-3.788764E-1,-4.226005E-1,-5.2500075E-1,-4.0912285E-1,-3.1054077E-1,-3.232821E-1,-4.4660404E-1,-5.546468E-1,-5.142632E-1,-4.351418E-1,-3.4726056E-1,-2.754243E-1,-4.335383E-1,-3.665884E-2,-2.7968729E-2,-4.8734885E-2,-4.2565178E-2,-5.2708317E-2,-5.7369824E-2,-5.09576E-2,-5.823602E-2,-4.0322553E-2,-5.0000843E-2,-2.5361264E-2,-4.184008E-2,1.1926445E-2,-3.094911E-2,-4.0972926E-2,-7.244068E-2],"categories":[],"categories_nodes":[],"categories_segments":[],"categories_sizes":[],"default_left":[0,0,0,0,0,0,0,0,0,0,0,0,0,0,0,0,0,0,0,0,0,0,0,0,0,0,0,0,0,0,0],"id":8,"left_children":[1,3,5,7,9,11,13,15,17,19,21,23,25,27,29,-1,-1,-1,-1,-1,-1,-1,-1,-1,-1,-1,-1,-1,-1,-1,-1],"loss_changes":[1.470957E2,1.3550195E2,1.8664429E1,3.5501953E1,3.044336E1,9.987671E0,1.1946716E1,5.398834E0,1.0070557E1,1.3169922E1,2.2328125E1,8.969971E0,1.2351364E1,2.929332E1,3.987877E0,0E0,0E0,0E0,0E0,0E0,0E0,0E0,0E0,0E0,0E0,0E0,0E0,0E0,0E0,0E0,0E0],"parents":[2147483647,0,0,1,1,2,2,3,3,4,4,5,5,6,6,7,7,8,8,9,9,10,10,11,11,12,12,13,13,14,14],"right_children":[2,4,6,8,10,12,14,16,18,20,22,24,26,28,30,-1,-1,-1,-1,-1,-1,-1,-1,-1,-1,-1,-1,-1,-1,-1,-1],"split_conditions":[2E0,2.004626E-2,3.6E1,-7.864302E-3,2E0,7.8E1,1.53431E-1,4E0,3E0,1.22590594E-1,7.7E1,5.7E1,8.2E1,1E0,5.6E1,-3.665884E-2,-2.7968729E-2,-4.8734885E-2,-4.2565178E-2,-5.2708317E-2,-5.7369824E-2,-5.09576E-2,-5.823602E-2,-4.0322553E-2,-5.0000843E-2,-2.5361264E-2,-4.184008E-2,1.1926445E-2,-3.094911E-2,-4.0972926E-2,-7.244068E-2],"split_indices":[9,16,8,16,2,9,16,7,7,16,8,9,9,10,8,0,0,0,0,0,0,0,0,0,0,0,0,0,0,0,0],"split_type":[0,0,0,0,0,0,0,0,0,0,0,0,0,0,0,0,0,0,0,0,0,0,0,0,0,0,0,0,0,0,0],"sum_hessian":[1.20578625E5,1.1148805E5,9.090576E3,1.4951378E4,9.6536664E4,6.297994E3,2.7925825E3,2.9129705E3,1.2038408E4,2.565462E4,7.088205E4,4.4291025E3,1.8688914E3,2.1748813E3,6.177011E2,1.4576042E3,1.4553662E3,4.080677E3,7.957731E3,1.0496679E4,1.515794E4,6.632529E4,4.556759E3,2.9733457E3,1.4557571E3,8.087843E2,1.060107E3,1.7260654E2,2.0022749E3,5.731912E2,4.450991E1],"tree_param":{"num_deleted":"0","num_feature":"18","num_nodes":"31","size_leaf_vector":"1"}},{"base_weights":[-4.717207E-1,-4.8102677E-1,-3.4431478E-1,-3.9088476E-1,-4.9523306E-1,-3.5749567E-1,-1.7316698E-1,-3.2800028E-1,-4.242112E-1,-4.6570203E-1,-5.147158E-1,-4.025604E-1,-2.8943053E-1,-3.0757752E-1,-1.7101247E-2,-3.8714822E-2,-3.0618165E-2,-4.2143818E-2,-8.083808E-2,-4.5999482E-2,-5.3742316E-2,-4.9239974E-2,-5.414408E-2,-3.861123E-2,-5.489096E-2,2.201005E-2,-3.0813316E-2,-1.4515783E-2,-4.053158E-2,6.1513535E-3,-4.6799842E-2],"categories":[],"categories_nodes":[],"categories_segments":[],"categories_sizes":[],"default_left":[0,0,0,0,0,0,0,0,0,0,0,0,0,0,0,0,0,0,0,0,0,0,0,0,0,0,0,0,0,0,0],"id":9,"left_children":[1,3,5,7,9,11,13,15,17,19,21,23,25,27,29,-1,-1,-1,-1,-1,-1,-1,-1,-1,-1,-1,-1,-1,-1,-1,-1],"loss_changes":[1.3700977E2,1.378789E2,1.771228E1,3.0633057E1,5.334375E1,2.2320068E1,1.1853985E1,6.45105E0,9.879639E0,1.4911621E1,3.3194336E1,1.0375671E1,2.7868698E1,4.7621098E0,9.339328E0,0E0,0E0,0E0,0E0,0E0,0E0,0E0,0E0,0E0,0E0,0E0,0E0,0E0,0E0,0E0,0E0],"parents":[2147483647,0,0,1,1,2,2,3,3,4,4,5,5,6,6,7,7,8,8,9,9,10,10,11,11,12,12,13,13,14,14],"right_children":[2,4,6,8,10,12,14,16,18,20,22,24,26,28,30,-1,-1,-1,-1,-1,-1,-1,-1,-1,-1,-1,-1,-1,-1,-1,-1],"split_conditions":[9E0,2.004626E-2,9.1E1,-2.3130302E-3,2E0,7.1E1,1.7E1,2E0,1E2,7.7E1,1.387818E-1,6.8E1,7.3E1,2E0,1.22590594E-1,-3.8714822E-2,-3.0618165E-2,-4.2143818E-2,-8.083808E-2,-4.5999482E-2,-5.3742316E-2,-4.9239974E-2,-5.414408E-2,-3.861123E-2,-5.489096E-2,2.201005E-2,-3.0813316E-2,-1.4515783E-2,-4.053158E-2,6.1513535E-3,-4.6799842E-2],"split_indices":[9,16,11,16,12,9,8,12,8,8,16,9,9,12,16,0,0,0,0,0,0,0,0,0,0,0,0,0,0,0,0],"split_type":[0,0,0,0,0,0,0,0,0,0,0,0,0,0,0,0,0,0,0,0,0,0,0,0,0,0,0,0,0,0,0],"sum_hessian":[1.15695234E5,1.078172E5,7.8780327E3,1.4682437E4,9.3134766E4,7.313684E3,5.643483E2,5.0895967E3,9.59284E3,3.70305E4,5.610427E4,4.397356E3,2.9163286E3,3.026888E2,2.616595E2,1.3670181E3,3.7225786E3,9.526175E3,6.6664764E1,3.430786E4,2.722638E3,3.0584691E4,2.5519578E4,3.956342E3,4.410138E2,1.02874176E2,2.8134543E3,1.1465026E2,1.8803856E2,2.235472E2,3.8112305E1],"tree_param":{"num_deleted":"0","num_feature":"18","num_nodes":"31","size_leaf_vector":"1"}},{"base_weights":[-4.4251615E-1,-4.09659E-1,-4.8117274E-1,-3.4737653E-1,-4.2429477E-1,-4.6451467E-1,-5.321371E-1,-2.5129268E-1,-3.655576E-1,-4.4073695E-1,-3.772214E-1,-4.9328798E-1,-3.5029048E-1,-7.111377E-1,-5.262432E-1,-1.996634E-2,-3.0321417E-2,-4.1090224E-2,-3.424949E-2,-4.111461E-2,-5.0776165E-2,-3.028231E-2,-4.3052044E-2,-4.765245E-2,-5.5058002E-2,-3.39162E-2,-5.2092135E-2,-7.4438535E-2,-1.5376379E-2,-3.7823886E-2,-5.3246647E-2],"categories":[],"categories_nodes":[],"categories_segments":[],"categories_sizes":[],"default_left":[0,0,0,0,0,0,0,0,0,0,0,0,0,0,0,0,0,0,0,0,0,0,0,0,0,0,0,0,0,0,0],"id":10,"left_children":[1,3,5,7,9,11,13,15,17,19,21,23,25,27,29,-1,-1,-1,-1,-1,-1,-1,-1,-1,-1,-1,-1,-1,-1,-1,-1],"loss_changes":[1.4111914E2,5.468164E1,4.3146484E1,1.991101E1,3.7524414E1,1.26458984E2,1.2902588E1,4.8319397E0,9.926025E0,7.136279E1,4.988684E1,2.9293945E1,1.4551392E1,7.2666626E0,1.10234375E1,0E0,0E0,0E0,0E0,0E0,0E0,0E0,0E0,0E0,0E0,0E0,0E0,0E0,0E0,0E0,0E0],"parents":[2147483647,0,0,1,1,2,2,3,3,4,4,5,5,6,6,7,7,8,8,9,9,10,10,11,11,12,12,13,13,14,14],"right_children":[2,4,6,8,10,12,14,16,18,20,22,24,26,28,30,-1,-1,-1,-1,-1,-1,-1,-1,-1,-1,-1,-1,-1,-1,-1,-1],"split_conditions":[1.22590594E-1,1.233616E-2,5.4E1,-1.079414E-2,5.3E1,5.1E1,5.5E1,2E0,3E0,2.2E1,5.9E1,2.2E1,7.1E1,9.8E1,5.6E1,-1.996634E-2,-3.0321417E-2,-4.1090224E-2,-3.424949E-2,-4.111461E-2,-5.0776165E-2,-3.028231E-2,-4.3052044E-2,-4.765245E-2,-5.5058002E-2,-3.39162E-2,-5.2092135E-2,-7.4438535E-2,-1.5376379E-2,-3.7823886E-2,-5.3246647E-2],"split_indices":[16,16,8,16,8,8,8,13,7,8,8,8,11,0,8,0,0,0,0,0,0,0,0,0,0,0,0,0,0,0,0],"split_type":[0,0,0,0,0,0,0,0,0,0,0,0,0,0,0,0,0,0,0,0,0,0,0,0,0,0,0,0,0,0,0],"sum_hessian":[1.1125926E5,6.0147246E4,5.1112008E4,1.1449332E4,4.8697914E4,3.852872E4,1.258329E4,1.8240996E3,9.625232E3,3.6085355E4,1.2612562E4,3.0773496E4,7.755222E3,3.9730322E2,1.2185986E4,9.17053E2,9.070467E2,3.2393628E3,6.3858696E3,2.5038281E4,1.1047072E4,5.267087E3,7.3454746E3,2.38147E4,6.9587983E3,7.2832017E3,4.720203E2,3.7462134E2,2.2681875E1,4.9421155E2,1.1691775E4],"tree_param":{"num_deleted":"0","num_feature":"18","num_nodes":"31","size_leaf_vector":"1"}},{"base_weights":[-4.1729322E-1,-4.2797834E-1,-2.895057E-1,-3.4058273E-1,-4.4268432E-1,-3.1522286E-1,-2.364243E-1,-2.6135024E-1,-3.6191812E-1,-4.3731344E-1,-5.158912E-1,-2.8368586E-1,-3.7630507E-1,7.4306375E-1,-2.5779268E-1,-2.9693449E-2,-1.9533293E-2,-4.1201133E-2,-3.364088E-2,-4.547913E-2,-3.9441895E-2,-6.0961302E-2,-5.0051328E-2,-3.086915E-2,-1.994941E-2,-3.8485013E-2,1.101336E-3,9.214795E-2,2.3210151E-2,-3.2925498E-2,-1.8776288E-2],"categories":[],"categories_nodes":[],"categories_segments":[],"categories_sizes":[],"default_left":[0,0,0,0,0,0,0,0,0,0,0,0,0,0,0,0,0,0,0,0,0,0,0,0,0,0,0,0,0,0,0],"id":11,"left_children":[1,3,5,7,9,11,13,15,17,19,21,23,25,27,29,-1,-1,-1,-1,-1,-1,-1,-1,-1,-1,-1,-1,-1,-1,-1,-1],"loss_changes":[1.4621094E2,1.2695703E2,1.1218811E1,2.3992798E1,3.3060547E1,1.0622742E1,5.6786102E1,7.051834E0,1.4203369E1,5.8950195E1,8.026001E0,7.680298E0,6.2710266E0,5.072506E0,1.3185043E1,0E0,0E0,0E0,0E0,0E0,0E0,0E0,0E0,0E0,0E0,0E0,0E0,0E0,0E0,0E0,0E0],"parents":[2147483647,0,0,1,1,2,2,3,3,4,4,5,5,6,6,7,7,8,8,9,9,10,10,11,11,12,12,13,13,14,14],"right_children":[2,4,6,8,10,12,14,16,18,20,22,24,26,28,30,-1,-1,-1,-1,-1,-1,-1,-1,-1,-1,-1,-1,-1,-1,-1,-1],"split_conditions":[2E0,2.2359291E-2,7.2E1,-7.0161913E-3,7.7E1,5.2E1,7.3E1,5E0,3E0,5.3E1,7.8E1,4E1,6.784888E-1,3E1,6.93909E-2,-2.9693449E-2,-1.9533293E-2,-4.1201133E-2,-3.364088E-2,-4.547913E-2,-3.9441895E-2,-6.0961302E-2,-5.0051328E-2,-3.086915E-2,-1.994941E-2,-3.8485013E-2,1.101336E-3,9.214795E-2,2.3210151E-2,-3.2925498E-2,-1.8776288E-2],"split_indices":[9,16,9,16,8,9,9,7,7,8,8,9,16,0,16,0,0,0,0,0,0,0,0,0,0,0,0,0,0,0,0],"split_type":[0,0,0,0,0,0,0,0,0,0,0,0,0,0,0,0,0,0,0,0,0,0,0,0,0,0,0,0,0,0,0],"sum_hessian":[1.0717009E5,9.889823E4,8.271868E3,1.424806E4,8.4650164E4,5.568885E3,2.702983E3,3.025525E3,1.1222535E4,7.887071E4,5.7794487E3,3.6763928E3,1.892492E3,5.6987846E1,2.645995E3,1.963612E3,1.0619128E3,3.7815242E3,7.4410107E3,5.603075E4,2.2839965E4,8.091818E2,4.9702666E3,2.832463E3,8.4393E2,1.8516471E3,4.0844795E1,4.1643513E1,1.5344333E1,1.3077714E3,1.3382236E3],"tree_param":{"num_deleted":"0","num_feature":"18","num_nodes":"31","size_leaf_vector":"1"}},{"base_weights":[-3.8619694E-1,-3.5485473E-1,-4.2340726E-1,-3.6655232E-1,-2.4844526E-1,-3.9305082E-1,-4.4619393E-1,-2.6845002E-1,-3.7769625E-1,-2.654288E-1,2.8687299E-3,-4.0804276E-1,-3.3800495E-1,-4.6059966E-1,-4.155314E-1,-3.2511216E-2,-2.3938559E-2,-3.5068024E-2,-3.92272E-2,-2.5478711E-2,-5.1043727E-2,-1.0339065E-2,3.288469E-2,-4.154184E-2,-2.998817E-2,-3.117991E-2,-4.0912505E-2,-4.4905666E-2,-4.988461E-2,-4.0714454E-2,-4.859325E-2],"categories":[],"categories_nodes":[],"categories_segments":[],"categories_sizes":[],"default_left":[0,0,0,0,0,0,0,0,0,0,0,0,0,0,0,0,0,0,0,0,0,0,0,0,0,0,0,0,0,0,0],"id":12,"left_children":[1,3,5,7,9,11,13,15,17,19,21,23,25,27,29,-1,-1,-1,-1,-1,-1,-1,-1,-1,-1,-1,-1,-1,-1,-1,-1],"loss_changes":[1.2049512E2,6.980908E1,3.253711E1,5.520996E1,2.3753448E1,1.6602783E1,1.1736816E1,8.4270935E0,1.7751465E1,1.3461182E1,1.2270375E1,1.2590576E1,7.976227E0,7.883789E0,4.9050293E0,0E0,0E0,0E0,0E0,0E0,0E0,0E0,0E0,0E0,0E0,0E0,0E0,0E0,0E0,0E0,0E0],"parents":[2147483647,0,0,1,1,2,2,3,3,4,4,5,5,6,6,7,7,8,8,9,9,10,10,11,11,12,12,13,13,14,14],"right_children":[2,4,6,8,10,12,14,16,18,20,22,24,26,28,30,-1,-1,-1,-1,-1,-1,-1,-1,-1,-1,-1,-1,-1,-1,-1,-1],"split_conditions":[1.22590594E-1,9E0,2E0,-7.7101E-4,1.1256746E-1,6E0,6E0,3E0,2E0,9.4E1,7.2E1,1E1,4.6E1,4.464148E-1,9.8766387E-1,-3.2511216E-2,-2.3938559E-2,-3.5068024E-2,-3.92272E-2,-2.5478711E-2,-5.1043727E-2,-1.0339065E-2,3.288469E-2,-4.154184E-2,-2.998817E-2,-3.117991E-2,-4.0912505E-2,-4.4905666E-2,-4.988461E-2,-4.0714454E-2,-4.859325E-2],"split_indices":[16,9,12,16,16,3,3,7,12,10,9,10,0,16,16,0,0,0,0,0,0,0,0,0,0,0,0,0,0,0,0],"split_type":[0,0,0,0,0,0,0,0,0,0,0,0,0,0,0,0,0,0,0,0,0,0,0,0,0,0,0,0,0,0,0],"sum_hessian":[1.034457E5,5.6156055E4,4.7289645E4,5.059203E4,5.5640244E3,2.0284664E4,2.700498E4,5.163332E3,4.54287E4,5.211762E3,3.5226202E2,1.5937588E4,4.3470757E3,1.8363508E4,8.641475E3,1.7471045E3,3.4162273E3,1.5929174E4,2.9499525E4,4.9967725E3,2.1498985E2,2.6617844E2,8.608358E1,1.4917502E4,1.0200856E3,3.1805232E3,1.1665525E3,1.411596E4,4.247547E3,7.7276606E3,9.1381354E2],"tree_param":{"num_deleted":"0","num_feature":"18","num_nodes":"31","size_leaf_vector":"1"}},{"base_weights":[-3.6134318E-1,-3.7160352E-1,-2.4077398E-1,-2.902537E-1,-3.8469043E-1,-1.8430412E-1,-2.7759784E-1,-1.7881796E-1,-3.0732128E-1,-3.5422418E-1,-4.049798E-1,-2.7043553E-2,-2.079897E-1,-3.125157E-1,-1.9956803E-1,-2.0335345E-5,-1.8797612E-2,-3.0528022E-2,-6.5370336E-2,-3.974866E-2,-3.40615E-2,-3.833419E-2,-4.2445406E-2,7.1171406E-3,-4.3070365E-2,-2.1321764E-2,3.903629E-2,-3.4283802E-2,-2.175658E-2,-2.403367E-2,8.224242E-5],"categories":[],"categories_nodes":[],"categories_segments":[],"categories_sizes":[],"default_left":[0,0,0,0,0,0,0,0,0,0,0,0,0,0,0,0,0,0,0,0,0,0,0,0,0,0,0,0,0,0,0],"id":13,"left_children":[1,3,5,7,9,11,13,15,17,19,21,23,25,27,29,-1,-1,-1,-1,-1,-1,-1,-1,-1,-1,-1,-1,-1,-1,-1,-1],"loss_changes":[1.2380469E2,9.814551E1,1.6287231E1,2.4278564E1,4.9E1,1.1557106E1,1.2890198E1,2.7835274E0,7.6434326E0,1.8580322E1,1.994336E1,1.6185823E1,8.522232E0,9.375885E0,1.2029434E1,0E0,0E0,0E0,0E0,0E0,0E0,0E0,0E0,0E0,0E0,0E0,0E0,0E0,0E0,0E0,0E0],"parents":[2147483647,0,0,1,1,2,2,3,3,4,4,5,5,6,6,7,7,8,8,9,9,10,10,11,11,12,12,13,13,14,14],"right_children":[2,4,6,8,10,12,14,16,18,20,22,24,26,28,30,-1,-1,-1,-1,-1,-1,-1,-1,-1,-1,-1,-1,-1,-1,-1,-1],"split_conditions":[3E0,2.0030841E-2,2E0,-1.079414E-2,2E0,3E0,3.6E1,2E0,1E2,2E0,1.22590594E-1,2.0046261E-1,6.784888E-1,8.1E1,5.8E1,-2.0335345E-5,-1.8797612E-2,-3.0528022E-2,-6.5370336E-2,-3.974866E-2,-3.40615E-2,-3.833419E-2,-4.2445406E-2,7.1171406E-3,-4.3070365E-2,-2.1321764E-2,3.903629E-2,-3.4283802E-2,-2.175658E-2,-2.403367E-2,8.224242E-5],"split_indices":[9,16,12,16,12,10,8,5,8,2,16,16,16,9,11,0,0,0,0,0,0,0,0,0,0,0,0,0,0,0,0],"split_type":[0,0,0,0,0,0,0,0,0,0,0,0,0,0,0,0,0,0,0,0,0,0,0,0,0,0,0,0,0,0,0],"sum_hessian":[1.00148984E5,9.229287E4,7.856118E3,1.2793044E4,7.949983E4,3.1032498E3,4.7528687E3,1.7006747E3,1.1092369E4,3.178714E4,4.7712684E4,4.0649103E2,2.6967585E3,3.2814395E3,1.4714291E3,8.299599E1,1.6176787E3,1.102926E4,6.3109463E1,7.599815E3,2.4187324E4,2.2610633E4,2.5102053E4,3.2760486E2,7.888619E1,2.6740386E3,2.2719997E1,2.4851836E3,7.9625586E2,1.2225139E3,2.489151E2],"tree_param":{"num_deleted":"0","num_feature":"18","num_nodes":"31","size_leaf_vector":"1"}},{"base_weights":[-3.3451244E-1,-3.4305298E-1,-2.2755E-1,-2.755078E-1,-3.5468802E-1,-2.5513226E-1,-1.6391951E-1,-2.201501E-1,-2.976044E-1,-3.496553E-1,-4.2423263E-1,-2.466901E-1,-4.8563018E-1,-7.70294E-2,-2.2191776E-1,-2.5616333E-2,-1.5340229E-2,-1.8899588E-2,-3.080873E-2,-3.6787387E-2,-3.0536255E-2,-3.7240427E-2,-4.5910183E-2,-2.7124653E-2,-1.0979523E-2,-1.0197822E-2,-5.471581E-2,-2.440197E-2,4.497535E-3,-1.8085316E-2,-3.1186743E-2],"categories":[],"categories_nodes":[],"categories_segments":[],"categories_sizes":[],"default_left":[0,0,0,0,0,0,0,0,0,0,0,0,0,0,0,0,0,0,0,0,0,0,0,0,0,0,0,0,0,0,0],"id":14,"left_children":[1,3,5,7,9,11,13,15,17,19,21,23,25,27,29,-1,-1,-1,-1,-1,-1,-1,-1,-1,-1,-1,-1,-1,-1,-1,-1],"loss_changes":[8.859863E1,7.054883E1,1.2560883E1,1.6097717E1,2.6688477E1,9.624298E0,1.0939777E1,9.031464E0,1.0690735E1,5.759375E1,9.172058E0,1.621576E1,4.0961685E0,1.777389E1,4.757843E0,0E0,0E0,0E0,0E0,0E0,0E0,0E0,0E0,0E0,0E0,0E0,0E0,0E0,0E0,0E0,0E0],"parents":[2147483647,0,0,1,1,2,2,3,3,4,4,5,5,6,6,7,7,8,8,9,9,10,10,11,11,12,12,13,13,14,14],"right_children":[2,4,6,8,10,12,14,16,18,20,22,24,26,28,30,-1,-1,-1,-1,-1,-1,-1,-1,-1,-1,-1,-1,-1,-1,-1,-1],"split_conditions":[6E0,2.2359291E-2,3.6E1,-4.7031613E-3,7.7E1,9.3E1,4E0,5E0,3E0,5.3E1,1.14880495E-1,8.6E1,4E0,4.317656E-2,1.53431E-1,-2.5616333E-2,-1.5340229E-2,-1.8899588E-2,-3.080873E-2,-3.6787387E-2,-3.0536255E-2,-3.7240427E-2,-4.5910183E-2,-2.7124653E-2,-1.0979523E-2,-1.0197822E-2,-5.471581E-2,-2.440197E-2,4.497535E-3,-1.8085316E-2,-3.1186743E-2],"split_indices":[9,16,8,16,8,10,3,7,3,8,16,10,1,16,16,0,0,0,0,0,0,0,0,0,0,0,0,0,0,0,0],"split_type":[0,0,0,0,0,0,0,0,0,0,0,0,0,0,0,0,0,0,0,0,0,0,0,0,0,0,0,0,0,0,0],"sum_hessian":[9.707132E4,8.98916E4,7.1797183E3,1.3212625E4,7.667898E4,5.00651E3,2.1732085E3,3.772502E3,9.440123E3,7.151007E4,5.1689033E3,4.8316187E3,1.7489133E2,8.70859E2,1.3023495E3,2.4485623E3,1.3239397E3,8.32631E2,8.607492E3,5.0663703E4,2.084637E4,2.0835962E3,3.0853074E3,4.0959067E3,7.3571173E2,2.4538853E1,1.5035248E2,3.672275E2,5.0363153E2,8.9621295E2,4.0613654E2],"tree_param":{"num_deleted":"0","num_feature":"18","num_nodes":"31","size_leaf_vector":"1"}},{"base_weights":[-3.1038824E-1,-2.823769E-1,-3.4410405E-1,-2.9303044E-1,-1.88147E-1,-3.2581115E-1,-4.0041658E-1,-2.1078375E-1,-3.0354205E-1,-2.0526664E-1,5.637953E-2,-3.5918814E-1,-1.9681673E-1,-6.0712457E-1,-3.9376616E-1,-2.7193163E-2,-1.8856931E-2,-3.1696815E-2,-2.6434092E-2,-2.456315E-2,-1.47668E-2,-8.488929E-3,4.3314215E-2,-3.3761207E-2,-4.3330014E-2,-1.2780331E-2,-2.475245E-2,-6.545181E-2,-9.580759E-3,-3.579862E-2,-4.2300135E-2],"categories":[],"categories_nodes":[],"categories_segments":[],"categories_sizes":[],"default_left":[0,0,0,0,0,0,0,0,0,0,0,0,0,0,0,0,0,0,0,0,0,0,0,0,0,0,0,0,0,0,0],"id":15,"left_children":[1,3,5,7,9,11,13,15,17,19,21,23,25,27,29,-1,-1,-1,-1,-1,-1,-1,-1,-1,-1,-1,-1,-1,-1,-1,-1],"loss_changes":[8.9055664E1,5.1712402E1,4.3993164E1,3.9988525E1,2.1950409E1,1.3915063E2,1.4192627E1,7.0845337E0,2.1534912E1,1.1351532E1,1.8329569E1,4.0929688E1,2.3237335E1,7.822357E0,1.0490845E1,0E0,0E0,0E0,0E0,0E0,0E0,0E0,0E0,0E0,0E0,0E0,0E0,0E0,0E0,0E0,0E0],"parents":[2147483647,0,0,1,1,2,2,3,3,4,4,5,5,6,6,7,7,8,8,9,9,10,10,11,11,12,12,13,13,14,14],"right_children":[2,4,6,8,10,12,14,16,18,20,22,24,26,28,30,-1,-1,-1,-1,-1,-1,-1,-1,-1,-1,-1,-1,-1,-1,-1,-1],"split_conditions":[1.22590594E-1,9E0,5.4E1,4.6260603E-4,1.1256746E-1,5.1E1,5.5E1,2E0,5.3E1,6.93909E-2,5.4E1,2.2E1,2E0,7E0,2E0,-2.7193163E-2,-1.8856931E-2,-3.1696815E-2,-2.6434092E-2,-2.456315E-2,-1.47668E-2,-8.488929E-3,4.3314215E-2,-3.3761207E-2,-4.3330014E-2,-1.2780331E-2,-2.475245E-2,-6.545181E-2,-9.580759E-3,-3.579862E-2,-4.2300135E-2],"split_indices":[16,9,8,16,16,8,8,12,8,16,8,8,12,3,12,0,0,0,0,0,0,0,0,0,0,0,0,0,0,0,0],"split_type":[0,0,0,0,0,0,0,0,0,0,0,0,0,0,0,0,0,0,0,0,0,0,0,0,0,0,0,0,0,0,0],"sum_hessian":[9.439847E4,5.1566254E4,4.2832215E4,4.6326508E4,5.239746E3,3.2335068E4,1.0497146E4,5.252229E3,4.1074277E4,4.897057E3,3.4268933E2,2.5686865E4,6.6482026E3,3.2438376E2,1.0172763E4,1.396622E3,3.8556072E3,3.0590264E4,1.0484015E4,2.8773555E3,2.0197015E3,2.498003E2,9.288904E1,1.9899205E4,5.787661E3,2.8173289E3,3.830874E3,2.9661108E2,2.7772676E1,4.5803115E3,5.5924507E3],"tree_param":{"num_deleted":"0","num_feature":"18","num_nodes":"31","size_leaf_vector":"1"}},{"base_weights":[-2.8347588E-1,-2.569636E-1,-3.1556693E-1,-2.683E-1,-1.9688152E-1,-2.9887724E-1,-3.6728248E-1,-1.8254496E-1,-2.7811426E-1,-9.0990424E-2,-2.0990007E-1,-3.2668996E-1,-1.9300991E-1,-5.8472615E-1,-3.6045942E-1,-2.4607215E-2,-1.5047702E-2,-2.9114386E-2,-2.3988824E-2,1.3049232E-2,-1.4717588E-2,-2.0387031E-2,-4.5411706E-2,-3.0673701E-2,-3.961102E-2,-1.808001E-2,-3.7354317E-2,-6.420482E-2,-1.521067E-2,-3.4134004E-2,-4.2337846E-2],"categories":[],"categories_nodes":[],"categories_segments":[],"categories_sizes":[],"default_left":[0,0,0,0,0,0,0,0,0,0,0,0,0,0,0,0,0,0,0,0,0,0,0,0,0,0,0,0,0,0,0],"id":16,"left_children":[1,3,5,7,9,11,13,15,17,19,21,23,25,27,29,-1,-1,-1,-1,-1,-1,-1,-1,-1,-1,-1,-1,-1,-1,-1,-1],"loss_changes":[7.805029E1,3.4201904E1,3.574463E1,3.555542E1,1.0990997E1,9.242407E1,1.4819702E1,8.819595E0,1.8836914E1,1.0922419E1,1.03797E1,3.4332764E1,1.4343109E1,7.50589E0,1.1674805E1,0E0,0E0,0E0,0E0,0E0,0E0,0E0,0E0,0E0,0E0,0E0,0E0,0E0,0E0,0E0,0E0],"parents":[2147483647,0,0,1,1,2,2,3,3,4,4,5,5,6,6,7,7,8,8,9,9,10,10,11,11,12,12,13,13,14,14],"right_children":[2,4,6,8,10,12,14,16,18,20,22,24,26,28,30,-1,-1,-1,-1,-1,-1,-1,-1,-1,-1,-1,-1,-1,-1,-1,-1],"split_conditions":[1.22590594E-1,2E0,5.4E1,-2.3130302E-3,3E0,5.1E1,5.5E1,3E0,5.3E1,6E0,9.7E1,2.2E1,6.6E1,8.5E1,4.5952198E-1,-2.4607215E-2,-1.5047702E-2,-2.9114386E-2,-2.3988824E-2,1.3049232E-2,-1.4717588E-2,-2.0387031E-2,-4.5411706E-2,-3.0673701E-2,-3.961102E-2,-1.808001E-2,-3.7354317E-2,-6.420482E-2,-1.521067E-2,-3.4134004E-2,-4.2337846E-2],"split_indices":[16,10,8,16,1,8,8,7,8,8,10,8,11,0,16,0,0,0,0,0,0,0,0,0,0,0,0,0,0,0,0],"split_type":[0,0,0,0,0,0,0,0,0,0,0,0,0,0,0,0,0,0,0,0,0,0,0,0,0,0,0,0,0,0,0],"sum_hessian":[9.183071E4,5.029121E4,4.1539496E4,4.2305477E4,7.985735E3,3.14097E4,1.0129797E4,4.34648E3,3.7958996E4,8.7517487E2,7.11056E3,2.4873125E4,6.5365757E3,3.0561194E2,9.824185E3,1.4558134E3,2.8906665E3,2.8304572E4,9.654423E3,1.7682178E2,6.983531E2,6.9410195E3,1.6954019E2,1.9324303E4,5.548822E3,6.124374E3,4.1220166E2,2.6942862E2,3.618333E1,7.5395493E3,2.2846357E3],"tree_param":{"num_deleted":"0","num_feature":"18","num_nodes":"31","size_leaf_vector":"1"}},{"base_weights":[-2.670017E-1,-2.4097729E-1,-2.9865757E-1,-2.505508E-1,-1.5761201E-1,-3.130828E-1,-2.6057655E-1,-1.5274437E-1,-2.5919738E-1,-2.1948463E-1,-8.3648585E-2,-3.0972046E-1,-4.6102846E-1,-3.0841815E-1,-2.4296258E-1,-8.430643E-3,-1.7329972E-2,-2.7097419E-2,-2.2446258E-2,5.0859805E-3,-2.299564E-2,-1.8787067E-2,2.0625398E-3,-3.0825168E-2,-6.26341E-2,-5.3089816E-2,-3.4233876E-2,-2.131803E-2,-3.3640232E-2,-3.241033E-2,-2.2253612E-2],"categories":[],"categories_nodes":[],"categories_segments":[],"categories_sizes":[],"default_left":[0,0,0,0,0,0,0,0,0,0,0,0,0,0,0,0,0,0,0,0,0,0,0,0,0,0,0,0,0,0,0],"id":17,"left_children":[1,3,5,7,9,11,13,15,17,19,21,23,25,27,29,-1,-1,-1,-1,-1,-1,-1,-1,-1,-1,-1,-1,-1,-1,-1,-1],"loss_changes":[7.3680176E1,3.9177002E1,2.2104248E1,3.723291E1,2.315731E1,1.4425781E1,9.280334E0,5.0248566E0,1.6503418E1,7.816437E0,2.5090368E1,1.3125244E1,5.198288E0,7.880432E0,1.338443E1,0E0,0E0,0E0,0E0,0E0,0E0,0E0,0E0,0E0,0E0,0E0,0E0,0E0,0E0,0E0,0E0],"parents":[2147483647,0,0,1,1,2,2,3,3,4,4,5,5,6,6,7,7,8,8,9,9,10,10,11,11,12,12,13,13,14,14],"right_children":[2,4,6,8,10,12,14,16,18,20,22,24,26,28,30,-1,-1,-1,-1,-1,-1,-1,-1,-1,-1,-1,-1,-1,-1,-1,-1],"split_conditions":[1.22590594E-1,9E0,6E0,-4.7031613E-3,6.93909E-2,9.5E1,6E0,-1.2875867E-2,5.3E1,1.4E1,5.2E1,1E2,9.8E1,3E0,4E0,-8.430643E-3,-1.7329972E-2,-2.7097419E-2,-2.2446258E-2,5.0859805E-3,-2.299564E-2,-1.8787067E-2,2.0625398E-3,-3.0825168E-2,-6.26341E-2,-5.3089816E-2,-3.4233876E-2,-2.131803E-2,-3.3640232E-2,-3.241033E-2,-2.2253612E-2],"split_indices":[16,9,3,16,16,8,1,16,8,9,10,11,8,5,8,0,0,0,0,0,0,0,0,0,0,0,0,0,0,0,0],"split_type":[0,0,0,0,0,0,0,0,0,0,0,0,0,0,0,0,0,0,0,0,0,0,0,0,0,0,0,0,0,0,0],"sum_hessian":[8.952264E4,4.9136215E4,4.038642E4,4.4072945E4,5.06327E3,2.9285678E4,1.1100744E4,3.581307E3,4.049164E4,2.7559055E3,2.3073643E3,2.863792E4,6.477586E2,2.9827468E3,8.117997E3,8.2837537E2,2.7529314E3,3.0234002E4,1.0257637E4,1.0262509E2,2.6532805E3,1.1535685E3,1.1537959E3,2.8507648E4,1.3027153E2,4.0554904E2,2.4220958E2,6.7934955E2,2.3033975E3,1.6296436E3,6.4883535E3],"tree_param":{"num_deleted":"0","num_feature":"18","num_nodes":"31","size_leaf_vector":"1"}},{"base_weights":[-2.4655947E-1,-2.2418894E-1,-2.739096E-1,-1.799042E-1,-2.3504691E-1,-2.4073443E-1,-2.991869E-1,-1.78007E-1,-7.663338E-1,-2.4235566E-1,-1.483612E-1,-3.0252156E-1,-2.1948846E-1,-2.8256142E-1,-3.5295364E-1,-1.3053861E-2,-1.9093877E-2,-5.4903295E-2,-9.3375854E-2,-2.2151006E-2,-2.6397599E-2,-1.3371165E-2,-5.3369373E-2,-3.1969663E-2,-2.4106024E-2,-1.8453635E-2,-2.876092E-2,-3.099055E-2,-1.7983962E-2,-3.285823E-2,-4.1197058E-2],"categories":[],"categories_nodes":[],"categories_segments":[],"categories_sizes":[],"default_left":[0,0,0,0,0,0,0,0,0,0,0,0,0,0,0,0,0,0,0,0,0,0,0,0,0,0,0,0,0,0,0],"id":18,"left_children":[1,3,5,7,9,11,13,15,17,19,21,23,25,27,29,-1,-1,-1,-1,-1,-1,-1,-1,-1,-1,-1,-1,-1,-1,-1,-1],"loss_changes":[5.3458008E1,2.3097168E1,3.292798E1,1.0410675E1,2.4447266E1,2.2279724E1,1.9861328E1,5.776428E0,5.8852005E-1,1.6003174E1,1.690538E1,4.517975E0,3.0115295E1,4.7867065E1,7.444763E0,0E0,0E0,0E0,0E0,0E0,0E0,0E0,0E0,0E0,0E0,0E0,0E0,0E0,0E0,0E0,0E0],"parents":[2147483647,0,0,1,1,2,2,3,3,4,4,5,5,6,6,7,7,8,8,9,9,10,10,11,11,12,12,13,13,14,14],"right_children":[2,4,6,8,10,12,14,16,18,20,22,24,26,28,30,-1,-1,-1,-1,-1,-1,-1,-1,-1,-1,-1,-1,-1,-1,-1,-1],"split_conditions":[1.22590594E-1,1.233616E-2,2E0,1E2,6E1,5E0,5.4E1,-9.406323E-3,8E0,2.3E1,9.9E1,6E0,5.4E1,5E1,3.708558E-1,-1.3053861E-2,-1.9093877E-2,-5.4903295E-2,-9.3375854E-2,-2.2151006E-2,-2.6397599E-2,-1.3371165E-2,-5.3369373E-2,-3.1969663E-2,-2.4106024E-2,-1.8453635E-2,-2.876092E-2,-3.099055E-2,-1.7983962E-2,-3.285823E-2,-4.1197058E-2],"split_indices":[16,16,12,8,10,8,8,16,1,8,10,3,8,8,16,0,0,0,0,0,0,0,0,0,0,0,0,0,0,0,0],"split_type":[0,0,0,0,0,0,0,0,0,0,0,0,0,0,0,0,0,0,0,0,0,0,0,0,0,0,0,0,0,0,0],"sum_hessian":[8.747311E4,4.8121902E4,3.935121E4,9.47898E3,3.864292E4,1.7021652E4,2.2329557E4,9.449713E3,2.9267649E1,3.56365E4,3.0064219E3,4.3520015E3,1.266965E4,1.7060469E4,5.269088E3,2.0255717E3,7.424141E3,1.4598935E1,1.4668714E1,1.8149047E4,1.7487455E4,2.8976077E3,1.088141E2,3.3981934E3,9.538082E2,8.375809E3,4.2938413E3,1.3472212E4,3.588258E3,3.7337722E3,1.5353156E3],"tree_param":{"num_deleted":"0","num_feature":"18","num_nodes":"31","size_leaf_vector":"1"}},{"base_weights":[-2.2695059E-1,-2.3448879E-1,-1.3240767E-1,-1.7584227E-1,-2.4440312E-1,-1.3375051E-1,1.6961987E0,-2.1072665E-1,-1.410852E-1,-2.1281826E-1,-2.6559606E-1,-1.4756261E-1,1.4154025E-2,2.3565498E-1,1.5858714E-2,-1.9840285E-2,-2.9264614E-2,-3.017195E-3,-1.5246718E-2,-2.0672247E-2,-2.9148713E-2,-2.5932396E-2,-3.5655316E-2,-1.8484443E-2,-9.030713E-3,-1.0958675E-2,1.6038602E-2],"categories":[],"categories_nodes":[],"categories_segments":[],"categories_sizes":[],"default_left":[0,0,0,0,0,0,0,0,0,0,0,0,0,0,0,0,0,0,0,0,0,0,0,0,0,0,0],"id":19,"left_children":[1,3,5,7,9,11,13,15,17,19,21,23,25,-1,-1,-1,-1,-1,-1,-1,-1,-1,-1,-1,-1,-1,-1],"loss_changes":[6.0975586E1,4.605371E1,1.5754646E1,1.3874725E1,4.5334717E1,1.2912697E1,4.4121256E0,5.718033E0,7.2509995E0,1.3000244E1,2.3057373E1,1.2321548E1,9.801188E0,0E0,0E0,0E0,0E0,0E0,0E0,0E0,0E0,0E0,0E0,0E0,0E0,0E0,0E0],"parents":[2147483647,0,0,1,1,2,2,3,3,4,4,5,5,6,6,7,7,8,8,9,9,10,10,11,11,12,12],"right_children":[2,4,6,8,10,12,14,16,18,20,22,24,26,-1,-1,-1,-1,-1,-1,-1,-1,-1,-1,-1,-1,-1,-1],"split_conditions":[9E0,2.004626E-2,9.1E1,4E0,2E0,9E1,4E0,6.5E1,3E0,7.7E1,7.7E1,7.2E1,1.7E1,2.3565498E-1,1.5858714E-2,-1.9840285E-2,-2.9264614E-2,-3.017195E-3,-1.5246718E-2,-2.0672247E-2,-2.9148713E-2,-2.5932396E-2,-3.5655316E-2,-1.8484443E-2,-9.030713E-3,-1.0958675E-2,1.6038602E-2],"split_indices":[9,16,8,7,12,11,7,8,1,8,8,9,8,0,0,0,0,0,0,0,0,0,0,0,0,0,0],"split_type":[0,0,0,0,0,0,0,0,0,0,0,0,0,0,0,0,0,0,0,0,0,0,0,0,0,0,0],"sum_hessian":[8.5600414E4,7.927787E4,6.3225464E3,1.1466796E4,6.781107E4,6.318833E3,3.7134302E0,5.720391E3,5.7464053E3,2.7234E4,4.0577074E4,5.7791484E3,5.396846E2,2.2251856E0,1.4882443E0,4.975334E3,7.450571E2,5.351563E2,5.211249E3,2.5278852E4,1.955148E3,3.79631E4,2.6139724E3,3.4987278E3,2.2804207E3,2.9245837E2,2.4722621E2],"tree_param":{"num_deleted":"0","num_feature":"18","num_nodes":"27","size_leaf_vector":"1"}},{"base_weights":[-2.081055E-1,-2.1491024E-1,-1.2344245E-1,-1.6763005E-1,-2.247978E-1,-1.7329589E-1,-8.684543E-2,-1.9074166E-1,-1.2476267E-1,-2.2364104E-1,-5.479275E-1,-8.3247624E-2,-2.0497939E-1,7.9583995E-2,-1.3062806E-1,-1.4758485E-2,-2.0605322E-2,-7.492147E-3,-1.5364227E-2,-2.1797389E-2,-2.6741493E-2,-7.400318E-2,-4.7137983E-2,-1.7820396E-2,1.1546117E-3,-5.3893663E-2,-1.9469222E-2,-5.356502E-3,1.6450638E-2,-1.6404929E-2,-5.1974657E-4],"categories":[],"categories_nodes":[],"categories_segments":[],"categories_sizes":[],"default_left":[0,0,0,0,0,0,0,0,0,0,0,0,0,0,0,0,0,0,0,0,0,0,0,0,0,0,0,0,0,0,0],"id":20,"left_children":[1,3,5,7,9,11,13,15,17,19,21,23,25,27,29,-1,-1,-1,-1,-1,-1,-1,-1,-1,-1,-1,-1,-1,-1,-1,-1],"loss_changes":[4.833545E1,3.6285156E1,1.1383339E1,1.3294128E1,2.3895996E1,7.525612E0,2.6277035E1,5.7395935E0,6.7703934E0,1.5825928E1,3.0116196E0,6.2109056E0,6.611267E0,8.505236E0,1.1964573E1,0E0,0E0,0E0,0E0,0E0,0E0,0E0,0E0,0E0,0E0,0E0,0E0,0E0,0E0,0E0,0E0],"parents":[2147483647,0,0,1,1,2,2,3,3,4,4,5,5,6,6,7,7,8,8,9,9,10,10,11,11,12,12,13,13,14,14],"right_children":[2,4,6,8,10,12,14,16,18,20,22,24,26,28,30,-1,-1,-1,-1,-1,-1,-1,-1,-1,-1,-1,-1,-1,-1,-1,-1],"split_conditions":[9E0,2.7756361E-2,6.93909E-2,5E0,1E2,1.233616E-2,7.979954E-2,2E0,4.6260603E-4,5.39707E-1,2.074017E-1,2E0,2.721033E-2,7.7E1,5.8E1,-1.4758485E-2,-2.0605322E-2,-7.492147E-3,-1.5364227E-2,-2.1797389E-2,-2.6741493E-2,-7.400318E-2,-4.7137983E-2,-1.7820396E-2,1.1546117E-3,-5.3893663E-2,-1.9469222E-2,-5.356502E-3,1.6450638E-2,-1.6404929E-2,-5.1974657E-4],"split_indices":[9,16,16,7,11,16,16,4,16,16,16,13,17,9,11,0,0,0,0,0,0,0,0,0,0,0,0,0,0,0,0],"split_type":[0,0,0,0,0,0,0,0,0,0,0,0,0,0,0,0,0,0,0,0,0,0,0,0,0,0,0,0,0,0,0],"sum_hessian":[8.394434E4,7.769789E4,6.246454E3,1.3441505E4,6.4256387E4,2.6427266E3,3.6037278E3,8.730873E3,4.7106323E3,6.4028863E4,2.2752266E2,6.8877484E2,1.9539517E3,7.504083E2,2.8533193E3,2.289208E3,6.441665E3,1.7294664E3,2.9811658E3,5.669487E4,7.333994E3,6.235895E1,1.6516371E2,3.4365274E2,3.4512207E2,5.685494E1,1.8970968E3,2.923713E2,4.5803702E2,2.2527595E3,6.0056E2],"tree_param":{"num_deleted":"0","num_feature":"18","num_nodes":"31","size_leaf_vector":"1"}},{"base_weights":[-1.9141917E-1,-1.6844119E-1,-2.1979329E-1,-1.8019779E-1,-1.313787E-1,-1.8229921E-1,-2.4858657E-1,-1.569634E-1,-2.440853E-1,-6.8116374E-2,-1.8641724E-1,-2.000319E-1,-1.18072465E-1,-2.6492754E-1,-2.1398693E-1,-1.8885393E-2,-1.1737346E-2,-4.0559232E-2,-2.1344414E-2,-8.381864E-3,3.0576397E-4,-1.787768E-2,-4.7301482E-2,-1.8345147E-2,-2.4735041E-2,2.1211823E-2,-1.300292E-2,-2.4969399E-2,-3.162541E-2,-2.475817E-2,-2.0078767E-2],"categories":[],"categories_nodes":[],"categories_segments":[],"categories_sizes":[],"default_left":[0,0,0,0,0,0,0,0,0,0,0,0,0,0,0,0,0,0,0,0,0,0,0,0,0,0,0,0,0,0,0],"id":21,"left_children":[1,3,5,7,9,11,13,15,17,19,21,23,25,27,29,-1,-1,-1,-1,-1,-1,-1,-1,-1,-1,-1,-1,-1,-1,-1,-1],"loss_changes":[5.3721924E1,1.9829834E1,3.9782715E1,5.130481E1,3.8205704E1,1.8231506E1,1.1739868E1,3.2004883E1,4.5553894E1,5.709221E0,1.2767319E1,9.808044E0,1.3728615E1,1.0998291E1,2.9204407E0,0E0,0E0,0E0,0E0,0E0,0E0,0E0,0E0,0E0,0E0,0E0,0E0,0E0,0E0,0E0,0E0],"parents":[2147483647,0,0,1,1,2,2,3,3,4,4,5,5,6,6,7,7,8,8,9,9,10,10,11,11,12,12,13,13,14,14],"right_children":[2,4,6,8,10,12,14,16,18,20,22,24,26,28,30,-1,-1,-1,-1,-1,-1,-1,-1,-1,-1,-1,-1,-1,-1,-1,-1],"split_conditions":[1.22590594E-1,5.3E1,2E0,2.3E1,6.5E1,6E0,6E0,5E0,2.6E1,6.5E1,1E2,5.4E1,2E0,4.464148E-1,6E0,-1.8885393E-2,-1.1737346E-2,-4.0559232E-2,-2.1344414E-2,-8.381864E-3,3.0576397E-4,-1.787768E-2,-4.7301482E-2,-1.8345147E-2,-2.4735041E-2,2.1211823E-2,-1.300292E-2,-2.4969399E-2,-3.162541E-2,-2.475817E-2,-2.0078767E-2],"split_indices":[16,8,12,8,8,3,3,8,8,0,8,8,5,16,1,0,0,0,0,0,0,0,0,0,0,0,0,0,0,0,0],"split_type":[0,0,0,0,0,0,0,0,0,0,0,0,0,0,0,0,0,0,0,0,0,0,0,0,0,0,0,0,0,0,0],"sum_hessian":[8.24541E4,4.556308E4,3.6891027E4,3.4587664E4,1.0975416E4,1.6027563E4,2.0863463E4,2.536607E4,9.221593E3,5.1072676E3,5.8681484E3,1.2558193E4,3.46937E3,1.4166257E4,6.697205E3,1.4047079E4,1.1318991E4,1.4685822E3,7.7530107E3,4.18402E3,9.2324744E2,5.7173525E3,1.50796E2,9.303219E3,3.2549744E3,1.20656105E2,3.3487139E3,1.0928558E4,3.237699E3,1.8840822E3,4.813123E3],"tree_param":{"num_deleted":"0","num_feature":"18","num_nodes":"31","size_leaf_vector":"1"}},{"base_weights":[-1.7435843E-1,-1.8075098E-1,-9.591995E-2,-1.7975852E-1,-5.2327067E-1,-4.8067655E-2,-1.283375E-1,-1.8990147E-1,-1.4966235E-1,-3.1600106E-1,-5.895347E-1,1.730481E-1,-6.440752E-2,-1.4085701E-1,1.2367796E-1,-1.6510736E-2,-2.0749938E-2,-1.4741964E-2,-3.8632598E-2,-1.0840272E-2,-7.206633E-2,-7.391259E-2,-4.3901812E-2,4.5239855E-2,-5.051977E-4,-1.8707989E-3,-1.4139987E-2,-1.5123389E-2,1.8021023E-2,7.676428E-2,1.2741255E-3],"categories":[],"categories_nodes":[],"categories_segments":[],"categories_sizes":[],"default_left":[0,0,0,0,0,0,0,0,0,0,0,0,0,0,0,0,0,0,0,0,0,0,0,0,0,0,0,0,0,0,0],"id":22,"left_children":[1,3,5,7,9,11,13,15,17,19,21,23,25,27,29,-1,-1,-1,-1,-1,-1,-1,-1,-1,-1,-1,-1,-1,-1,-1,-1],"loss_changes":[4.059668E1,2.5364746E1,9.465538E0,2.276831E1,2.77837E0,8.92617E0,1.1499973E1,2.433496E1,9.936737E0,4.49578E0,3.3322945E0,8.463391E0,8.084377E0,1.1580086E1,1.2332808E1,0E0,0E0,0E0,0E0,0E0,0E0,0E0,0E0,0E0,0E0,0E0,0E0,0E0,0E0,0E0,0E0],"parents":[2147483647,0,0,1,1,2,2,3,3,4,4,5,5,6,6,7,7,8,8,9,9,10,10,11,11,12,12,13,13,14,14],"right_children":[2,4,6,8,10,12,14,16,18,20,22,24,26,28,30,-1,-1,-1,-1,-1,-1,-1,-1,-1,-1,-1,-1,-1,-1,-1,-1],"split_conditions":[9E0,1E2,2E0,6E0,3E0,1.4E1,5.6E1,2E0,9.7E1,6.712182E-1,3.5E1,3.8647342E-1,1.4E1,9.9E1,3E0,-1.6510736E-2,-2.0749938E-2,-1.4741964E-2,-3.8632598E-2,-1.0840272E-2,-7.206633E-2,-7.391259E-2,-4.3901812E-2,4.5239855E-2,-5.051977E-4,-1.8707989E-3,-1.4139987E-2,-1.5123389E-2,1.8021023E-2,7.676428E-2,1.2741255E-3],"split_indices":[9,11,12,3,5,9,8,12,8,17,8,17,0,9,3,0,0,0,0,0,0,0,0,0,0,0,0,0,0,0,0],"split_type":[0,0,0,0,0,0,0,0,0,0,0,0,0,0,0,0,0,0,0,0,0,0,0,0,0,0,0,0,0,0,0],"sum_hessian":[8.099706E4,7.489223E4,6.104836E3,7.4677375E4,2.1485506E2,2.4664844E3,3.6383513E3,5.5849695E4,1.882768E4,5.3446533E1,1.6140852E2,1.6906451E2,2.29742E3,3.466581E3,1.7177019E2,2.3188805E4,3.2660889E4,1.8652543E4,1.7513615E2,3.6162476E1,1.7284058E1,7.899178E1,8.241674E1,6.522258E1,1.0384193E2,1.4424707E3,8.549492E2,3.3585618E3,1.08019455E2,2.43726E1,1.4739758E2],"tree_param":{"num_deleted":"0","num_feature":"18","num_nodes":"31","size_leaf_vector":"1"}},{"base_weights":[-1.5827748E-1,-1.3750705E-1,-1.8408693E-1,-1.4626764E-1,-9.24652E-2,-1.6848499E-1,-2.3327859E-1,-9.002224E-2,-1.5678596E-1,-9.9951826E-2,1.3942868E-1,-1.975158E-1,-6.0757253E-2,-4.6790707E-1,-2.260398E-1,-1.3415431E-2,-6.810996E-3,-1.7084416E-2,-1.168508E-2,-7.902024E-3,-1.6547238E-2,1.5812287E-1,5.186171E-3,-1.7377732E-2,-2.8027996E-2,-4.7603115E-3,-2.6770983E-2,-5.2271415E-2,-8.028375E-3,-2.0416074E-2,-2.9995853E-2],"categories":[],"categories_nodes":[],"categories_segments":[],"categories_sizes":[],"default_left":[0,0,0,0,0,0,0,0,0,0,0,0,0,0,0,0,0,0,0,0,0,0,0,0,0,0,0,0,0,0,0],"id":23,"left_children":[1,3,5,7,9,11,13,15,17,19,21,23,25,27,29,-1,-1,-1,-1,-1,-1,-1,-1,-1,-1,-1,-1,-1,-1,-1,-1],"loss_changes":[4.2724854E1,1.742389E1,2.7250122E1,2.1871643E1,1.2510876E1,8.442432E1,1.4431671E1,5.6291885E0,1.7476013E1,9.551041E0,2.8393784E1,4.1734436E1,1.5593189E1,5.3803864E0,1.3370361E1,0E0,0E0,0E0,0E0,0E0,0E0,0E0,0E0,0E0,0E0,0E0,0E0,0E0,0E0,0E0,0E0],"parents":[2147483647,0,0,1,1,2,2,3,3,4,4,5,5,6,6,7,7,8,8,9,9,10,10,11,11,12,12,13,13,14,14],"right_children":[2,4,6,8,10,12,14,16,18,20,22,24,26,28,30,-1,-1,-1,-1,-1,-1,-1,-1,-1,-1,-1,-1,-1,-1,-1,-1],"split_conditions":[1.22590594E-1,2E0,5.4E1,5.0578257E-3,1.2027756E-1,5.1E1,5.5E1,3E0,5.3E1,1.9E1,4.7E1,2.2E1,7.1E1,8.5E1,4.5952198E-1,-1.3415431E-2,-6.810996E-3,-1.7084416E-2,-1.168508E-2,-7.902024E-3,-1.6547238E-2,1.5812287E-1,5.186171E-3,-1.7377732E-2,-2.8027996E-2,-4.7603115E-3,-2.6770983E-2,-5.2271415E-2,-8.028375E-3,-2.0416074E-2,-2.9995853E-2],"split_indices":[16,10,8,16,16,8,8,7,8,11,10,8,11,0,16,0,0,0,0,0,0,0,0,0,0,0,0,0,0,0,0],"split_type":[0,0,0,0,0,0,0,0,0,0,0,0,0,0,0,0,0,0,0,0,0,0,0,0,0,0,0,0,0,0,0],"sum_hessian":[7.974596E4,4.418996E4,3.5556E4,3.6992684E4,7.1972764E3,2.6997666E4,8.558333E3,5.829538E3,3.1163146E4,6.9727324E3,2.245436E2,2.1266002E4,5.731664E3,2.542357E2,8.304097E3,1.9324327E3,3.8971055E3,2.3046809E4,8.116339E3,5.2861836E3,1.6865491E3,1.188004E1,2.1266356E2,1.6528408E4,4.7375933E3,5.3902817E3,3.413824E2,2.2243636E2,3.179936E1,6.410443E3,1.893654E3],"tree_param":{"num_deleted":"0","num_feature":"18","num_nodes":"31","size_leaf_vector":"1"}},{"base_weights":[-1.4414747E-1,-1.2553804E-1,-1.6731673E-1,-1.2982777E-1,-2.6319614E-2,-1.5260532E-1,-2.186944E-1,-7.491228E-2,-1.3678582E-1,6.860748E-1,-5.1938895E-2,-1.7926492E-1,-6.3783936E-2,-3.9986202E-1,-2.0692532E-1,-1.0250928E-2,-2.5936787E-3,-1.31030325E-2,-2.1385333E-2,1.9166681E-1,5.6352805E-2,-1.2642964E-2,6.494846E-3,-1.5978025E-2,-2.4810335E-2,-5.971884E-3,-6.6532575E-2,-4.6054136E-2,-8.047469E-3,-1.895779E-2,-2.692281E-2],"categories":[],"categories_nodes":[],"categories_segments":[],"categories_sizes":[],"default_left":[0,0,0,0,0,0,0,0,0,0,0,0,0,0,0,0,0,0,0,0,0,0,0,0,0,0,0,0,0,0,0],"id":24,"left_children":[1,3,5,7,9,11,13,15,17,19,21,23,25,27,29,-1,-1,-1,-1,-1,-1,-1,-1,-1,-1,-1,-1,-1,-1,-1,-1],"loss_changes":[3.3916748E1,1.8577148E1,2.6464478E1,1.5979248E1,3.3078697E1,6.4531494E1,1.6551392E1,6.360594E0,1.6445251E1,8.408409E0,1.52329445E1,2.8079163E1,1.5351179E1,9.1649475E0,7.868622E0,0E0,0E0,0E0,0E0,0E0,0E0,0E0,0E0,0E0,0E0,0E0,0E0,0E0,0E0,0E0,0E0],"parents":[2147483647,0,0,1,1,2,2,3,3,4,4,5,5,6,6,7,7,8,8,9,9,10,10,11,11,12,12,13,13,14,14],"right_children":[2,4,6,8,10,12,14,16,18,20,22,24,26,28,30,-1,-1,-1,-1,-1,-1,-1,-1,-1,-1,-1,-1,-1,-1,-1,-1],"split_conditions":[1.22590594E-1,7.2E1,5.6E1,4.6260603E-4,7.3E1,5.1E1,6.2E1,5E0,7.7E1,3E0,6.93909E-2,2.2E1,9.8E1,1E0,5.158057E-1,-1.0250928E-2,-2.5936787E-3,-1.31030325E-2,-2.1385333E-2,1.9166681E-1,5.6352805E-2,-1.2642964E-2,6.494846E-3,-1.5978025E-2,-2.4810335E-2,-5.971884E-3,-6.6532575E-2,-4.6054136E-2,-8.047469E-3,-1.895779E-2,-2.692281E-2],"split_indices":[16,9,8,16,9,8,8,7,8,1,16,8,11,11,16,0,0,0,0,0,0,0,0,0,0,0,0,0,0,0,0],"split_type":[0,0,0,0,0,0,0,0,0,0,0,0,0,0,0,0,0,0,0,0,0,0,0,0,0,0,0,0,0,0,0],"sum_hessian":[7.871065E4,4.365423E4,3.505642E4,4.1844754E4,1.8094762E3,2.7255953E4,7.800468E3,4.707021E3,3.713773E4,6.191894E1,1.7475573E3,2.096294E4,6.2930127E3,4.7381512E2,7.3266523E3,3.009895E3,1.6971261E3,3.4559484E4,2.5782463E3,4.2817774E0,5.7637165E1,1.0672998E3,6.802575E2,1.6340963E4,4.6219775E3,6.2518633E3,4.1149548E1,3.9779706E2,7.601807E1,5.7341064E3,1.5925461E3],"tree_param":{"num_deleted":"0","num_feature":"18","num_nodes":"31","size_leaf_vector":"1"}},{"base_weights":[-1.3451481E-1,-1.083619E-1,-1.5109621E-1,-1.555574E-1,-9.040632E-2,-2.7958084E-2,-1.5914942E-1,-1.12350635E-1,-1.8564366E-1,-3.5162404E-2,-1.1299612E-1,8.07427E-2,-5.3202692E-2,-1.7427881E-1,-1.2007533E-1,-1.2006446E-2,3.802371E-2,-2.0070305E-2,-1.3109706E-2,-3.155122E-3,-2.8312331E-2,-2.2576127E-2,-8.752083E-3,1.7901805E-3,3.07876E-2,-1.1136882E-2,-2.4911233E-3,-1.627868E-2,-2.2326913E-2,-1.1335623E-2,-2.2822192E-2],"categories":[],"categories_nodes":[],"categories_segments":[],"categories_sizes":[],"default_left":[0,0,0,0,0,0,0,0,0,0,0,0,0,0,0,0,0,0,0,0,0,0,0,0,0,0,0,0,0,0,0],"id":25,"left_children":[1,3,5,7,9,11,13,15,17,19,21,23,25,27,29,-1,-1,-1,-1,-1,-1,-1,-1,-1,-1,-1,-1,-1,-1,-1,-1],"loss_changes":[3.3670654E1,2.5531464E1,4.713684E1,1.0777084E1,2.725058E1,8.015292E0,2.635669E1,1.3011528E1,3.994812E0,5.668069E0,4.450894E1,7.853407E0,3.8968801E0,1.8071411E1,9.026337E0,0E0,0E0,0E0,0E0,0E0,0E0,0E0,0E0,0E0,0E0,0E0,0E0,0E0,0E0,0E0,0E0],"parents":[2147483647,0,0,1,1,2,2,3,3,4,4,5,5,6,6,7,7,8,8,9,9,10,10,11,11,12,12,13,13,14,14],"right_children":[2,4,6,8,10,12,14,16,18,20,22,24,26,28,30,-1,-1,-1,-1,-1,-1,-1,-1,-1,-1,-1,-1,-1,-1,-1,-1],"split_conditions":[2E0,5E0,-2.3130302E-3,6.630686E-2,1.8E1,3E0,6E0,6.2451813E-2,6E0,9.3E1,2.7E1,2.6E1,3E0,2.467232E-1,7.7E1,-1.2006446E-2,3.802371E-2,-2.0070305E-2,-1.3109706E-2,-3.155122E-3,-2.8312331E-2,-2.2576127E-2,-8.752083E-3,1.7901805E-3,3.07876E-2,-1.1136882E-2,-2.4911233E-3,-1.627868E-2,-2.2326913E-2,-1.1335623E-2,-2.2822192E-2],"split_indices":[12,8,16,16,8,5,3,16,3,10,8,8,7,16,8,0,0,0,0,0,0,0,0,0,0,0,0,0,0,0,0],"split_type":[0,0,0,0,0,0,0,0,0,0,0,0,0,0,0,0,0,0,0,0,0,0,0,0,0,0,0,0,0,0,0],"sum_hessian":[7.768095E4,3.0144021E4,4.753693E4,8.305553E3,2.183847E4,2.918344E3,4.4618586E4,3.411313E3,4.8942393E3,6.338953E3,1.5499517E4,5.4960425E2,2.3687397E3,3.2162066E4,1.24565205E4,3.359461E3,5.1852165E1,3.8332615E3,1.0609778E3,6.249072E3,8.988129E1,2.8548406E3,1.2644676E4,4.313434E2,1.1826082E2,7.7416034E2,1.5945795E3,2.6054578E4,6.1074883E3,1.1729802E4,7.2671967E2],"tree_param":{"num_deleted":"0","num_feature":"18","num_nodes":"31","size_leaf_vector":"1"}},{"base_weights":[-1.2180499E-1,-9.7303614E-2,-1.3856156E-1,-7.2074914E-3,-1.0373323E-1,-1.7978103E-1,-1.2669669E-1,-4.4482667E-2,7.07537E-2,-1.0233334E-1,-4.363E-1,-9.681409E-2,-1.9443406E-1,-1.1072039E-1,-1.7362921E-1,2.8192159E-3,-1.1704126E-2,8.975829E-3,-5.6114472E-2,-1.1666944E-2,-7.189659E-3,-4.9452092E-2,5.4514053E-4,-2.421349E-2,-7.1910503E-3,-1.8305814E-2,-2.4220975E-2,-1.3756593E-2,-5.2464637E-3,-4.565428E-2,-1.7002357E-2],"categories":[],"categories_nodes":[],"categories_segments":[],"categories_sizes":[],"default_left":[0,0,0,0,0,0,0,0,0,0,0,0,0,0,0,0,0,0,0,0,0,0,0,0,0,0,0,0,0,0,0],"id":26,"left_children":[1,3,5,7,9,11,13,15,17,19,21,23,25,27,29,-1,-1,-1,-1,-1,-1,-1,-1,-1,-1,-1,-1,-1,-1,-1,-1],"loss_changes":[3.1504517E1,1.8062592E1,2.2272339E1,6.0422487E0,1.3505463E1,1.2365448E1,2.6525146E1,7.420253E0,8.12754E0,1.2638794E1,3.1325607E0,5.52351E0,4.660553E0,4.13013E1,9.091705E0,0E0,0E0,0E0,0E0,0E0,0E0,0E0,0E0,0E0,0E0,0E0,0E0,0E0,0E0,0E0,0E0],"parents":[2147483647,0,0,1,1,2,2,3,3,4,4,5,5,6,6,7,7,8,8,9,9,10,10,11,11,12,12,13,13,14,14],"right_children":[2,4,6,8,10,12,14,16,18,20,22,24,26,28,30,-1,-1,-1,-1,-1,-1,-1,-1,-1,-1,-1,-1,-1,-1,-1,-1],"split_conditions":[8.404009E-2,3E0,4E0,1E0,1E2,3E0,6E1,2.390131E-2,7.7872016E-2,5E0,5.859676E-2,1.14880495E-1,1.2174249E0,5.3E1,6.1E1,2.8192159E-3,-1.1704126E-2,8.975829E-3,-5.6114472E-2,-1.1666944E-2,-7.189659E-3,-4.9452092E-2,5.4514053E-4,-2.421349E-2,-7.1910503E-3,-1.8305814E-2,-2.4220975E-2,-1.3756593E-2,-5.2464637E-3,-4.565428E-2,-1.7002357E-2],"split_indices":[16,1,8,10,8,5,8,16,16,7,16,16,16,8,8,0,0,0,0,0,0,0,0,0,0,0,0,0,0,0,0],"split_type":[0,0,0,0,0,0,0,0,0,0,0,0,0,0,0,0,0,0,0,0,0,0,0,0,0,0,0,0,0,0,0],"sum_hessian":[7.676756E4,3.1181266E4,4.5586297E4,2.0771367E3,2.9104129E4,1.0185814E4,3.540048E4,1.4055419E3,6.715949E2,2.8983436E4,1.2069395E2,1.53006E3,8.655755E3,2.6412695E4,8.987785E3,7.02514E2,7.030279E2,6.528191E2,1.8775831E1,1.9701121E4,9.282314E3,1.06533806E2,1.416014E1,2.2256953E2,1.3074905E3,6.994999E3,1.6607556E3,1.8079777E4,8.332918E3,1.11524055E2,8.876262E3],"tree_param":{"num_deleted":"0","num_feature":"18","num_nodes":"31","size_leaf_vector":"1"}},{"base_weights":[-1.114098E-1,-8.753433E-2,-1.2658046E-1,-1.2823252E-1,-7.21751E-2,-7.49771E-2,-1.4126602E-1,-8.599664E-2,-1.5815555E-1,-1.3288588E-2,-1.0006071E-1,-1.43852495E-2,-8.809752E-2,-1.5361571E-1,-1.1039619E-1,-5.6438096E-2,-8.044048E-3,-7.423941E-3,-1.8055556E-2,2.552899E-3,-5.0627263E-3,-3.0669326E-2,-8.439568E-3,2.8200217E-3,-1.1259158E-2,-4.0029767E-3,-1.0255752E-2,-1.428322E-2,-1.9409321E-2,-1.16109E-2,3.245033E-4],"categories":[],"categories_nodes":[],"categories_segments":[],"categories_sizes":[],"default_left":[0,0,0,0,0,0,0,0,0,0,0,0,0,0,0,0,0,0,0,0,0,0,0,0,0,0,0,0,0,0,0],"id":27,"left_children":[1,3,5,7,9,11,13,15,17,19,21,23,25,27,29,-1,-1,-1,-1,-1,-1,-1,-1,-1,-1,-1,-1,-1,-1,-1,-1],"loss_changes":[2.7496643E1,1.8437332E1,3.5179382E1,1.0203461E1,3.5183556E1,8.178715E0,1.376355E1,8.871017E0,8.878914E0,9.983351E0,4.7041626E1,7.667652E0,5.8745346E0,1.1240601E1,6.708252E0,0E0,0E0,0E0,0E0,0E0,0E0,0E0,0E0,0E0,0E0,0E0,0E0,0E0,0E0,0E0,0E0],"parents":[2147483647,0,0,1,1,2,2,3,3,4,4,5,5,6,6,7,7,8,8,9,9,10,10,11,11,12,12,13,13,14,14],"right_children":[2,4,6,8,10,12,14,16,18,20,22,24,26,28,30,-1,-1,-1,-1,-1,-1,-1,-1,-1,-1,-1,-1,-1,-1,-1,-1],"split_conditions":[2E0,5E0,3.06862E-2,6.630686E-2,2.2E1,3E0,6E0,1.1575942E-2,2.107397E-1,1.07941404E-1,2.6E1,1.54202E-2,-4.7031613E-3,2.698535E-1,2.7E1,-5.6438096E-2,-8.044048E-3,-7.423941E-3,-1.8055556E-2,2.552899E-3,-5.0627263E-3,-3.0669326E-2,-8.439568E-3,2.8200217E-3,-1.1259158E-2,-4.0029767E-3,-1.0255752E-2,-1.428322E-2,-1.9409321E-2,-1.16109E-2,3.245033E-4],"split_indices":[12,8,16,16,8,5,3,17,17,16,8,16,16,16,10,0,0,0,0,0,0,0,0,0,0,0,0,0,0,0,0],"split_type":[0,0,0,0,0,0,0,0,0,0,0,0,0,0,0,0,0,0,0,0,0,0,0,0,0,0,0,0,0,0,0],"sum_hessian":[7.594372E4,2.9509168E4,4.643455E4,8.083234E3,2.1425936E4,1.0288405E4,3.6146145E4,3.3535806E3,4.7296533E3,6.886042E3,1.4539893E4,1.8316589E3,8.456746E3,2.5814791E4,1.0331354E4,3.7348026E1,3.3162327E3,9.974113E2,3.7322417E3,3.376315E3,3.509727E3,1.02329913E3,1.3516594E4,1.2781321E3,5.5352686E2,1.9565557E3,6.5001904E3,2.038785E4,5.426941E3,9.836829E3,4.9452466E2],"tree_param":{"num_deleted":"0","num_feature":"18","num_nodes":"31","size_leaf_vector":"1"}},{"base_weights":[-1.0183981E-1,-1.00905806E-1,-4.764238E-1,-7.8796014E-2,-1.1501381E-1,-7.78696E-1,-4.154358E-1,-1.2310876E-1,-6.214301E-2,-4.8357245E-2,-1.2708943E-1,-6.030651E-1,-9.109882E-1,-3.0347502E-1,-5.8639425E-1,-1.1140572E-2,-1.5403657E-2,-4.072496E-3,-1.2534124E-2,1.5552229E-3,-7.1114847E-3,-1.4237843E-2,-1.00783715E-2,-8.6814396E-2,-4.1010726E-2,-9.6898235E-2,-2.25346E-2,-3.936387E-2,6.9380426E-3,-1.5990164E-2,-7.333606E-2],"categories":[],"categories_nodes":[],"categories_segments":[],"categories_sizes":[],"default_left":[0,0,0,0,0,0,0,0,0,0,0,0,0,0,0,0,0,0,0,0,0,0,0,0,0,0,0,0,0,0,0],"id":28,"left_children":[1,3,5,7,9,11,13,15,17,19,21,23,25,27,29,-1,-1,-1,-1,-1,-1,-1,-1,-1,-1,-1,-1,-1,-1,-1,-1],"loss_changes":[2.6259033E1,2.3387573E1,3.1193008E0,2.1555634E1,3.6848938E1,1.5254784E-1,2.8375206E0,2.8714676E0,2.8746506E1,1.0217396E1,1.557605E1,4.5917082E-1,3.8893986E-1,3.2973566E0,3.723301E0,0E0,0E0,0E0,0E0,0E0,0E0,0E0,0E0,0E0,0E0,0E0,0E0,0E0,0E0,0E0,0E0],"parents":[2147483647,0,0,1,1,2,2,3,3,4,4,5,5,6,6,7,7,8,8,9,9,10,10,11,11,12,12,13,13,14,14],"right_children":[2,4,6,8,10,12,14,16,18,20,22,24,26,28,30,-1,-1,-1,-1,-1,-1,-1,-1,-1,-1,-1,-1,-1,-1,-1,-1],"split_conditions":[1E2,2E0,1.696222E-1,5E0,1.54202E-2,2E0,4.155744E-1,2.929838E-1,5.9E1,-7.0161913E-3,5E0,1.22590594E-1,8.5E1,1.3E1,2E0,-1.1140572E-2,-1.5403657E-2,-4.072496E-3,-1.2534124E-2,1.5552229E-3,-7.1114847E-3,-1.4237843E-2,-1.00783715E-2,-8.6814396E-2,-4.1010726E-2,-9.6898235E-2,-2.25346E-2,-3.936387E-2,6.9380426E-3,-1.5990164E-2,-7.333606E-2],"split_indices":[11,12,16,8,16,13,16,16,8,16,7,16,0,1,12,0,0,0,0,0,0,0,0,0,0,0,0,0,0,0,0],"split_type":[0,0,0,0,0,0,0,0,0,0,0,0,0,0,0,0,0,0,0,0,0,0,0,0,0,0,0,0,0,0,0],"sum_hessian":[7.519192E4,7.500617E4,1.8575381E2,2.9219893E4,4.5786277E4,2.9210602E1,1.5654321E2,7.9797676E3,2.1240125E4,7.023276E3,3.8763E4,1.4937797E1,1.4272806E1,9.627067E1,6.0272545E1,5.792496E3,2.1872715E3,1.5865059E4,5.3750664E3,1.8443005E3,5.1789756E3,2.4512057E4,1.4250945E4,4.8187804E0,1.0119016E1,1.277869E1,1.4941156E0,7.747901E1,1.8791656E1,1.5981792E1,4.4290752E1],"tree_param":{"num_deleted":"0","num_feature":"18","num_nodes":"31","size_leaf_vector":"1"}},{"base_weights":[-8.627476E-2,-1.2318189E-1,-7.380304E-2,-3.5712756E-2,-1.2920305E-1,-6.590979E-2,-1.19409025E-1,-2.8715018E-2,-4.568931E-1,-9.952697E-2,-1.4595751E-1,-7.997209E-2,-3.5757173E-2,-1.5227248E-1,-4.5772385E-2,-3.1869474E-3,1.6921863E-1,2.0444807E-2,-7.692519E-2,-9.3251625E-3,-2.7362678E-2,-1.1893502E-2,-1.7654931E-2,-5.438686E-3,-1.5305846E-2,3.993379E-3,-8.308415E-3,-1.4431193E-2,-4.384201E-2,4.7394828E-4,-9.9513205E-3],"categories":[],"categories_nodes":[],"categories_segments":[],"categories_sizes":[],"default_left":[0,0,0,0,0,0,0,0,0,0,0,0,0,0,0,0,0,0,0,0,0,0,0,0,0,0,0,0,0,0,0],"id":29,"left_children":[1,3,5,7,9,11,13,15,17,19,21,23,25,27,29,-1,-1,-1,-1,-1,-1,-1,-1,-1,-1,-1,-1,-1,-1,-1,-1],"loss_changes":[3.4279053E1,9.903534E0,2.0035614E1,3.5620213E0,8.736816E0,2.012378E1,1.986982E1,6.5369887E0,4.238665E0,6.9169617E0,9.276932E0,6.05204E1,5.4089073E1,1.2872223E1,6.8845325E0,0E0,0E0,0E0,0E0,0E0,0E0,0E0,0E0,0E0,0E0,0E0,0E0,0E0,0E0,0E0,0E0],"parents":[2147483647,0,0,1,1,2,2,3,3,4,4,5,5,6,6,7,7,8,8,9,9,10,10,11,11,12,12,13,13,14,14],"right_children":[2,4,6,8,10,12,14,16,18,20,22,24,26,28,30,-1,-1,-1,-1,-1,-1,-1,-1,-1,-1,-1,-1,-1,-1,-1,-1],"split_conditions":[2E0,2E0,3.307633E-1,5.4E1,7.016191E-2,5.3E1,9E0,5.2E1,5.474171E-2,2E0,2.4E1,2.3E1,5.4E1,4.9E1,5.774865E-1,-3.1869474E-3,1.6921863E-1,2.0444807E-2,-7.692519E-2,-9.3251625E-3,-2.7362678E-2,-1.1893502E-2,-1.7654931E-2,-5.438686E-3,-1.5305846E-2,3.993379E-3,-8.308415E-3,-1.4431193E-2,-4.384201E-2,4.7394828E-4,-9.9513205E-3],"split_indices":[2,5,16,10,16,8,1,10,16,6,8,8,8,10,16,0,0,0,0,0,0,0,0,0,0,0,0,0,0,0,0],"split_type":[0,0,0,0,0,0,0,0,0,0,0,0,0,0,0,0,0,0,0,0,0,0,0,0,0,0,0,0,0,0,0],"sum_hessian":[7.449055E4,1.8811996E4,5.5678547E4,1.2120187E3,1.7599979E4,4.7465848E4,8.212699E3,1.1932614E3,1.8757366E1,6.3534556E3,1.1246522E4,3.236848E4,1.5097369E4,5.6777124E3,2.5349866E3,1.1920577E3,1.2035924E0,6.1281095E0,1.2629257E1,6.1338975E3,2.1955794E2,5.9742256E3,5.272297E3,2.3976729E4,8.391751E3,5.8082607E3,9.289108E3,5.525499E3,1.5221368E2,1.3072206E3,1.227766E3],"tree_param":{"num_deleted":"0","num_feature":"18","num_nodes":"31","size_leaf_vector":"1"}},{"base_weights":[-8.343651E-2,-1.2102829E-1,-7.0794895E-2,-8.624998E-2,-1.3756117E-1,-7.0177525E-2,-5.2976507E-1,-1.0229178E-1,8.584192E-3,-1.1018149E-1,-1.6821432E-1,-7.323705E-2,1.5565316E-2,1.5412349E-1,-5.80155E-1,-1.0740642E-2,8.124022E-3,-2.7082078E-4,1.1192844E-1,-1.4085732E-2,1.5814545E-3,-3.188113E-2,-1.3753578E-2,-6.898085E-3,-1.3279608E-2,6.973997E-2,-1.7210127E-4,-6.796378E-2,7.1324185E-2,7.4553356E-4,-6.428305E-2],"categories":[],"categories_nodes":[],"categories_segments":[],"categories_sizes":[],"default_left":[0,0,0,0,0,0,0,0,0,0,0,0,0,0,0,0,0,0,0,0,0,0,0,0,0,0,0,0,0,0,0],"id":30,"left_children":[1,3,5,7,9,11,13,15,17,19,21,23,25,27,29,-1,-1,-1,-1,-1,-1,-1,-1,-1,-1,-1,-1,-1,-1,-1,-1],"loss_changes":[3.512091E1,1.0683807E1,1.5638397E1,9.123116E0,1.0561722E1,1.4494598E1,2.6451035E0,4.8231544E0,1.0895941E1,2.574974E1,2.7426132E1,1.351355E1,2.244618E1,3.2255733E0,2.5563622E0,0E0,0E0,0E0,0E0,0E0,0E0,0E0,0E0,0E0,0E0,0E0,0E0,0E0,0E0,0E0,0E0],"parents":[2147483647,0,0,1,1,2,2,3,3,4,4,5,5,6,6,7,7,8,8,9,9,10,10,11,11,12,12,13,13,14,14],"right_children":[2,4,6,8,10,12,14,16,18,20,22,24,26,28,30,-1,-1,-1,-1,-1,-1,-1,-1,-1,-1,-1,-1,-1,-1,-1,-1],"split_conditions":[2E0,6.16808E-2,1E2,5.3E1,2.4E1,7.2E1,2E0,5.3E1,9.5E1,1E1,2.6E1,7.7E1,7.3E1,2.390131E-1,7E0,-1.0740642E-2,8.124022E-3,-2.7082078E-4,1.1192844E-1,-1.4085732E-2,1.5814545E-3,-3.188113E-2,-1.3753578E-2,-6.898085E-3,-1.3279608E-2,6.973997E-2,-1.7210127E-4,-6.796378E-2,7.1324185E-2,7.4553356E-4,-6.428305E-2],"split_indices":[2,16,11,8,8,9,5,11,0,8,8,8,9,16,1,0,0,0,0,0,0,0,0,0,0,0,0,0,0,0,0],"split_type":[0,0,0,0,0,0,0,0,0,0,0,0,0,0,0,0,0,0,0,0,0,0,0,0,0,0,0,0,0,0,0],"sum_hessian":[7.392137E4,1.8600713E4,5.5320656E4,5.995302E3,1.2605412E4,5.5247496E4,7.316146E1,5.12782E3,8.67482E2,6.660652E3,5.94476E3,5.3344184E4,1.9033097E3,4.8794436E0,6.828202E1,4.9891963E3,1.386235E2,8.5973865E2,7.7433324E0,5.3564233E3,1.3042286E3,1.0044843E3,4.9402754E3,4.9788375E4,3.555809E3,4.6088074E1,1.8572217E3,1.8721408E0,3.0073028E0,6.666036E0,6.1615982E1],"tree_param":{"num_deleted":"0","num_feature":"18","num_nodes":"31","size_leaf_vector":"1"}},{"base_weights":[-7.7635385E-2,-1.07202396E-1,-6.773931E-2,-8.263129E-2,-1.4123717E-1,-1.5293818E-2,-7.3128715E-2,-9.995705E-2,1.0565399E-2,-3.12114E-1,-1.1040606E-1,7.462561E-2,-2.8738903E-2,-7.808901E-2,-3.2601147E-3,-1.0558726E-2,7.7535026E-3,6.273975E-2,-4.3863016E-3,-2.2469591E-2,-3.59684E-2,-5.690538E-3,-1.5997667E-2,9.897367E-3,-4.4038635E-2,-2.6819294E-3,-7.200654E-2,-7.633706E-3,-4.7885224E-2,7.093283E-3,-5.36476E-3],"categories":[],"categories_nodes":[],"categories_segments":[],"categories_sizes":[],"default_left":[0,0,0,0,0,0,0,0,0,0,0,0,0,0,0,0,0,0,0,0,0,0,0,0,0,0,0,0,0,0,0],"id":31,"left_children":[1,3,5,7,9,11,13,15,17,19,21,23,25,27,29,-1,-1,-1,-1,-1,-1,-1,-1,-1,-1,-1,-1,-1,-1,-1,-1],"loss_changes":[2.1461792E1,1.5374191E1,1.5538116E1,1.7257301E1,4.059587E1,6.197353E0,1.7277435E1,9.013763E0,5.630341E1,4.8189697E0,1.732193E1,8.40527E0,5.8974957E0,3.264612E1,1.2362038E1,0E0,0E0,0E0,0E0,0E0,0E0,0E0,0E0,0E0,0E0,0E0,0E0,0E0,0E0,0E0,0E0],"parents":[2147483647,0,0,1,1,2,2,3,3,4,4,5,5,6,6,7,7,8,8,9,9,10,10,11,11,12,12,13,13,14,14],"right_children":[2,4,6,8,10,12,14,16,18,20,22,24,26,28,30,-1,-1,-1,-1,-1,-1,-1,-1,-1,-1,-1,-1,-1,-1,-1,-1],"split_conditions":[2E0,2.4E1,8.48111E-3,1.2E1,2.6E1,3E0,6E1,5.3E1,1.3E1,3.5530388E-1,1.22590594E-1,9.5712376E-1,1E2,5.6E1,7E0,-1.0558726E-2,7.7535026E-3,6.273975E-2,-4.3863016E-3,-2.2469591E-2,-3.59684E-2,-5.690538E-3,-1.5997667E-2,9.897367E-3,-4.4038635E-2,-2.6819294E-3,-7.200654E-2,-7.633706E-3,-4.7885224E-2,7.093283E-3,-5.36476E-3],"split_indices":[2,8,16,8,8,5,10,11,8,17,16,17,8,10,1,0,0,0,0,0,0,0,0,0,0,0,0,0,0,0,0],"split_type":[0,0,0,0,0,0,0,0,0,0,0,0,0,0,0,0,0,0,0,0,0,0,0,0,0,0,0,0,0,0,0],"sum_hessian":[7.337303E4,1.8397139E4,5.4975895E4,1.0685943E4,7.711195E3,5.1233506E3,4.9852543E4,9.010729E3,1.6752147E3,1.1772635E3,6.533931E3,6.658252E2,4.4575254E3,4.6547785E4,3.3047583E3,8.734081E3,2.76648E2,1.3497935E2,1.5402354E3,4.1688614E2,7.6037744E2,3.1434294E3,3.3905015E3,6.3653955E2,2.9285658E1,4.4462183E3,1.1307047E1,4.634637E4,2.0141417E2,1.3364692E3,1.9682892E3],"tree_param":{"num_deleted":"0","num_feature":"18","num_nodes":"31","size_leaf_vector":"1"}},{"base_weights":[-6.766712E-2,-7.6747194E-2,-3.9931938E-2,-6.693447E-2,-1.2241103E-1,1.3338848E-2,-4.9270708E-2,-3.7792876E-2,-8.101844E-2,-1.2575214E-1,1.2040797E-1,-1.0130359E-2,1.298539E-1,-4.7863908E-2,-4.249694E-1,-6.162458E-3,8.456517E-6,-3.529539E-3,-8.593681E-3,-1.1918654E-2,-2.3202075E-2,6.643562E-3,1.2124987E-1,6.427291E-4,-1.8785004E-2,8.573781E-3,3.19046E-2,-6.215567E-3,-1.3860773E-3,-7.406822E-2,-2.44909E-2],"categories":[],"categories_nodes":[],"categories_segments":[],"categories_sizes":[],"default_left":[0,0,0,0,0,0,0,0,0,0,0,0,0,0,0,0,0,0,0,0,0,0,0,0,0,0,0,0,0,0,0],"id":32,"left_children":[1,3,5,7,9,11,13,15,17,19,21,23,25,27,29,-1,-1,-1,-1,-1,-1,-1,-1,-1,-1,-1,-1,-1,-1,-1,-1],"loss_changes":[1.834909E1,2.4591187E1,8.94314E0,1.8544403E1,7.892166E0,7.335239E0,8.063286E0,1.3292957E1,6.8480988E0,6.6550903E0,7.71725E0,6.572842E0,3.7262197E0,7.404518E0,3.0548868E0,0E0,0E0,0E0,0E0,0E0,0E0,0E0,0E0,0E0,0E0,0E0,0E0,0E0,0E0,0E0,0E0],"parents":[2147483647,0,0,1,1,2,2,3,3,4,4,5,5,6,6,7,7,8,8,9,9,10,10,11,11,12,12,13,13,14,14],"right_children":[2,4,6,8,10,12,14,16,18,20,22,24,26,28,30,-1,-1,-1,-1,-1,-1,-1,-1,-1,-1,-1,-1,-1,-1,-1,-1],"split_conditions":[6E0,2.9221278E-1,3E0,4E0,5.5E1,8.320224E-1,1E2,2.7E1,6.9390903E-3,9.2E1,9.610427E-1,7.613805E-1,3.5235158E-1,5.2E1,4E0,-6.162458E-3,8.456517E-6,-3.529539E-3,-8.593681E-3,-1.1918654E-2,-2.3202075E-2,6.643562E-3,1.2124987E-1,6.427291E-4,-1.8785004E-2,8.573781E-3,3.19046E-2,-6.215567E-3,-1.3860773E-3,-7.406822E-2,-2.44909E-2],"split_indices":[3,16,5,3,9,17,11,8,16,8,17,17,16,8,4,0,0,0,0,0,0,0,0,0,0,0,0,0,0,0,0],"split_type":[0,0,0,0,0,0,0,0,0,0,0,0,0,0,0,0,0,0,0,0,0,0,0,0,0,0,0,0,0,0,0],"sum_hessian":[7.2872125E4,5.4897695E4,1.7974432E4,4.518939E4,9.708307E3,2.6809824E3,1.5293449E4,1.4725035E4,3.0464354E4,9.577012E3,1.312946E2,2.2322595E3,4.487229E2,1.523752E4,5.592938E1,9.037931E3,5.687105E3,2.9595356E3,2.7504818E4,9.021742E3,5.552696E2,1.2612233E2,5.172274E0,2.0428926E3,1.893668E2,3.6505258E2,8.367033E1,1.0727745E4,4.509775E3,1.918225E1,3.6747128E1],"tree_param":{"num_deleted":"0","num_feature":"18","num_nodes":"31","size_leaf_vector":"1"}},{"base_weights":[-6.221034E-2,-4.862998E-2,-7.9454206E-2,-5.01328E-2,9.382826E-2,-7.824558E-2,-3.1156853E-1,-5.3269196E-2,1.95461E-2,2.3640482E-1,-5.2456544E-3,-7.9375096E-2,1.4789921E-1,-1.5797162E-1,-4.2472732E-1,2.4672654E-3,-5.622012E-3,6.3108705E-2,-3.5840142E-4,1.5049547E-2,6.609919E-2,1.879826E-2,-1.4483097E-2,-8.919063E-3,-5.4065976E-3,1.1268794E-1,-1.0440777E-3,6.40161E-5,-5.775533E-2,-5.7208832E-2,-2.2618184E-2],"categories":[],"categories_nodes":[],"categories_segments":[],"categories_sizes":[],"default_left":[0,0,0,0,0,0,0,0,0,0,0,0,0,0,0,0,0,0,0,0,0,0,0,0,0,0,0,0,0,0,0],"id":33,"left_children":[1,3,5,7,9,11,13,15,17,19,21,23,25,27,29,-1,-1,-1,-1,-1,-1,-1,-1,-1,-1,-1,-1,-1,-1,-1,-1],"loss_changes":[1.6942596E1,8.672287E0,8.919479E0,8.756638E0,5.97614E0,8.113403E0,2.7974415E0,8.819237E0,2.4422455E1,6.2269173E0,6.7848344E0,7.835449E0,2.4500317E1,4.759085E0,2.6297626E0,0E0,0E0,0E0,0E0,0E0,0E0,0E0,0E0,0E0,0E0,0E0,0E0,0E0,0E0,0E0,0E0],"parents":[2147483647,0,0,1,1,2,2,3,3,4,4,5,5,6,6,7,7,8,8,9,9,10,10,11,11,12,12,13,13,14,14],"right_children":[2,4,6,8,10,12,14,16,18,20,22,24,26,28,30,-1,-1,-1,-1,-1,-1,-1,-1,-1,-1,-1,-1,-1,-1,-1,-1],"split_conditions":[1.22590594E-1,1.2027756E-1,9.9E1,7.2E1,7E0,9E1,7E0,-1.079414E-2,7.3E1,8.320224E-1,3E0,6E0,9.1E1,7.7E1,1.2E1,2.4672654E-3,-5.622012E-3,6.3108705E-2,-3.5840142E-4,1.5049547E-2,6.609919E-2,1.879826E-2,-1.4483097E-2,-8.919063E-3,-5.4065976E-3,1.1268794E-1,-1.0440777E-3,6.40161E-5,-5.775533E-2,-5.7208832E-2,-2.2618184E-2],"split_indices":[16,16,11,9,1,9,1,16,9,17,7,3,9,0,1,0,0,0,0,0,0,0,0,0,0,0,0,0,0,0,0],"split_type":[0,0,0,0,0,0,0,0,0,0,0,0,0,0,0,0,0,0,0,0,0,0,0,0,0,0,0,0,0,0,0],"sum_hessian":[7.236482E4,4.0484883E4,3.1879941E4,4.00629E4,4.2198322E2,3.1716133E4,1.6381001E2,3.833748E4,1.7254174E3,1.7243996E2,2.4954326E2,3.1559154E4,1.5697874E2,7.050523E1,9.330478E1,1.3982596E3,3.6939223E4,6.1923645E1,1.6634937E3,1.4454726E2,2.7892698E1,1.045155E2,1.4502776E2,2.2738178E4,8.820975E3,2.10033E1,1.3597545E2,5.188859E1,1.861664E1,5.2475742E1,4.082904E1],"tree_param":{"num_deleted":"0","num_feature":"18","num_nodes":"31","size_leaf_vector":"1"}},{"base_weights":[-5.537168E-2,-5.10203E-2,-1.1580354E-1,-5.303407E-2,1.2302496E-1,-2.600134E-1,-9.942654E-2,-3.2889664E-2,-6.581362E-2,2.35383E-1,-5.303331E-3,-1.1760853E-2,-2.7942863E-1,-9.1689095E-2,-3.4481487E-1,-4.462588E-3,-5.4541535E-5,-2.4732568E-3,-7.467264E-3,4.5561742E-2,1.4437564E-2,-1.6606182E-2,7.547042E-3,8.6859865E-3,-3.9396197E-2,-3.356674E-2,-1.9573664E-2,-8.141859E-3,-2.3625644E-2,-5.5699693E-3,-4.709255E-2],"categories":[],"categories_nodes":[],"categories_segments":[],"categories_sizes":[],"default_left":[0,0,0,0,0,0,0,0,0,0,0,0,0,0,0,0,0,0,0,0,0,0,0,0,0,0,0,0,0,0,0],"id":34,"left_children":[1,3,5,7,9,11,13,15,17,19,21,23,25,27,29,-1,-1,-1,-1,-1,-1,-1,-1,-1,-1,-1,-1,-1,-1,-1,-1],"loss_changes":[1.892218E1,2.3540833E1,1.1390755E1,1.7086456E1,1.1079671E1,2.3698463E0,8.213673E0,9.781334E0,1.4778885E1,8.145435E0,4.682682E0,1.4197161E0,2.0834236E0,6.2335625E0,4.80048E0,0E0,0E0,0E0,0E0,0E0,0E0,0E0,0E0,0E0,0E0,0E0,0E0,0E0,0E0,0E0,0E0],"parents":[2147483647,0,0,1,1,2,2,3,3,4,4,5,5,6,6,7,7,8,8,9,9,10,10,11,11,12,12,13,13,14,14],"right_children":[2,4,6,8,10,12,14,16,18,20,22,24,26,28,30,-1,-1,-1,-1,-1,-1,-1,-1,-1,-1,-1,-1,-1,-1,-1,-1],"split_conditions":[7.7E1,7.5E1,7.8E1,2E0,6E0,2E0,1E2,5.3E1,3E0,7.6E1,2.8E1,2E0,1.2E1,3.6E1,2E0,-4.462588E-3,-5.4541535E-5,-2.4732568E-3,-7.467264E-3,4.5561742E-2,1.4437564E-2,-1.6606182E-2,7.547042E-3,8.6859865E-3,-3.9396197E-2,-3.356674E-2,-1.9573664E-2,-8.141859E-3,-2.3625644E-2,-5.5699693E-3,-4.709255E-2],"split_indices":[8,8,8,12,0,5,8,8,5,8,0,2,1,11,12,0,0,0,0,0,0,0,0,0,0,0,0,0,0,0,0],"split_type":[0,0,0,0,0,0,0,0,0,0,0,0,0,0,0,0,0,0,0,0,0,0,0,0,0,0,0,0,0,0,0],"sum_hessian":[7.197929E4,6.714628E4,4.8330103E3,6.6378945E4,7.6733636E2,4.9136392E2,4.3416465E3,2.5766607E4,4.061234E4,4.0868094E2,3.5865546E2,3.5757446E1,4.5560648E2,4.210264E3,1.3138193E2,1.8906092E4,6.860515E3,7.205016E3,3.340732E4,1.18327194E2,2.9035373E2,1.1958924E2,2.3906621E2,2.9037527E1,6.719919E0,2.706956E2,1.8491089E2,3.9324539E3,2.7781042E2,4.0340614E1,9.104131E1],"tree_param":{"num_deleted":"0","num_feature":"18","num_nodes":"31","size_leaf_vector":"1"}},{"base_weights":[-5.0867826E-2,-2.8557101E-2,-6.5173164E-2,-2.1517258E-2,-8.156737E-2,-2.6085626E-2,-7.767411E-2,-3.5851747E-2,2.4596438E-2,-1.1645352E-1,1.125208E-2,-4.727989E-2,3.1986956E-2,-8.2346E-2,8.062159E-3,-1.6198446E-3,-9.692951E-3,6.7220987E-3,-3.3852197E-3,-9.1103185E-3,-2.7380934E-2,3.3745453E-2,-2.7051102E-3,-3.906372E-3,-1.7065309E-2,-3.6546573E-4,8.523123E-3,-8.098138E-3,-4.489335E-2,1.2342378E-2,-9.511546E-3],"categories":[],"categories_nodes":[],"categories_segments":[],"categories_sizes":[],"default_left":[0,0,0,0,0,0,0,0,0,0,0,0,0,0,0,0,0,0,0,0,0,0,0,0,0,0,0,0,0,0,0],"id":35,"left_children":[1,3,5,7,9,11,13,15,17,19,21,23,25,27,29,-1,-1,-1,-1,-1,-1,-1,-1,-1,-1,-1,-1,-1,-1,-1,-1],"loss_changes":[2.2875961E1,1.0449774E1,2.1339157E1,1.634416E1,1.0631737E1,1.3029537E1,1.3255447E1,2.2639748E1,1.4610723E1,9.493595E0,1.1225831E1,7.8544064E0,5.372332E0,1.566246E1,2.0376474E1,0E0,0E0,0E0,0E0,0E0,0E0,0E0,0E0,0E0,0E0,0E0,0E0,0E0,0E0,0E0,0E0],"parents":[2147483647,0,0,1,1,2,2,3,3,4,4,5,5,6,6,7,7,8,8,9,9,10,10,11,11,12,12,13,13,14,14],"right_children":[2,4,6,8,10,12,14,16,18,20,22,24,26,28,30,-1,-1,-1,-1,-1,-1,-1,-1,-1,-1,-1,-1,-1,-1,-1,-1],"split_conditions":[2E0,6.6E1,3.469545E-2,5.3E1,9.1E1,6E0,6E1,2.3E1,5.4E1,8.4E1,9.2E1,4.8E1,1.2E1,5.5E1,7E0,-1.6198446E-3,-9.692951E-3,6.7220987E-3,-3.3852197E-3,-9.1103185E-3,-2.7380934E-2,3.3745453E-2,-2.7051102E-3,-3.906372E-3,-1.7065309E-2,-3.6546573E-4,8.523123E-3,-8.098138E-3,-4.489335E-2,1.2342378E-2,-9.511546E-3],"split_indices":[12,8,16,8,8,3,10,8,8,8,8,10,8,10,1,0,0,0,0,0,0,0,0,0,0,0,0,0,0,0,0],"split_type":[0,0,0,0,0,0,0,0,0,0,0,0,0,0,0,0,0,0,0,0,0,0,0,0,0,0,0,0,0,0,0],"sum_hessian":[7.16798E4,2.8005373E4,4.367442E4,2.4723467E4,3.2819075E3,1.0583959E4,3.309046E4,1.8860791E4,5.8626743E3,2.3851829E3,8.967245E2,7.7541704E3,2.8297886E3,3.1380533E4,1.7099286E3,1.4270247E4,4.5905444E3,3.3901824E3,2.472492E3,2.0556006E3,3.2958237E2,9.340939E1,8.033151E2,7.27125E3,4.829202E2,1.6956531E3,1.1341355E3,3.126537E4,1.1516508E2,8.072057E2,9.0272296E2],"tree_param":{"num_deleted":"0","num_feature":"18","num_nodes":"31","size_leaf_vector":"1"}},{"base_weights":[-4.3610707E-2,-1.6099187E-3,-4.9006395E-2,-4.095779E-2,1.4308546E-2,-7.83656E-2,-3.9822508E-2,-3.3809617E-2,-2.985057E-1,1.5765676E-2,-4.681133E-1,-9.72863E-2,-2.9412612E-2,6.52267E-4,-5.991718E-2,-5.7127825E-3,5.5754636E-3,-2.183653E-2,-7.3222876E-2,2.2460362E-3,-8.448555E-3,-9.884172E-3,-8.135708E-2,-9.149897E-3,-2.0009004E-2,8.0674066E-4,-6.0437745E-3,-1.972934E-2,2.625256E-4,-2.6099859E-2,-4.5310156E-3],"categories":[],"categories_nodes":[],"categories_segments":[],"categories_sizes":[],"default_left":[0,0,0,0,0,0,0,0,0,0,0,0,0,0,0,0,0,0,0,0,0,0,0,0,0,0,0,0,0,0,0],"id":36,"left_children":[1,3,5,7,9,11,13,15,17,19,21,23,25,27,29,-1,-1,-1,-1,-1,-1,-1,-1,-1,-1,-1,-1,-1,-1,-1,-1],"loss_changes":[1.6151047E1,5.083086E0,1.7025558E1,4.293158E0,4.0689764E0,1.3934357E1,3.9128372E1,4.755436E0,2.0297604E0,3.8687205E0,2.1433356E0,6.438347E0,4.879787E0,6.234289E0,9.441395E1,0E0,0E0,0E0,0E0,0E0,0E0,0E0,0E0,0E0,0E0,0E0,0E0,0E0,0E0,0E0,0E0],"parents":[2147483647,0,0,1,1,2,2,3,3,4,4,5,5,6,6,7,7,8,8,9,9,10,10,11,11,12,12,13,13,14,14],"right_children":[2,4,6,8,10,12,14,16,18,20,22,24,26,28,30,-1,-1,-1,-1,-1,-1,-1,-1,-1,-1,-1,-1,-1,-1,-1,-1],"split_conditions":[1.233616E-2,2E0,5E0,2E0,1E2,6E0,2.2E1,1.2E1,8.326909E-3,1.3E1,2E0,2E0,1.2104858E-1,1.464919E-2,2.6E1,-5.7127825E-3,5.5754636E-3,-2.183653E-2,-7.3222876E-2,2.2460362E-3,-8.448555E-3,-9.884172E-3,-8.135708E-2,-9.149897E-3,-2.0009004E-2,8.0674066E-4,-6.0437745E-3,-1.972934E-2,2.625256E-4,-2.6099859E-2,-4.5310156E-3],"split_indices":[16,2,8,6,8,3,8,8,16,11,13,6,16,16,8,0,0,0,0,0,0,0,0,0,0,0,0,0,0,0,0],"split_type":[0,0,0,0,0,0,0,0,0,0,0,0,0,0,0,0,0,0,0,0,0,0,0,0,0,0,0,0,0,0,0],"sum_hessian":[7.126767E4,8.1133726E3,6.3154305E4,2.3364565E3,5.776916E3,1.504635E4,4.8107953E4,2.274461E3,6.1995773E1,5.7604844E3,1.6431934E1,1.0851267E4,4.195083E3,1.5960739E4,3.2147213E4,1.8049111E3,4.6954968E2,5.3596115E1,8.399657E0,5.4006123E3,3.5987204E2,8.563851E0,7.8680835E0,1.0274741E4,5.7652625E2,1.9002361E3,2.294847E3,1.5653885E2,1.58042E4,2.1759575E3,2.9971256E4],"tree_param":{"num_deleted":"0","num_feature":"18","num_nodes":"31","size_leaf_vector":"1"}},{"base_weights":[-4.157533E-2,2.8522441E-2,-4.4701803E-2,1.1108417E-1,1.8145909E-3,-2.5877632E-2,-5.7170592E-2,-4.035727E-1,1.2511317E-1,-6.1036848E-2,4.5992803E-2,-1.9372378E-2,-9.6735805E-2,-7.2966896E-2,-2.6905572E-2,3.7126068E-2,-5.026808E-2,1.0531365E-2,4.129217E-2,-2.6369302E-2,-3.1183695E-3,1.6572889E-3,1.8694453E-2,-5.2555897E-3,-6.896047E-4,-8.931947E-4,-1.2015428E-2,-7.935761E-3,-7.116498E-4,1.0934687E-3,-4.012886E-3],"categories":[],"categories_nodes":[],"categories_segments":[],"categories_sizes":[],"default_left":[0,0,0,0,0,0,0,0,0,0,0,0,0,0,0,0,0,0,0,0,0,0,0,0,0,0,0,0,0,0,0],"id":37,"left_children":[1,3,5,7,9,11,13,15,17,19,21,23,25,27,29,-1,-1,-1,-1,-1,-1,-1,-1,-1,-1,-1,-1,-1,-1,-1,-1],"loss_changes":[1.5577042E1,6.692407E0,1.5967697E1,5.4066353E0,6.3733E0,1.2495068E1,1.956392E1,1.7164583E0,4.0760174E0,5.7237062E0,5.5861883E0,1.0280626E1,4.6860065E0,1.1315765E1,7.0241165E0,0E0,0E0,0E0,0E0,0E0,0E0,0E0,0E0,0E0,0E0,0E0,0E0,0E0,0E0,0E0,0E0],"parents":[2147483647,0,0,1,1,2,2,3,3,4,4,5,5,6,6,7,7,8,8,9,9,10,10,11,11,12,12,13,13,14,14],"right_children":[2,4,6,8,10,12,14,16,18,20,22,24,26,28,30,-1,-1,-1,-1,-1,-1,-1,-1,-1,-1,-1,-1,-1,-1,-1,-1],"split_conditions":[2E0,3.85505E-2,2E0,4E0,1.156515E-1,2E0,5E0,1.0898031E-1,2E1,1.2844993E-1,1.1E1,5E0,2.107397E-1,1E0,3.1611413E-2,3.7126068E-2,-5.026808E-2,1.0531365E-2,4.129217E-2,-2.6369302E-2,-3.1183695E-3,1.6572889E-3,1.8694453E-2,-5.2555897E-3,-6.896047E-4,-8.931947E-4,-1.2015428E-2,-7.935761E-3,-7.116498E-4,1.0934687E-3,-4.012886E-3],"split_indices":[5,16,12,7,16,6,7,17,11,17,1,8,17,9,16,0,0,0,0,0,0,0,0,0,0,0,0,0,0,0,0],"split_type":[0,0,0,0,0,0,0,0,0,0,0,0,0,0,0,0,0,0,0,0,0,0,0,0,0,0,0,0,0,0,0],"sum_hessian":[7.106972E4,3.0341328E3,6.803559E4,7.4083545E2,2.293297E3,2.7110244E4,4.0925344E4,1.892171E1,7.2191376E2,9.4643787E2,1.3468594E3,2.4831793E4,2.2784512E3,2.688945E4,1.40358955E4,1.8343812E0,1.7087328E1,6.76725E2,4.5188778E1,1.20512665E2,8.2592523E2,1.1152072E3,2.3165219E2,6.784289E3,1.8047504E4,4.8003134E2,1.7984199E3,2.4510525E4,2.3789233E3,3.6347449E3,1.0401151E4],"tree_param":{"num_deleted":"0","num_feature":"18","num_nodes":"31","size_leaf_vector":"1"}},{"base_weights":[-3.8321882E-2,-4.290741E-2,1.5264762E-2,-5.1007543E-2,-1.9281572E-2,6.862382E-2,-2.2151388E-2,-4.9275357E-2,-1.7220709E-1,-1.7344307E-2,-2.4105708E-1,2.7652815E-1,5.25321E-2,5.1156706E-1,-2.873185E-2,-5.9548854E-3,-2.705911E-3,-3.0721707E-2,-5.3854026E-3,-1.8401167E-3,4.462662E-2,-3.3393454E-2,3.7253182E-3,2.1647565E-2,1.14760056E-1,2.6761597E-2,3.8057198E-3,2.2026936E-2,1.1629567E-1,-7.5843306E-3,3.532254E-3],"categories":[],"categories_nodes":[],"categories_segments":[],"categories_sizes":[],"default_left":[0,0,0,0,0,0,0,0,0,0,0,0,0,0,0,0,0,0,0,0,0,0,0,0,0,0,0,0,0,0,0],"id":38,"left_children":[1,3,5,7,9,11,13,15,17,19,21,23,25,27,29,-1,-1,-1,-1,-1,-1,-1,-1,-1,-1,-1,-1,-1,-1,-1,-1],"loss_changes":[1.7397392E1,1.2479858E1,1.1144989E1,1.01874695E1,7.15044E0,7.6831045E0,1.1540279E1,1.0927147E1,1.09117775E1,8.09741E0,3.7379713E0,8.385769E0,6.642375E0,7.337861E0,9.787987E0,0E0,0E0,0E0,0E0,0E0,0E0,0E0,0E0,0E0,0E0,0E0,0E0,0E0,0E0,0E0,0E0],"parents":[2147483647,0,0,1,1,2,2,3,3,4,4,5,5,6,6,7,7,8,8,9,9,10,10,11,11,12,12,13,13,14,14],"right_children":[2,4,6,8,10,12,14,16,18,20,22,24,26,28,30,-1,-1,-1,-1,-1,-1,-1,-1,-1,-1,-1,-1,-1,-1,-1,-1],"split_conditions":[9E0,6E0,2E0,9.5E1,9.7E1,1.4E1,1.1E1,5.3E1,9.8E1,9.6E1,9.3E1,1.3E1,3E0,4.2E1,5.8E1,-5.9548854E-3,-2.705911E-3,-3.0721707E-2,-5.3854026E-3,-1.8401167E-3,4.462662E-2,-3.3393454E-2,3.7253182E-3,2.1647565E-2,1.14760056E-1,2.6761597E-2,3.8057198E-3,2.2026936E-2,1.1629567E-1,-7.5843306E-3,3.532254E-3],"split_indices":[9,3,12,8,8,9,9,8,8,8,0,1,5,8,10,0,0,0,0,0,0,0,0,0,0,0,0,0,0,0,0],"split_type":[0,0,0,0,0,0,0,0,0,0,0,0,0,0,0,0,0,0,0,0,0,0,0,0,0,0,0,0,0,0,0],"sum_hessian":[7.079716E4,6.5216625E4,5.5805293E3,4.8564945E4,1.6651682E4,2.2998647E3,3.2806643E3,4.788202E4,6.829243E2,1.6508555E4,1.4312813E2,1.64058E2,2.135807E3,3.9021557E1,3.2416426E3,3.2740223E4,1.5141796E4,3.1826788E2,3.6465643E2,1.6471965E4,3.6589607E1,1.0716519E2,3.5962936E1,1.5464514E2,9.412856E0,1.3357124E2,2.0022356E3,2.7888247E1,1.113331E1,1.8677468E3,1.3738959E3],"tree_param":{"num_deleted":"0","num_feature":"18","num_nodes":"31","size_leaf_vector":"1"}},{"base_weights":[-3.341831E-2,-1.6535623E-2,-4.4291835E-2,1.1406094E-1,-1.9856973E-2,-5.3743172E-2,-2.0490108E-2,1.07812464E-1,1.3580672E-1,-1.9282797E-2,-4.0826836E-1,-3.042817E-2,-6.64514E-2,-2.118554E-2,6.907957E-1,1.228577E-2,-6.2092453E-2,-2.3259365E-3,2.3476481E-3,3.7241932E-2,-5.4195415E-2,-1.8500527E-3,-1.09453155E-2,-6.062561E-3,-1.789088E-2,-2.8534182E-3,3.7588687E-3,1.8224595E-1,4.0836897E-2],"categories":[],"categories_nodes":[],"categories_segments":[],"categories_sizes":[],"default_left":[0,0,0,0,0,0,0,0,0,0,0,0,0,0,0,0,0,0,0,0,0,0,0,0,0,0,0,0,0],"id":39,"left_children":[1,3,5,7,9,11,13,15,-1,17,19,21,23,25,27,-1,-1,-1,-1,-1,-1,-1,-1,-1,-1,-1,-1,-1,-1],"loss_changes":[1.2950645E1,1.1991339E1,9.6523285E0,5.183321E0,6.00362E0,9.098541E0,6.0485225E0,7.568219E0,0E0,4.5773277E0,4.349254E0,1.0213079E1,1.3012566E1,5.264915E0,3.0733685E0,0E0,0E0,0E0,0E0,0E0,0E0,0E0,0E0,0E0,0E0,0E0,0E0,0E0,0E0],"parents":[2147483647,0,0,1,1,2,2,3,3,4,4,5,5,6,6,7,7,9,9,10,10,11,11,12,12,13,13,14,14],"right_children":[2,4,6,8,10,12,14,16,-1,18,20,22,24,26,28,-1,-1,-1,-1,-1,-1,-1,-1,-1,-1,-1,-1,-1,-1],"split_conditions":[2E0,2E0,6E0,8.4E1,1E2,4E0,1E2,7.1E1,1.3580672E-1,8E0,4E0,1.2E1,4.9E1,5E0,3E0,1.228577E-2,-6.2092453E-2,-2.3259365E-3,2.3476481E-3,3.7241932E-2,-5.4195415E-2,-1.8500527E-3,-1.09453155E-2,-6.062561E-3,-1.789088E-2,-2.8534182E-3,3.7588687E-3,1.8224595E-1,4.0836897E-2],"split_indices":[12,5,3,0,11,3,9,0,0,9,3,1,10,11,5,0,0,0,0,0,0,0,0,0,0,0,0,0,0],"split_type":[0,0,0,0,0,0,0,0,0,0,0,0,0,0,0,0,0,0,0,0,0,0,0,0,0,0,0,0,0],"sum_hessian":[7.055016E4,2.7639086E4,4.2911074E4,6.8466064E2,2.6954426E4,3.0713791E4,1.219728E4,6.8232007E2,2.3405359E0,2.6915686E4,3.8738857E1,1.0836368E4,1.9877424E4,1.2186336E4,1.0944493E1,6.693327E2,1.2987386E1,2.4625955E4,2.2897312E3,5.4027176E0,3.333614E1,9.416346E3,1.420023E3,1.8899865E4,9.77558E2,1.083245E4,1.3538855E3,1.0968075E0,9.847686E0],"tree_param":{"num_deleted":"0","num_feature":"18","num_nodes":"29","size_leaf_vector":"1"}},{"base_weights":[-3.3268135E-2,-2.8974066E-2,-9.3524374E-2,-3.8761843E-2,-1.899272E-3,-2.6256445E-1,-7.4543804E-2,-2.2025783E-2,-9.180725E-2,5.001824E-2,-4.7821388E-2,-3.4975076E-1,-1.7126888E-1,-6.2404126E-2,-2.4806742E-1,-4.6070456E-3,6.002824E-4,-2.3081547E-2,-6.514817E-3,5.952846E-3,-5.5443677E-3,-3.7831813E-2,-3.5984982E-3,-2.2823863E-2,-5.5216223E-2,-3.2508116E-2,1.237815E-3,5.5272784E-3,-7.828933E-3,-2.9298631E-2,4.830198E-2],"categories":[],"categories_nodes":[],"categories_segments":[],"categories_sizes":[],"default_left":[0,0,0,0,0,0,0,0,0,0,0,0,0,0,0,0,0,0,0,0,0,0,0,0,0,0,0,0,0,0,0],"id":40,"left_children":[1,3,5,7,9,11,13,15,17,19,21,23,25,27,29,-1,-1,-1,-1,-1,-1,-1,-1,-1,-1,-1,-1,-1,-1,-1,-1],"loss_changes":[1.8211998E1,1.7414528E1,1.5004211E1,4.284735E1,4.16054E1,3.6994858E0,8.855555E0,2.4728174E1,4.28823E1,8.218313E0,3.6210613E1,5.7923355E0,6.57639E0,7.364235E0,9.172962E0,0E0,0E0,0E0,0E0,0E0,0E0,0E0,0E0,0E0,0E0,0E0,0E0,0E0,0E0,0E0,0E0],"parents":[2147483647,0,0,1,1,2,2,3,3,4,4,5,5,6,6,7,7,8,8,9,9,10,10,11,11,12,12,13,13,14,14],"right_children":[2,4,6,8,10,12,14,16,18,20,22,24,26,28,30,-1,-1,-1,-1,-1,-1,-1,-1,-1,-1,-1,-1,-1,-1,-1,-1],"split_conditions":[7.7E1,5.3E1,7.8E1,2.4E1,5.4E1,5.115246E-1,3.6E1,5E0,2.6E1,5E1,5.5E1,3E1,1.1E1,4E0,9.8E1,-4.6070456E-3,6.002824E-4,-2.3081547E-2,-6.514817E-3,5.952846E-3,-5.5443677E-3,-3.7831813E-2,-3.5984982E-3,-2.2823863E-2,-5.5216223E-2,-3.2508116E-2,1.237815E-3,5.5272784E-3,-7.828933E-3,-2.9298631E-2,4.830198E-2],"split_indices":[8,8,8,8,8,17,11,8,8,11,8,0,1,1,0,0,0,0,0,0,0,0,0,0,0,0,0,0,0,0,0],"split_type":[0,0,0,0,0,0,0,0,0,0,0,0,0,0,0,0,0,0,0,0,0,0,0,0,0,0,0,0,0,0,0],"sum_hessian":[7.039551E4,6.5713984E4,4.681527E3,4.8265242E4,1.7448742E4,4.713018E2,4.210225E3,3.669061E4,1.1574633E4,8.1897188E3,9.259022E3,2.3962833E2,2.3167346E2,3.9362083E3,2.7401675E2,1.9748488E4,1.6942121E4,1.8613505E3,9.713282E3,7.5126846E3,6.7703436E2,3.190666E2,8.939956E3,1.51067E2,8.856132E1,1.25658745E2,1.0601472E2,4.6785782E2,3.4683503E3,2.5871994E2,1.5296815E1],"tree_param":{"num_deleted":"0","num_feature":"18","num_nodes":"31","size_leaf_vector":"1"}},{"base_weights":[-2.7816122E-2,4.370626E-2,-3.1035982E-2,4.8723243E-2,-4.230243E-1,-1.3817943E-2,-4.250464E-2,4.454883E-2,6.0760456E-1,-4.6586415E-1,4.260583E-2,-4.1441597E-2,-3.6736208E-3,7.0267357E-3,-4.9637288E-2,7.229774E-3,8.979253E-4,1.910515E-2,1.6024934E-1,-8.847549E-2,-3.4047466E-2,-4.9497857E-4,-6.7928024E-3,1.2384398E-3,-4.491491E-3,8.5355475E-4,-5.791087E-2,-8.110734E-3,-3.992986E-3],"categories":[],"categories_nodes":[],"categories_segments":[],"categories_sizes":[],"default_left":[0,0,0,0,0,0,0,0,0,0,0,0,0,0,0,0,0,0,0,0,0,0,0,0,0,0,0,0,0],"id":41,"left_children":[1,3,5,7,9,11,13,15,17,19,-1,21,23,25,27,-1,-1,-1,-1,-1,-1,-1,-1,-1,-1,-1,-1,-1,-1],"loss_changes":[1.6154682E1,7.097174E0,1.3253769E1,6.9506807E0,1.3713222E0,7.5199347E0,1.42332E1,2.9305882E0,8.850497E0,1.3360739E0,0E0,6.966424E0,1.2999993E1,4.4904575E0,1.0754883E1,0E0,0E0,0E0,0E0,0E0,0E0,0E0,0E0,0E0,0E0,0E0,0E0,0E0,0E0],"parents":[2147483647,0,0,1,1,2,2,3,3,4,4,5,5,6,6,7,7,8,8,9,9,11,11,12,12,13,13,14,14],"right_children":[2,4,6,8,10,12,14,16,18,20,-1,22,24,26,28,-1,-1,-1,-1,-1,-1,-1,-1,-1,-1,-1,-1,-1,-1],"split_conditions":[2E0,9.5E1,2E0,8.8E1,5.7E1,5E0,1.002313E-2,5.617174E-1,5E0,2.067842E-1,4.260583E-2,4.2185578E-1,5.4E1,1E2,5E0,7.229774E-3,8.979253E-4,1.910515E-2,1.6024934E-1,-8.847549E-2,-3.4047466E-2,-4.9497857E-4,-6.7928024E-3,1.2384398E-3,-4.491491E-3,8.5355475E-4,-5.791087E-2,-8.110734E-3,-3.992986E-3],"split_indices":[5,8,12,9,0,8,16,17,3,17,0,17,8,8,8,0,0,0,0,0,0,0,0,0,0,0,0,0,0],"split_type":[0,0,0,0,0,0,0,0,0,0,0,0,0,0,0,0,0,0,0,0,0,0,0,0,0,0,0,0,0],"sum_hessian":[7.014179E4,3.0211323E3,6.712066E4,2.989889E3,3.124333E1,2.6835057E4,4.02856E4,2.9687942E3,2.10949E1,3.0172338E1,1.0709909E0,7.206956E3,1.96281E4,5.070999E3,3.5214605E4,1.6671595E3,1.3016345E3,1.5709482E1,5.385418E0,5.5558305E0,2.4616508E1,3.0314905E3,4.1754653E3,1.4127867E4,5.5002334E3,5.058962E3,1.2037188E1,8.299973E3,2.6914633E4],"tree_param":{"num_deleted":"0","num_feature":"18","num_nodes":"29","size_leaf_vector":"1"}},{"base_weights":[-2.4281738E-2,3.3535704E-2,-2.6906878E-2,7.261267E-2,-1.6611809E-2,-2.629884E-2,-3.2184532E-1,3.382407E-2,1.6230135E-1,-1.2956578E-1,4.687286E-2,-2.5863973E-2,-3.6888653E-1,3.600967E-2,-3.719212E-1,4.9062013E-3,-3.858647E-2,1.1000206E-2,5.9705853E-2,-1.4028876E-2,8.876487E-2,2.9920365E-3,5.3036224E-2,-2.9108683E-3,1.6504045E-3,-4.1389197E-2,-6.8445974E-3,9.488366E-2,-2.5842322E-2,-7.902589E-2,-3.0288933E-2],"categories":[],"categories_nodes":[],"categories_segments":[],"categories_sizes":[],"default_left":[0,0,0,0,0,0,0,0,0,0,0,0,0,0,0,0,0,0,0,0,0,0,0,0,0,0,0,0,0,0,0],"id":42,"left_children":[1,3,5,7,9,11,13,15,17,19,21,23,25,27,29,-1,-1,-1,-1,-1,-1,-1,-1,-1,-1,-1,-1,-1,-1,-1,-1],"loss_changes":[1.0611332E1,5.9518642E0,1.1983875E1,5.9326315E0,9.548692E0,9.932606E0,2.47717E0,7.647316E0,1.1645645E1,5.350192E0,6.9728866E0,9.163185E0,1.1146088E0,5.026342E0,3.2462654E0,0E0,0E0,0E0,0E0,0E0,0E0,0E0,0E0,0E0,0E0,0E0,0E0,0E0,0E0,0E0,0E0],"parents":[2147483647,0,0,1,1,2,2,3,3,4,4,5,5,6,6,7,7,8,8,9,9,10,10,11,11,12,12,13,13,14,14],"right_children":[2,4,6,8,10,12,14,16,18,20,22,24,26,28,30,-1,-1,-1,-1,-1,-1,-1,-1,-1,-1,-1,-1,-1,-1,-1,-1],"split_conditions":[2E0,5.617174E-1,1E2,6E0,7.182274E-1,9.9E1,2E0,6.7E1,9E0,8.5E1,6E1,2.1E1,8.709335E-1,4E0,1.2844993E-1,4.9062013E-3,-3.858647E-2,1.1000206E-2,5.9705853E-2,-1.4028876E-2,8.876487E-2,2.9920365E-3,5.3036224E-2,-2.9108683E-3,1.6504045E-3,-4.1389197E-2,-6.8445974E-3,9.488366E-2,-2.5842322E-2,-7.902589E-2,-3.0288933E-2],"split_indices":[5,17,11,3,17,10,4,11,11,9,10,9,17,3,17,0,0,0,0,0,0,0,0,0,0,0,0,0,0,0,0],"split_type":[0,0,0,0,0,0,0,0,0,0,0,0,0,0,0,0,0,0,0,0,0,0,0,0,0,0,0,0,0,0,0],"sum_hessian":[6.990613E4,3.03565E3,6.6870484E4,1.7058976E3,1.3297523E3,6.673399E4,1.3648825E2,1.191831E3,5.140666E2,4.780858E2,8.5166644E2,6.665047E4,8.352763E1,1.6789213E1,1.1969904E2,1.1509266E3,4.0904415E1,4.5998547E2,5.408111E1,4.7395172E2,4.1340866E0,8.238421E2,2.7824337E1,6.1909508E4,4.740959E3,7.2317055E1,1.1210578E1,3.552585E0,1.3236629E1,1.5474554E1,1.0422449E2],"tree_param":{"num_deleted":"0","num_feature":"18","num_nodes":"31","size_leaf_vector":"1"}},{"base_weights":[-2.4437338E-2,-3.2290556E-2,-6.796741E-4,2.9754085E-2,-3.621543E-2,-1.3914647E-3,6.099791E-1,9.521542E-3,1.12173E-1,-2.2998491E-2,-5.02038E-2,2.329501E-2,-1.5171817E-2,1.1339013E-1,1.0857017E0,-3.7149772E-2,1.3130412E-3,9.42839E-3,8.860943E-2,-5.5343225E-3,1.3532162E-3,-1.7061902E-2,-3.0287309E-3,-1.5280157E-3,6.7220232E-3,-1.2473776E-2,-8.756646E-4,-3.8032148E-2,8.567853E-2,-6.2013995E-2,1.4189391E-1],"categories":[],"categories_nodes":[],"categories_segments":[],"categories_sizes":[],"default_left":[0,0,0,0,0,0,0,0,0,0,0,0,0,0,0,0,0,0,0,0,0,0,0,0,0,0,0,0,0,0,0],"id":43,"left_children":[1,3,5,7,9,11,13,15,17,19,21,23,25,27,29,-1,-1,-1,-1,-1,-1,-1,-1,-1,-1,-1,-1,-1,-1,-1,-1],"loss_changes":[1.3024479E1,1.2777412E1,7.5395627E0,5.205034E0,9.121895E0,5.8940105E0,4.647724E0,3.4531732E0,8.434511E0,2.9981873E1,5.7485542E1,1.0517954E1,7.814209E0,4.3621526E0,6.6767454E0,0E0,0E0,0E0,0E0,0E0,0E0,0E0,0E0,0E0,0E0,0E0,0E0,0E0,0E0,0E0,0E0],"parents":[2147483647,0,0,1,1,2,2,3,3,4,4,5,5,6,6,7,7,8,8,9,9,10,10,11,11,12,12,13,13,14,14],"right_children":[2,4,6,8,10,12,14,16,18,20,22,24,26,28,30,-1,-1,-1,-1,-1,-1,-1,-1,-1,-1,-1,-1,-1,-1,-1,-1],"split_conditions":[6E0,3E0,1E2,4E0,2.3E1,3.592436E-1,5E0,2E0,7.6E1,5E0,2.7E1,5E0,3.944205E-1,5.695114E-1,1.2457079E-1,-3.7149772E-2,1.3130412E-3,9.42839E-3,8.860943E-2,-5.5343225E-3,1.3532162E-3,-1.7061902E-2,-3.0287309E-3,-1.5280157E-3,6.7220232E-3,-1.2473776E-2,-8.756646E-4,-3.8032148E-2,8.567853E-2,-6.2013995E-2,1.4189391E-1],"split_indices":[3,1,9,9,8,17,7,1,8,8,8,7,17,17,17,0,0,0,0,0,0,0,0,0,0,0,0,0,0,0,0],"split_type":[0,0,0,0,0,0,0,0,0,0,0,0,0,0,0,0,0,0,0,0,0,0,0,0,0,0,0,0,0,0,0],"sum_hessian":[6.9807734E4,5.246485E4,1.7342887E4,3.121017E3,4.9343836E4,1.7323691E4,1.919497E1,2.506762E3,6.1425494E2,2.5372877E4,2.3970957E4,6.20579E3,1.1117901E4,9.997406E0,9.197562E0,2.2563843E1,2.4841982E3,6.014738E2,1.2781173E1,1.3457187E4,1.191569E4,3.4009895E3,2.0569967E4,3.3044614E3,2.9013284E3,6.1393536E2,1.0503966E4,6.30107E0,3.6963356E0,1.3624133E0,7.8351493E0],"tree_param":{"num_deleted":"0","num_feature":"18","num_nodes":"31","size_leaf_vector":"1"}},{"base_weights":[-2.167498E-2,-7.81444E-3,-3.9361715E-2,-1.1879004E-2,6.402717E-2,-8.559664E-2,-3.324886E-2,-9.891118E-3,-1.5251899E-1,3.2706866E-1,-6.668604E-3,-9.943273E-2,5.4970182E-2,-2.9438064E-2,-1.0277977E-1,-9.120334E-4,-2.5946403E-2,1.4934911E-3,-2.2647236E-2,1.7659139E-2,4.9670536E-2,-6.521698E-3,1.1023084E-2,-3.555466E-3,-1.24816885E-2,-1.8910987E-2,1.2854643E-2,-3.0895032E-3,6.399184E-2,-7.025624E-3,-3.9096836E-2],"categories":[],"categories_nodes":[],"categories_segments":[],"categories_sizes":[],"default_left":[0,0,0,0,0,0,0,0,0,0,0,0,0,0,0,0,0,0,0,0,0,0,0,0,0,0,0,0,0,0,0],"id":44,"left_children":[1,3,5,7,9,11,13,15,17,19,21,23,25,27,29,-1,-1,-1,-1,-1,-1,-1,-1,-1,-1,-1,-1,-1,-1,-1,-1],"loss_changes":[1.7082317E1,1.1408939E1,8.649933E0,1.0336468E1,3.8907898E1,6.957409E0,7.162264E0,7.0119E0,6.384796E0,1.1225727E1,1.129996E1,5.272709E0,5.7881246E0,2.5023106E1,1.3138567E1,0E0,0E0,0E0,0E0,0E0,0E0,0E0,0E0,0E0,0E0,0E0,0E0,0E0,0E0,0E0,0E0],"parents":[2147483647,0,0,1,1,2,2,3,3,4,4,5,5,6,6,7,7,8,8,9,9,10,10,11,11,12,12,13,13,14,14],"right_children":[2,4,6,8,10,12,14,16,18,20,22,24,26,28,30,-1,-1,-1,-1,-1,-1,-1,-1,-1,-1,-1,-1,-1,-1,-1,-1],"split_conditions":[1.22590594E-1,5.5E1,2E0,4.1E1,6.5E1,2E0,2.1E1,1E2,1.8E1,5.4E1,2.2E1,2E0,1E1,1.9E1,4.448728E-1,-9.120334E-4,-2.5946403E-2,1.4934911E-3,-2.2647236E-2,1.7659139E-2,4.9670536E-2,-6.521698E-3,1.1023084E-2,-3.555466E-3,-1.24816885E-2,-1.8910987E-2,1.2854643E-2,-3.0895032E-3,6.399184E-2,-7.025624E-3,-3.9096836E-2],"split_indices":[16,11,4,11,11,6,10,8,8,8,9,12,8,10,16,0,0,0,0,0,0,0,0,0,0,0,0,0,0,0,0],"split_type":[0,0,0,0,0,0,0,0,0,0,0,0,0,0,0,0,0,0,0,0,0,0,0,0,0,0,0,0,0,0,0],"sum_hessian":[6.968197E4,3.906747E4,3.0614504E4,3.6976305E4,2.0911638E3,3.573457E3,2.7041047E4,3.6462E4,5.143044E2,4.4220435E2,1.6489594E3,3.253505E3,3.1995206E2,2.5637357E4,1.4036903E3,3.635077E4,1.11229546E2,1.577979E2,3.565065E2,2.3541716E2,2.067872E2,1.0989827E3,5.499767E2,9.2590594E2,2.327599E3,7.374429E1,2.4620776E2,2.5582627E4,5.473114E1,1.2624592E3,1.412311E2],"tree_param":{"num_deleted":"0","num_feature":"18","num_nodes":"31","size_leaf_vector":"1"}},{"base_weights":[-1.7441865E-2,-1.684791E-2,-3.019753E-1,1.1157764E-2,-2.142484E-2,-7.395777E-1,-2.1376683E-1,6.327161E-3,1.1310205E-1,-1.0980627E-2,-3.474248E-2,4.3744296E-2,-8.135575E-2,-5.055467E-2,-4.0618345E-1,5.331856E-4,4.648682E-2,3.5869278E-2,3.1524524E-3,-1.2240774E-3,1.2044181E-2,-1.5050723E-3,-5.236332E-3,-3.80356E-2,3.7501868E-2,-2.2426866E-2,-7.9976745E-2],"categories":[],"categories_nodes":[],"categories_segments":[],"categories_sizes":[],"default_left":[0,0,0,0,0,0,0,0,0,0,0,0,0,0,0,0,0,0,0,0,0,0,0,0,0,0,0],"id":45,"left_children":[1,3,5,7,9,11,13,15,17,19,21,-1,-1,23,25,-1,-1,-1,-1,-1,-1,-1,-1,-1,-1,-1,-1],"loss_changes":[1.17482395E1,8.89624E0,5.4317703E0,4.80056E0,8.296986E0,2.4358683E0,3.808558E0,4.246357E0,8.82455E0,5.538725E0,9.097006E0,0E0,0E0,9.562144E0,3.816927E0,0E0,0E0,0E0,0E0,0E0,0E0,0E0,0E0,0E0,0E0,0E0,0E0],"parents":[2147483647,0,0,1,1,2,2,3,3,4,4,5,5,6,6,7,7,8,8,9,9,10,10,13,13,14,14],"right_children":[2,4,6,8,10,12,14,16,18,20,22,-1,-1,24,26,-1,-1,-1,-1,-1,-1,-1,-1,-1,-1,-1,-1],"split_conditions":[1E2,3E0,1.696222E-1,5.4E1,1.22590594E-1,2E0,3.5235158E-1,9.9E1,6.4E1,1.2104858E-1,2E0,4.3744296E-2,-8.135575E-2,2.613724E-1,5.1E1,5.331856E-4,4.648682E-2,3.5869278E-2,3.1524524E-3,-1.2240774E-3,1.2044181E-2,-1.5050723E-3,-5.236332E-3,-3.80356E-2,3.7501868E-2,-2.2426866E-2,-7.9976745E-2],"split_indices":[11,5,16,11,16,7,16,9,11,16,12,0,0,16,0,0,0,0,0,0,0,0,0,0,0,0,0],"split_type":[0,0,0,0,0,0,0,0,0,0,0,0,0,0,0,0,0,0,0,0,0,0,0,0,0,0,0],"sum_hessian":[6.9545234E4,6.940142E4,1.4381432E2,9.748725E3,5.96527E4,2.2887072E1,1.2092724E2,9.308696E3,4.4002808E2,3.3434156E4,2.6218543E4,1.0629225E0,2.182415E1,6.611215E1,5.481509E1,9.289544E3,1.9152172E1,1.0887147E2,3.3115662E2,3.3117516E4,3.1664124E2,1.2382559E4,1.3835983E4,3.730703E1,2.8805122E1,3.8561672E1,1.625342E1],"tree_param":{"num_deleted":"0","num_feature":"18","num_nodes":"27","size_leaf_vector":"1"}},{"base_weights":[-1.4712356E-2,3.282111E-4,-2.4443107E-2,1.044592E-1,-2.0253065E-3,-2.9099774E-2,3.325769E-2,9.608827E-2,1.029937E0,7.072223E-4,-1.0593739E-1,-1.2308748E-2,-4.8053764E-2,1.02644995E-1,-1.5018224E-2,4.3553314E-3,2.5010524E-2,2.004273E-1,-6.623552E-2,-6.3248706E-4,5.662186E-3,-2.4845188E-2,-2.9526066E-4,-1.7172638E-3,9.435332E-3,-1.6230052E-2,-2.8650574E-3,1.0774111E-1,9.827192E-3,-2.566602E-3,2.3791296E-2],"categories":[],"categories_nodes":[],"categories_segments":[],"categories_sizes":[],"default_left":[0,0,0,0,0,0,0,0,0,0,0,0,0,0,