{"learner":{"attributes":{"best_iteration":"167","best_score":"0.7022726996769253"},"feature_names":["C1_obj","banner_pos_obj","device_type_obj","device_conn_type_obj","C15_obj","C16_obj","C18_obj","site_id_obj","site_domain_obj","site_category_obj","app_id_obj","app_domain_obj","app_category_obj","device_id_obj","device_ip_obj","device_model_obj","hour_hour_obj","hour_week_obj","C1_mm","banner_pos_mm","device_type_mm","device_conn_type_mm","C14_mm","C15_mm","C16_mm","C17_mm","C18_mm","C19_mm","C20_mm","C21_mm"],"feature_types":["int","int","int","int","int","int","int","int","int","int","int","int","int","int","int","int","int","int","float","float","float","float","float","float","float","float","float","float","float","float"],"gradient_booster":{"model":{"gbtree_model_param":{"num_parallel_tree":"1","num_trees":"188"},"iteration_indptr":[0,1,2,3,4,5,6,7,8,9,10,11,12,13,14,15,16,17,18,19,20,21,22,23,24,25,26,27,28,29,30,31,32,33,34,35,36,37,38,39,40,41,42,43,44,45,46,47,48,49,50,51,52,53,54,55,56,57,58,59,60,61,62,63,64,65,66,67,68,69,70,71,72,73,74,75,76,77,78,79,80,81,82,83,84,85,86,87,88,89,90,91,92,93,94,95,96,97,98,99,100,101,102,103,104,105,106,107,108,109,110,111,112,113,114,115,116,117,118,119,120,121,122,123,124,125,126,127,128,129,130,131,132,133,134,135,136,137,138,139,140,141,142,143,144,145,146,147,148,149,150,151,152,153,154,155,156,157,158,159,160,161,162,163,164,165,166,167,168,169,170,171,172,173,174,175,176,177,178,179,180,181,182,183,184,185,186,187,188],"tree_info":[0,0,0,0,0,0,0,0,0,0,0,0,0,0,0,0,0,0,0,0,0,0,0,0,0,0,0,0,0,0,0,0,0,0,0,0,0,0,0,0,0,0,0,0,0,0,0,0,0,0,0,0,0,0,0,0,0,0,0,0,0,0,0,0,0,0,0,0,0,0,0,0,0,0,0,0,0,0,0,0,0,0,0,0,0,0,0,0,0,0,0,0,0,0,0,0,0,0,0,0,0,0,0,0,0,0,0,0,0,0,0,0,0,0,0,0,0,0,0,0,0,0,0,0,0,0,0,0,0,0,0,0,0,0,0,0,0,0,0,0,0,0,0,0,0,0,0,0,0,0,0,0,0,0,0,0,0,0,0,0,0,0,0,0,0,0,0,0,0,0,0,0,0,0,0,0,0,0,0,0,0,0,0,0,0,0,0,0],"trees":[{"base_weights":[-2.4541762E-1,-3.1667212E-1,1.1003541E0,-4.15666E-1,2.9815236E-1,1.4650016E0,-2.3753487E-2,-1.9418228E-1,-6.251178E-1,4.875742E-1,-3.768721E-1,2.0845978E0,1.2129741E0,2.9794288E-1,-5.548035E-1,-2.0123662E-2,2.4752946E-1,-2.7275903E-2,-7.626987E-2,-1.9182246E-2,6.3106716E-2,-7.6072715E-2,4.435259E-4,2.1570627E-1,-3.6312487E-2,1.448241E-1,8.225558E-2,5.2961796E-3,2.3380838E-1,-5.0946875E-3,-9.6514076E-2],"categories":[],"categories_nodes":[],"categories_segments":[],"categories_sizes":[],"default_left":[0,0,0,0,0,0,0,0,0,0,0,0,0,0,0,0,0,0,0,0,0,0,0,0,0,0,0,0,0,0,0],"id":0,"left_children":[1,3,5,7,9,11,13,15,17,19,21,23,25,27,29,-1,-1,-1,-1,-1,-1,-1,-1,-1,-1,-1,-1,-1,-1,-1,-1],"loss_changes":[5.127727E2,3.090579E2,1.1027063E2,2.0271082E2,9.026522E1,2.9182922E1,1.15865345E1,4.054435E1,1.0870923E2,5.3795242E1,2.2681341E1,1.095166E1,1.2288055E1,2.1009794E1,5.237482E0,0E0,0E0,0E0,0E0,0E0,0E0,0E0,0E0,0E0,0E0,0E0,0E0,0E0,0E0,0E0,0E0],"parents":[2147483647,0,0,1,1,2,2,3,3,4,4,5,5,6,6,7,7,8,8,9,9,10,10,11,11,12,12,13,13,14,14],"right_children":[2,4,6,8,10,12,14,16,18,20,22,24,26,28,30,-1,-1,-1,-1,-1,-1,-1,-1,-1,-1,-1,-1,-1,-1,-1,-1],"split_conditions":[5E0,7.6E1,6E0,5.2E1,8.6E1,4.5454547E-2,2.3232323E-1,5.1E1,9.59596E-2,2E0,9E1,2.2E1,1.5E1,2.2727273E-1,2.4E1,-2.0123662E-2,2.4752946E-1,-2.7275903E-2,-7.626987E-2,-1.9182246E-2,6.3106716E-2,-7.6072715E-2,4.435259E-4,2.1570627E-1,-3.6312487E-2,1.448241E-1,8.225558E-2,5.2961796E-3,2.3380838E-1,-5.0946875E-3,-9.6514076E-2],"split_indices":[5,7,9,7,7,29,29,7,29,1,7,16,16,29,11,0,0,0,0,0,0,0,0,0,0,0,0,0,0,0,0],"split_type":[0,0,0,0,0,0,0,0,0,0,0,0,0,0,0,0,0,0,0,0,0,0,0,0,0,0,0,0,0,0,0],"sum_hessian":[5.3427495E3,5.074818E3,2.679314E2,4.37131E3,7.03508E2,2.0207677E2,6.585463E1,2.125567E3,2.2457432E3,5.495686E2,1.5393938E2,5.632744E1,1.4574933E2,4.12845E1,2.457013E1,2.1208867E3,4.6800246E0,6.31469E2,1.6142742E3,9.577336E1,4.5379523E2,7.6217545E1,7.772183E1,5.4823143E1,1.5042936E0,8.925475E1,5.6494583E1,3.7774483E1,3.5100183E0,1.1532918E1,1.3037211E1],"tree_param":{"num_deleted":"0","num_feature":"30","num_nodes":"31","size_leaf_vector":"1"}},{"base_weights":[-2.1785201E-1,-2.8348374E-1,9.404939E-1,-3.7861836E-1,2.7111307E-1,1.1429397E0,-4.68073E-2,-1.5383239E-1,-5.969533E-1,4.3096912E-1,-3.4507743E-1,-2.5501305E-1,1.2317235E0,2.822304E-1,-1.0736326E0,-6.1489195E-3,-3.2071885E-2,-2.3666678E-2,-7.400944E-2,5.6893434E-2,-1.0825994E-2,-7.012167E-2,-8.703556E-4,1.257803E-1,-5.6547966E-2,9.003907E-2,1.4618193E-1,-8.3420075E-2,6.4939246E-2,-2.5885945E-2,-1.1453581E-1],"categories":[],"categories_nodes":[],"categories_segments":[],"categories_sizes":[],"default_left":[0,0,0,0,0,0,0,0,0,0,0,0,0,0,0,0,0,0,0,0,0,0,0,0,0,0,0,0,0,0,0],"id":1,"left_children":[1,3,5,7,9,11,13,15,17,19,21,23,25,27,29,-1,-1,-1,-1,-1,-1,-1,-1,-1,-1,-1,-1,-1,-1,-1,-1],"loss_changes":[4.0096835E2,2.6332138E2,5.6589294E1,2.0892413E2,7.2159256E1,2.9452118E1,1.688912E1,3.2339092E1,1.11222534E2,4.3278572E1,1.8100378E1,7.6850567E0,1.5526093E1,1.610588E1,4.118929E-1,0E0,0E0,0E0,0E0,0E0,0E0,0E0,0E0,0E0,0E0,0E0,0E0,0E0,0E0,0E0,0E0],"parents":[2147483647,0,0,1,1,2,2,3,3,4,4,5,5,6,6,7,7,8,8,9,9,10,10,11,11,12,12,13,13,14,14],"right_children":[2,4,6,8,10,12,14,16,18,20,22,24,26,28,30,-1,-1,-1,-1,-1,-1,-1,-1,-1,-1,-1,-1,-1,-1,-1,-1],"split_conditions":[5E0,7.4E1,4.1E1,5.2E1,8.6E1,1E0,9.222171E-1,1.6E1,9.59596E-2,1.919192E-1,9E1,3E0,7.517466E-1,8.155566E-1,1E0,-6.1489195E-3,-3.2071885E-2,-2.3666678E-2,-7.400944E-2,5.6893434E-2,-1.0825994E-2,-7.012167E-2,-8.703556E-4,1.257803E-1,-5.6547966E-2,9.003907E-2,1.4618193E-1,-8.3420075E-2,6.4939246E-2,-2.5885945E-2,-1.1453581E-1],"split_indices":[5,7,8,7,7,7,25,9,29,29,7,9,25,25,17,0,0,0,0,0,0,0,0,0,0,0,0,0,0,0,0],"split_type":[0,0,0,0,0,0,0,0,0,0,0,0,0,0,0,0,0,0,0,0,0,0,0,0,0,0,0,0,0,0,0],"sum_hessian":[5.269711E3,4.987855E3,2.818559E2,4.257797E3,7.3005817E2,2.3376486E2,4.809105E1,2.0987454E3,2.1590513E3,5.799138E2,1.5014435E2,1.3848006E1,2.1991685E2,3.696959E1,1.1121458E1,1.3520079E3,7.4673737E2,6.1464404E2,1.5444073E3,4.6172375E2,1.18190056E2,7.2402664E1,7.7741684E1,1.8384461E0,1.200956E1,9.2144226E1,1.2777263E2,8.834492E0,2.81351E1,1.2727339E0,9.848723E0],"tree_param":{"num_deleted":"0","num_feature":"30","num_nodes":"31","size_leaf_vector":"1"}},{"base_weights":[-1.9905777E-1,-2.6192912E-1,8.3448327E-1,-3.4983566E-1,2.363152E-1,9.8990864E-1,-2.9916825E-2,-1.4238639E-1,-5.279232E-1,3.797478E-1,-3.3030972E-1,2.1278598E0,9.2792916E-1,2.6283544E-1,-1.0268296E0,-3.4385076E-4,-2.53973E-2,6.530465E-2,-5.74951E-2,-1.52554875E-2,4.829598E-2,-9.8558955E-2,-9.548312E-3,2.2302766E-1,6.293674E-2,-4.727183E-2,9.9439956E-2,-7.914605E-2,6.983333E-2,-2.5277516E-2,-1.1027618E-1],"categories":[],"categories_nodes":[],"categories_segments":[],"categories_sizes":[],"default_left":[0,0,0,0,0,0,0,0,0,0,0,0,0,0,0,0,0,0,0,0,0,0,0,0,0,0,0,0,0,0,0],"id":2,"left_children":[1,3,5,7,9,11,13,15,17,19,21,23,25,27,29,-1,-1,-1,-1,-1,-1,-1,-1,-1,-1,-1,-1,-1,-1,-1,-1],"loss_changes":[3.3998975E2,2.160015E2,4.034465E1,1.5475195E2,6.0261192E1,1.5966293E1,1.3900189E1,3.0035011E1,1.255943E2,3.253916E1,2.2987646E1,4.9409866E-1,2.309439E1,1.749416E1,3.5634422E-1,0E0,0E0,0E0,0E0,0E0,0E0,0E0,0E0,0E0,0E0,0E0,0E0,0E0,0E0,0E0,0E0],"parents":[2147483647,0,0,1,1,2,2,3,3,4,4,5,5,6,6,7,7,8,8,9,9,10,10,11,11,12,12,13,13,14,14],"right_children":[2,4,6,8,10,12,14,16,18,20,22,24,26,28,30,-1,-1,-1,-1,-1,-1,-1,-1,-1,-1,-1,-1,-1,-1,-1,-1],"split_conditions":[5E0,7.7E1,4.1E1,3.7E1,8.6E1,3E0,8.9981943E-1,6.3311785E-1,3E0,2E0,4.7E1,7.4E1,1E0,8.107636E-1,1E0,-3.4385076E-4,-2.53973E-2,6.530465E-2,-5.74951E-2,-1.52554875E-2,4.829598E-2,-9.8558955E-2,-9.548312E-3,2.2302766E-1,6.293674E-2,-4.727183E-2,9.9439956E-2,-7.914605E-2,6.983333E-2,-2.5277516E-2,-1.1027618E-1],"split_indices":[5,7,8,7,7,9,22,22,0,1,8,15,7,22,17,0,0,0,0,0,0,0,0,0,0,0,0,0,0,0,0],"split_type":[0,0,0,0,0,0,0,0,0,0,0,0,0,0,0,0,0,0,0,0,0,0,0,0,0,0,0,0,0,0,0],"sum_hessian":[5.2278477E3,4.928772E3,2.9907565E2,4.1898447E3,7.389274E2,2.5337231E2,4.5703354E1,1.9362085E3,2.2536362E3,5.899262E2,1.4900119E2,1.1365653E1,2.4200665E2,3.5897953E1,9.805401E0,8.6283514E2,1.0733734E3,8.581242E1,2.1678237E3,9.573045E1,4.9419577E2,3.8465828E1,1.10535355E2,1.018144E1,1.1842124E0,1.0687636E1,2.3131902E2,1.0254787E1,2.5643164E1,1.2626704E0,8.54273E0],"tree_param":{"num_deleted":"0","num_feature":"30","num_nodes":"31","size_leaf_vector":"1"}},{"base_weights":[-1.8301645E-1,-2.3694795E-1,6.7438143E-1,-3.170796E-1,1.9856046E-1,8.7403595E-1,-3.280182E-2,-1.1630876E-1,-4.8729163E-1,3.168415E-1,-2.7519628E-1,1.616362E0,8.11387E-1,5.994228E-1,-3.5022593E-1,-1.39806075E-2,8.054998E-2,5.0242294E-2,-5.299299E-2,-1.4051166E-2,4.0558454E-2,-6.808901E-2,7.865605E-3,1.7122215E-2,1.7104967E-1,-7.3690996E-2,8.370682E-2,-9.35067E-2,8.305191E-2,-1.633079E-2,-9.950051E-2],"categories":[],"categories_nodes":[],"categories_segments":[],"categories_sizes":[],"default_left":[0,0,0,0,0,0,0,0,0,0,0,0,0,0,0,0,0,0,0,0,0,0,0,0,0,0,0,0,0,0,0],"id":3,"left_children":[1,3,5,7,9,11,13,15,17,19,21,23,25,27,29,-1,-1,-1,-1,-1,-1,-1,-1,-1,-1,-1,-1,-1,-1,-1,-1],"loss_changes":[2.3777E2,1.6880148E2,4.300107E1,1.395144E2,4.2227425E1,9.728165E0,1.385079E1,4.072927E1,9.352698E1,2.4499928E1,2.1698511E1,2.0832634E0,9.400864E0,8.964203E0,5.367403E0,0E0,0E0,0E0,0E0,0E0,0E0,0E0,0E0,0E0,0E0,0E0,0E0,0E0,0E0,0E0,0E0],"parents":[2147483647,0,0,1,1,2,2,3,3,4,4,5,5,6,6,7,7,8,8,9,9,10,10,11,11,12,12,13,13,14,14],"right_children":[2,4,6,8,10,12,14,16,18,20,22,24,26,28,30,-1,-1,-1,-1,-1,-1,-1,-1,-1,-1,-1,-1,-1,-1,-1,-1],"split_conditions":[5E0,7.5E1,6E0,3.5E1,8.6E1,3E0,2.2E1,3.4E1,3E0,2E0,9E1,7.7762246E-1,4E0,4E0,8.9981943E-1,-1.39806075E-2,8.054998E-2,5.0242294E-2,-5.299299E-2,-1.4051166E-2,4.0558454E-2,-6.808901E-2,7.865605E-3,1.7122215E-2,1.7104967E-1,-7.3690996E-2,8.370682E-2,-9.35067E-2,8.305191E-2,-1.633079E-2,-9.950051E-2],"split_indices":[24,7,9,7,7,9,8,7,0,1,7,22,9,16,22,0,0,0,0,0,0,0,0,0,0,0,0,0,0,0,0],"split_type":[0,0,0,0,0,0,0,0,0,0,0,0,0,0,0,0,0,0,0,0,0,0,0,0,0,0,0,0,0,0,0],"sum_hessian":[5.137545E3,4.8341914E3,3.033536E2,4.0831765E3,7.510147E2,2.3638158E2,6.6972046E1,1.8741896E3,2.2089868E3,6.012373E2,1.4977742E2,1.6466785E1,2.199148E2,2.208874E1,4.4883305E1,1.8284304E3,4.575918E1,9.079024E1,2.1181965E3,9.7608864E1,5.0362842E2,6.934674E1,8.043067E1,1.1794205E0,1.5287365E1,3.1362772E0,2.1677852E2,2.4924617E0,1.9596277E1,3.576771E1,9.115593E0],"tree_param":{"num_deleted":"0","num_feature":"30","num_nodes":"31","size_leaf_vector":"1"}},{"base_weights":[-1.6822876E-1,-2.2211818E-1,6.437485E-1,-9.951709E-2,-4.7672793E-1,7.9362357E-1,7.991411E-2,6.731906E-2,-2.2698729E-1,-3.686303E-1,-9.8850715E-1,5.351236E-1,9.7104967E-1,3.2166582E-1,-7.0963204E-1,-3.922352E-4,5.9706E-2,-1.5361986E-2,-4.7218002E-2,-4.1260544E-2,1.4545279E-2,-1.0649778E-1,-4.8469864E-2,7.232758E-2,8.44033E-3,1.0420751E-1,2.3483211E-2,-8.2974836E-2,6.795547E-2,-3.3038225E-2,-9.665392E-2],"categories":[],"categories_nodes":[],"categories_segments":[],"categories_sizes":[],"default_left":[0,0,0,0,0,0,0,0,0,0,0,0,0,0,0,0,0,0,0,0,0,0,0,0,0,0,0,0,0,0,0],"id":4,"left_children":[1,3,5,7,9,11,13,15,17,19,21,23,25,27,29,-1,-1,-1,-1,-1,-1,-1,-1,-1,-1,-1,-1,-1,-1,-1,-1],"loss_changes":[2.218591E2,1.4829996E2,2.6607391E1,6.8260345E1,8.507254E1,1.091098E1,1.3091091E1,5.248532E1,3.265615E1,2.8920746E1,9.836578E0,8.730091E0,7.41893E0,2.2107374E1,1.2501965E0,0E0,0E0,0E0,0E0,0E0,0E0,0E0,0E0,0E0,0E0,0E0,0E0,0E0,0E0,0E0,0E0],"parents":[2147483647,0,0,1,1,2,2,3,3,4,4,5,5,6,6,7,7,8,8,9,9,10,10,11,11,12,12,13,13,14,14],"right_children":[2,4,6,8,10,12,14,16,18,20,22,24,26,28,30,-1,-1,-1,-1,-1,-1,-1,-1,-1,-1,-1,-1,-1,-1,-1,-1],"split_conditions":[5E0,3E0,5E0,6.688217E-1,9.9993014E-1,7.138447E-1,8.9760613E-1,6.3311785E-1,4E0,1.7E1,1.0000899E0,1.6E1,9.996607E-1,8.155566E-1,2E0,-3.922352E-4,5.9706E-2,-1.5361986E-2,-4.7218002E-2,-4.1260544E-2,1.4545279E-2,-1.0649778E-1,-4.8469864E-2,7.232758E-2,8.44033E-3,1.0420751E-1,2.3483211E-2,-8.2974836E-2,6.795547E-2,-3.3038225E-2,-9.665392E-2],"split_indices":[5,12,9,22,28,22,22,22,6,12,28,16,28,25,6,0,0,0,0,0,0,0,0,0,0,0,0,0,0,0,0],"split_type":[0,0,0,0,0,0,0,0,0,0,0,0,0,0,0,0,0,0,0,0,0,0,0,0,0,0,0,0,0,0,0],"sum_hessian":[5.065987E3,4.7513735E3,3.1461343E2,3.2080205E3,1.5433529E3,2.4822437E2,6.638906E1,1.3896648E3,1.8183558E3,1.2756345E3,2.6771838E2,1.0266424E2,1.4556012E2,5.1280148E1,1.51089115E1,1.2258066E3,1.6385815E2,1.4008231E3,4.175327E2,1.1752959E3,1.00338554E2,2.314707E2,3.6247673E1,7.200233E1,3.0661913E1,1.323741E2,1.31860285E1,1.1847013E1,3.9433132E1,7.024803E0,8.084108E0],"tree_param":{"num_deleted":"0","num_feature":"30","num_nodes":"31","size_leaf_vector":"1"}},{"base_weights":[-1.5141858E-1,1.507813E-1,-3.22465E-1,3.7697846E-1,-2.7681446E-2,-1.748525E-1,-6.099659E-1,5.453588E-1,-7.520893E-2,-2.0585509E-1,1.4825009E-1,-1.644654E-2,-3.8828084E-1,-5.0501835E-1,-9.9958307E-1,-2.3139378E-2,5.9895493E-2,-7.1050696E-2,4.9403827E-3,3.1473536E-2,-3.270586E-2,2.4182955E-2,-6.6550575E-2,4.672359E-3,-7.257476E-2,-6.538901E-2,-2.143058E-2,-4.0940046E-2,-9.058804E-2,-1.04120605E-1,-3.938229E-2],"categories":[],"categories_nodes":[],"categories_segments":[],"categories_sizes":[],"default_left":[0,0,0,0,0,0,0,0,0,0,0,0,0,0,0,0,0,0,0,0,0,0,0,0,0,0,0,0,0,0,0],"id":5,"left_children":[1,3,5,7,9,11,13,15,17,19,21,23,25,27,29,-1,-1,-1,-1,-1,-1,-1,-1,-1,-1,-1,-1,-1,-1,-1,-1],"loss_changes":[2.5932532E2,7.322203E1,1.3583978E2,6.094554E1,3.1837915E1,7.160025E1,4.3914917E1,2.4408905E1,1.7286999E1,3.1939362E1,3.9085266E1,5.455287E1,4.1552628E1,3.2509674E1,5.3765106E0,0E0,0E0,0E0,0E0,0E0,0E0,0E0,0E0,0E0,0E0,0E0,0E0,0E0,0E0,0E0,0E0],"parents":[2147483647,0,0,1,1,2,2,3,3,4,4,5,5,6,6,7,7,8,8,9,9,10,10,11,11,12,12,13,13,14,14],"right_children":[2,4,6,8,10,12,14,16,18,20,22,24,26,28,30,-1,-1,-1,-1,-1,-1,-1,-1,-1,-1,-1,-1,-1,-1,-1,-1],"split_conditions":[9.59596E-2,4E0,2E0,5.9E1,6.185375E-1,8E0,9.999501E-1,2E0,4.4E1,6.5E1,9.096414E-1,2E0,2E0,9.2E1,1.0002196E0,-2.3139378E-2,5.9895493E-2,-7.1050696E-2,4.9403827E-3,3.1473536E-2,-3.270586E-2,2.4182955E-2,-6.6550575E-2,4.672359E-3,-7.257476E-2,-6.538901E-2,-2.143058E-2,-4.0940046E-2,-9.058804E-2,-1.04120605E-1,-3.938229E-2],"split_indices":[29,6,12,8,25,9,28,2,7,10,25,1,1,10,28,0,0,0,0,0,0,0,0,0,0,0,0,0,0,0,0],"split_type":[0,0,0,0,0,0,0,0,0,0,0,0,0,0,0,0,0,0,0,0,0,0,0,0,0,0,0,0,0,0,0],"sum_hessian":[5.014973E3,1.8126154E3,3.2023577E3,7.989075E2,1.0137079E3,2.1170183E3,1.0853394E3,5.8198755E2,2.1691989E2,5.0356018E2,5.1014774E2,1.2157609E3,9.012575E2,8.568373E2,2.2850214E2,3.735114E1,5.446364E2,3.480026E1,1.8211963E2,9.479635E1,4.0876382E2,4.5816318E2,5.1984554E1,1.1171978E3,9.856317E1,3.5560052E2,5.45657E2,6.934496E2,1.6338766E2,2.1313815E2,1.5363988E1],"tree_param":{"num_deleted":"0","num_feature":"30","num_nodes":"31","size_leaf_vector":"1"}},{"base_weights":[-1.4059833E-1,-5.7947645E-3,-3.6305684E-1,-5.8744818E-2,5.413111E-1,-6.986869E-1,-2.4584362E-1,-1.2787719E-1,2.4023816E-1,6.03138E-1,-8.1651616E-1,-4.4105372E-1,-9.016057E-1,-1.9093585E-1,-7.013969E-1,-1.5574484E-2,6.617907E-2,-2.9480843E-2,3.0967778E-2,1.3690844E-1,5.5215735E-2,2.8007258E-2,-9.39909E-2,-5.908472E-2,7.094364E-3,-7.38037E-3,-9.2928305E-2,-2.2493135E-2,4.5456905E-2,-8.6149566E-2,4.0561086E-3],"categories":[],"categories_nodes":[],"categories_segments":[],"categories_sizes":[],"default_left":[0,0,0,0,0,0,0,0,0,0,0,0,0,0,0,0,0,0,0,0,0,0,0,0,0,0,0,0,0,0,0],"id":6,"left_children":[1,3,5,7,9,11,13,15,17,19,21,23,25,27,29,-1,-1,-1,-1,-1,-1,-1,-1,-1,-1,-1,-1,-1,-1,-1,-1],"loss_changes":[1.4897266E2,8.967242E1,7.356949E1,5.8363613E1,2.3423302E1,2.4938446E1,3.4655E1,5.0559494E1,1.9795845E1,9.467987E0,1.9303589E0,1.6568508E1,6.1208496E0,2.736979E1,1.7761284E1,0E0,0E0,0E0,0E0,0E0,0E0,0E0,0E0,0E0,0E0,0E0,0E0,0E0,0E0,0E0,0E0],"parents":[2147483647,0,0,1,1,2,2,3,3,4,4,5,5,6,6,7,7,8,8,9,9,10,10,11,11,12,12,13,13,14,14],"right_children":[2,4,6,8,10,12,14,16,18,20,22,24,26,28,30,-1,-1,-1,-1,-1,-1,-1,-1,-1,-1,-1,-1,-1,-1,-1,-1],"split_conditions":[8.4967095E-1,5E0,9.082441E-1,7.9E1,5.8365758E-3,3.4E1,1.1E1,8.5235214E-1,2E0,3E0,3E0,4E0,5.8365758E-3,4.9E1,1.7E1,-1.5574484E-2,6.617907E-2,-2.9480843E-2,3.0967778E-2,1.3690844E-1,5.5215735E-2,2.8007258E-2,-9.39909E-2,-5.908472E-2,7.094364E-3,-7.38037E-3,-9.2928305E-2,-2.2493135E-2,4.5456905E-2,-8.6149566E-2,4.0561086E-3],"split_indices":[22,5,25,7,27,11,12,25,1,9,9,17,27,11,12,0,0,0,0,0,0,0,0,0,0,0,0,0,0,0,0],"split_type":[0,0,0,0,0,0,0,0,0,0,0,0,0,0,0,0,0,0,0,0,0,0,0,0,0,0,0,0,0,0,0],"sum_hessian":[4.9667793E3,3.0933333E3,1.8734463E3,2.8211855E3,2.721476E2,4.836357E2,1.3898105E3,2.2918293E3,5.293562E2,2.60827E2,1.1320619E1,2.1448773E2,2.6914798E2,1.2415819E3,1.4822858E2,2.2144822E3,7.734705E1,6.043632E1,4.689199E2,1.4663535E1,2.4616347E2,1.0165752E0,1.0304044E1,1.658202E2,4.8667515E1,8.826362E0,2.6032162E2,1.1800844E3,6.1497566E1,1.2178817E2,2.6440413E1],"tree_param":{"num_deleted":"0","num_feature":"30","num_nodes":"31","size_leaf_vector":"1"}},{"base_weights":[-1.2686236E-1,1.1164398E-1,-2.6776057E-1,3.8128152E-2,5.2936363E-1,-1.2753963E-1,-5.5497897E-1,-7.55494E-2,2.807137E-1,3.8373774E-1,7.357121E-1,-8.312402E-2,-4.717371E-1,-4.6132192E-1,-9.277064E-1,-1.8134207E-3,-5.649243E-2,-3.9404392E-2,3.549081E-2,7.985803E-2,2.3350438E-2,1.4572854E-2,8.862262E-2,-1.413468E-2,4.5125447E-2,-5.5299845E-2,2.2142695E-3,-3.7105557E-2,-8.5663736E-2,-9.944635E-2,-2.7942477E-2],"categories":[],"categories_nodes":[],"categories_segments":[],"categories_sizes":[],"default_left":[0,0,0,0,0,0,0,0,0,0,0,0,0,0,0,0,0,0,0,0,0,0,0,0,0,0,0,0,0,0,0],"id":7,"left_children":[1,3,5,7,9,11,13,15,17,19,21,23,25,27,29,-1,-1,-1,-1,-1,-1,-1,-1,-1,-1,-1,-1,-1,-1,-1,-1],"loss_changes":[1.6415884E2,5.5700626E1,1.23593414E2,4.259965E1,7.8752136E0,3.152341E1,3.4724884E1,2.9552048E1,2.4814995E1,9.862583E0,9.747898E0,5.699495E1,9.473728E0,2.8470535E1,8.430878E0,0E0,0E0,0E0,0E0,0E0,0E0,0E0,0E0,0E0,0E0,0E0,0E0,0E0,0E0,0E0,0E0],"parents":[2147483647,0,0,1,1,2,2,3,3,4,4,5,5,6,6,7,7,8,8,9,9,10,10,11,11,12,12,13,13,14,14],"right_children":[2,4,6,8,10,12,14,16,18,20,22,24,26,28,30,-1,-1,-1,-1,-1,-1,-1,-1,-1,-1,-1,-1,-1,-1,-1,-1],"split_conditions":[9.59596E-2,1E0,2E0,7.9E1,7.936397E-1,1E0,9.9993014E-1,8.914322E-1,2E0,7E0,6E0,6.666667E-1,6.7676765E-1,9.2E1,1.0001198E0,-1.8134207E-3,-5.649243E-2,-3.9404392E-2,3.549081E-2,7.985803E-2,2.3350438E-2,1.4572854E-2,8.862262E-2,-1.413468E-2,4.5125447E-2,-5.5299845E-2,2.2142695E-3,-3.7105557E-2,-8.5663736E-2,-9.944635E-2,-2.7942477E-2],"split_indices":[29,24,12,7,22,26,28,22,1,16,16,26,29,10,28,0,0,0,0,0,0,0,0,0,0,0,0,0,0,0,0],"split_type":[0,0,0,0,0,0,0,0,0,0,0,0,0,0,0,0,0,0,0,0,0,0,0,0,0,0,0,0,0,0,0],"sum_hessian":[4.8830464E3,1.813478E3,3.0695686E3,1.54301E3,2.7046802E2,2.0635708E3,1.00599786E3,1.0511304E3,4.918796E2,1.6024106E2,1.1022695E2,1.8288193E3,2.3475134E2,8.0576666E2,2.0023119E2,9.4168555E2,1.09444824E2,4.8300636E1,4.4357898E2,4.145497E1,1.1878609E2,2.2804876E1,8.742208E1,1.649802E3,1.7901735E2,2.0148068E2,3.327066E1,6.575584E2,1.4820828E2,1.8105318E2,1.917801E1],"tree_param":{"num_deleted":"0","num_feature":"30","num_nodes":"31","size_leaf_vector":"1"}},{"base_weights":[-1.1127618E-1,-1.6023146E-2,-3.4444958E-1,-6.141966E-2,4.412516E-1,-1.02409944E-1,-5.3466845E-1,-1.3408792E-1,1.6706446E-1,-3.100436E-1,4.8242858E-1,-1.7934687E-1,4.4913962E-1,-4.309492E-1,-9.0847635E-1,-4.2131107E-4,-3.317525E-2,2.6819212E-2,-2.8851703E-2,-6.1482538E-2,1.119376E-1,2.631689E-2,6.251316E-2,-2.04852E-2,1.1767665E-1,-4.691194E-2,6.400021E-2,-9.358401E-3,-5.2769702E-2,-9.38478E-2,3.1177202E-2],"categories":[],"categories_nodes":[],"categories_segments":[],"categories_sizes":[],"default_left":[0,0,0,0,0,0,0,0,0,0,0,0,0,0,0,0,0,0,0,0,0,0,0,0,0,0,0,0,0,0,0],"id":8,"left_children":[1,3,5,7,9,11,13,15,17,19,21,23,25,27,29,-1,-1,-1,-1,-1,-1,-1,-1,-1,-1,-1,-1,-1,-1,-1,-1],"loss_changes":[1.0789691E2,7.1649025E1,6.481453E1,5.214927E1,9.792744E0,2.64435E1,3.0187195E1,6.1161137E1,3.5000305E1,8.009689E0,9.094147E0,1.9123388E1,1.3679296E1,2.016404E1,6.53096E0,0E0,0E0,0E0,0E0,0E0,0E0,0E0,0E0,0E0,0E0,0E0,0E0,0E0,0E0,0E0,0E0],"parents":[2147483647,0,0,1,1,2,2,3,3,4,4,5,5,6,6,7,7,8,8,9,9,10,10,11,11,12,12,13,13,14,14],"right_children":[2,4,6,8,10,12,14,16,18,20,22,24,26,28,30,-1,-1,-1,-1,-1,-1,-1,-1,-1,-1,-1,-1,-1,-1,-1,-1],"split_conditions":[3E0,5E0,9.981036E-1,7.7E1,1E0,1.8E1,3E0,1.6E1,8.6E1,5E0,7.517466E-1,6E0,1E0,5.575221E-1,9.906847E-1,-4.2131107E-4,-3.317525E-2,2.6819212E-2,-2.8851703E-2,-6.1482538E-2,1.119376E-1,2.631689E-2,6.251316E-2,-2.04852E-2,1.1767665E-1,-4.691194E-2,6.400021E-2,-9.358401E-3,-5.2769702E-2,-9.38478E-2,3.1177202E-2],"split_indices":[12,5,28,7,7,12,3,9,7,17,25,5,13,25,25,0,0,0,0,0,0,0,0,0,0,0,0,0,0,0,0],"split_type":[0,0,0,0,0,0,0,0,0,0,0,0,0,0,0,0,0,0,0,0,0,0,0,0,0,0,0,0,0,0,0],"sum_hessian":[4.857177E3,3.4492158E3,1.407961E3,3.138503E3,3.1071304E2,6.2026166E2,7.876994E2,2.3814937E3,7.5700934E2,1.5805422E1,2.9490762E2,5.449238E2,7.533786E1,6.1829584E2,1.6940361E2,1.437808E3,9.436855E2,6.198332E2,1.3717612E2,1.3497379E1,2.3080428E0,1.1738798E2,1.7751965E2,5.3569763E2,9.226199E0,1.2713583E1,6.2624275E1,1.3823381E2,4.80062E2,1.655639E2,3.839714E0],"tree_param":{"num_deleted":"0","num_feature":"30","num_nodes":"31","size_leaf_vector":"1"}},{"base_weights":[-1.04957044E-1,1.0385094E-1,-2.3319706E-1,2.722717E-1,-3.3748224E-2,-6.289345E-2,-3.9056882E-1,-2.5171852E-1,3.1129768E-1,6.090461E-3,-5.5078804E-1,2.7367212E-2,-4.0747574E-1,6.778742E-1,-4.3846714E-1,1.1765416E-3,-5.9507053E-2,4.6807912E-5,3.8359877E-2,2.8112507E-3,-1.0394734E-1,-6.4778134E-2,1.1467203E-2,-3.2008298E-2,1.2736917E-2,-4.8778724E-2,2.3388717E-2,1.653096E-1,4.925288E-2,-3.761995E-2,-8.532304E-2],"categories":[],"categories_nodes":[],"categories_segments":[],"categories_sizes":[],"default_left":[0,0,0,0,0,0,0,0,0,0,0,0,0,0,0,0,0,0,0,0,0,0,0,0,0,0,0,0,0,0,0],"id":9,"left_children":[1,3,5,7,9,11,13,15,17,19,21,23,25,27,29,-1,-1,-1,-1,-1,-1,-1,-1,-1,-1,-1,-1,-1,-1,-1,-1],"loss_changes":[1.287921E2,4.242662E1,7.982782E1,1.6910294E1,2.077119E1,4.4553516E1,7.953548E1,5.218616E0,1.7225647E1,2.16063E1,4.7305317E0,3.9504833E1,1.5429253E1,1.1264822E1,3.7966614E1,0E0,0E0,0E0,0E0,0E0,0E0,0E0,0E0,0E0,0E0,0E0,0E0,0E0,0E0,0E0,0E0],"parents":[2147483647,0,0,1,1,2,2,3,3,4,4,5,5,6,6,7,7,8,8,9,9,10,10,11,11,12,12,13,13,14,14],"right_children":[2,4,6,8,10,12,14,16,18,20,22,24,26,28,30,-1,-1,-1,-1,-1,-1,-1,-1,-1,-1,-1,-1,-1,-1,-1,-1],"split_conditions":[9.59596E-2,4E0,3.6E1,3E0,8.914322E-1,1.7E1,3E0,9.988522E-1,9.3E1,9.4E1,9.6511155E-1,7E0,2.3E1,5.2E1,9.999501E-1,1.1765416E-3,-5.9507053E-2,4.6807912E-5,3.8359877E-2,2.8112507E-3,-1.0394734E-1,-6.4778134E-2,1.1467203E-2,-3.2008298E-2,1.2736917E-2,-4.8778724E-2,2.3388717E-2,1.653096E-1,4.925288E-2,-3.761995E-2,-8.532304E-2],"split_indices":[29,6,7,0,22,16,0,28,10,10,22,7,7,7,28,0,0,0,0,0,0,0,0,0,0,0,0,0,0,0,0],"split_type":[0,0,0,0,0,0,0,0,0,0,0,0,0,0,0,0,0,0,0,0,0,0,0,0,0,0,0,0,0,0,0],"sum_hessian":[4.8078022E3,1.8293448E3,2.9784575E3,8.221087E2,1.0072361E3,1.4311279E3,1.5473295E3,5.6607437E1,7.655013E2,9.360967E2,7.113942E1,1.1347971E3,2.9633078E2,6.582617E1,1.4815033E3,3.2575302E1,2.4032135E1,1.4464868E2,6.208526E2,9.1774005E2,1.835666E1,6.2112812E1,9.026608E0,2.531262E2,8.8167096E2,2.635664E2,3.2764355E1,9.247916E0,5.657826E1,1.2897783E3,1.9172504E2],"tree_param":{"num_deleted":"0","num_feature":"30","num_nodes":"31","size_leaf_vector":"1"}},{"base_weights":[-1.01778276E-1,8.783971E-2,-2.2118323E-1,-2.2416273E-2,2.2872758E-1,1.1523197E-3,-3.1984115E-1,-4.5481077E-3,-1.0144025E0,3.3058676E-1,-2.8702617E-1,2.5213854E-2,-8.744739E-1,1.7106856E-1,-3.5915175E-1,3.4608846E-3,-4.3251615E-2,-4.424725E-2,-1.110232E-1,-6.405303E-3,3.774061E-2,-5.3592123E-2,1.2877437E-2,-4.689737E-3,2.6372883E-2,-1.0495613E-1,-1.0398884E-2,-3.3031043E-3,4.475841E-2,-3.0873407E-2,-8.403837E-2],"categories":[],"categories_nodes":[],"categories_segments":[],"categories_sizes":[],"default_left":[0,0,0,0,0,0,0,0,0,0,0,0,0,0,0,0,0,0,0,0,0,0,0,0,0,0,0,0,0,0,0],"id":10,"left_children":[1,3,5,7,9,11,13,15,17,19,21,23,25,27,29,-1,-1,-1,-1,-1,-1,-1,-1,-1,-1,-1,-1,-1,-1,-1,-1],"loss_changes":[1.08009415E2,2.8644117E1,6.420311E1,1.83439E1,4.2620636E1,1.8996592E1,3.9184937E1,1.7072304E1,5.123806E-1,1.2522736E1,1.3940797E1,1.5104689E1,3.1438637E0,8.535854E0,4.5290054E1,0E0,0E0,0E0,0E0,0E0,0E0,0E0,0E0,0E0,0E0,0E0,0E0,0E0,0E0,0E0,0E0],"parents":[2147483647,0,0,1,1,2,2,3,3,4,4,5,5,6,6,7,7,8,8,9,9,10,10,11,11,12,12,13,13,14,14],"right_children":[2,4,6,8,10,12,14,16,18,20,22,24,26,28,30,-1,-1,-1,-1,-1,-1,-1,-1,-1,-1,-1,-1,-1,-1,-1,-1],"split_conditions":[9.59596E-2,6.6604567E-1,3E0,9.4E1,8.914322E-1,2E0,3E0,7.730794E-1,-3.458559E-1,1E0,2E0,6.5E1,9.89899E-1,4.4E1,9.999501E-1,3.4608846E-3,-4.3251615E-2,-4.424725E-2,-1.110232E-1,-6.405303E-3,3.774061E-2,-5.3592123E-2,1.2877437E-2,-4.689737E-3,2.6372883E-2,-1.0495613E-1,-1.0398884E-2,-3.3031043E-3,4.475841E-2,-3.0873407E-2,-8.403837E-2],"split_indices":[29,25,9,10,22,1,0,22,22,13,1,15,29,7,28,0,0,0,0,0,0,0,0,0,0,0,0,0,0,0,0],"split_type":[0,0,0,0,0,0,0,0,0,0,0,0,0,0,0,0,0,0,0,0,0,0,0,0,0,0,0,0,0,0,0],"sum_hessian":[4.768597E3,1.8426648E3,2.9259326E3,1.0341786E3,8.084862E2,8.995944E2,2.0263381E3,1.0168668E3,1.7311743E1,6.7544727E2,1.3303894E2,8.764806E2,2.3113806E1,1.4998454E2,1.8763536E3,9.324696E2,8.43972E1,3.2905238E0,1.402122E1,7.159613E1,6.0385114E2,8.304183E1,4.9997112E1,6.736243E2,2.0285628E2,1.8538788E1,4.575018E0,8.6798225E1,6.3186325E1,1.6999E3,1.7645358E2],"tree_param":{"num_deleted":"0","num_feature":"30","num_nodes":"31","size_leaf_vector":"1"}},{"base_weights":[-8.622627E-2,-6.0569298E-2,-7.4626935E-1,-4.092311E-2,-7.1439767E-1,-3.8513038E-1,-9.3719786E-1,7.725702E-2,-1.2302969E-1,-1.764752E-1,-7.95454E-1,-5.5550545E-1,7.166859E-2,-9.5175564E-1,-6.354946E-3,1.0077205E-2,-5.591556E-2,4.8216223E-3,-2.120749E-2,-8.412963E-2,-1.5622496E-3,-8.278594E-2,-4.3491527E-2,-6.344118E-2,-6.1832163E-3,-1.3383105E-2,1.665232E-1,-9.583876E-2,-1.8601684E-2],"categories":[],"categories_nodes":[],"categories_segments":[],"categories_sizes":[],"default_left":[0,0,0,0,0,0,0,0,0,0,0,0,0,0,0,0,0,0,0,0,0,0,0,0,0,0,0,0,0],"id":11,"left_children":[1,3,5,7,9,11,13,15,17,19,21,23,25,27,-1,-1,-1,-1,-1,-1,-1,-1,-1,-1,-1,-1,-1,-1,-1],"loss_changes":[7.9952896E1,5.8394073E1,1.1820572E1,4.2865677E1,5.642029E0,4.927102E0,1.4004822E0,2.7161285E1,3.975485E1,1.9814324E0,9.8314667E-1,1.7468872E0,6.0993567E0,3.9515686E-1,0E0,0E0,0E0,0E0,0E0,0E0,0E0,0E0,0E0,0E0,0E0,0E0,0E0,0E0,0E0],"parents":[2147483647,0,0,1,1,2,2,3,3,4,4,5,5,6,6,7,7,8,8,9,9,10,10,11,11,12,12,13,13],"right_children":[2,4,6,8,10,12,14,16,18,20,22,24,26,28,-1,-1,-1,-1,-1,-1,-1,-1,-1,-1,-1,-1,-1,-1,-1],"split_conditions":[3E0,9.4E1,3.1E1,9.59596E-2,1E0,9.096414E-1,1E1,8.6E1,3E0,7.8388447E-1,6E0,3.939394E-1,1.3618676E-1,5.4E1,-6.354946E-3,1.0077205E-2,-5.591556E-2,4.8216223E-3,-2.120749E-2,-8.412963E-2,-1.5622496E-3,-8.278594E-2,-4.3491527E-2,-6.344118E-2,-6.1832163E-3,-1.3383105E-2,1.665232E-1,-9.583876E-2,-1.8601684E-2],"split_indices":[3,10,11,29,13,25,14,8,9,25,17,29,27,11,0,0,0,0,0,0,0,0,0,0,0,0,0,0,0],"split_type":[0,0,0,0,0,0,0,0,0,0,0,0,0,0,0,0,0,0,0,0,0,0,0,0,0,0,0,0,0],"sum_hessian":[4.722915E3,4.5472476E3,1.7566728E2,4.4156294E3,1.3161792E2,6.179671E1,1.13870575E2,1.8101904E3,2.6054392E3,1.7651653E1,1.1396627E2,4.4851933E1,1.6944777E1,1.1191629E2,1.9542892E0,1.7465001E3,6.369038E1,8.9147375E2,1.7139655E3,2.6146798E0,1.5036974E1,1.0337841E2,1.0587862E1,3.8425156E1,6.426778E0,1.5820629E1,1.1241482E0,1.1070589E2,1.2103986E0],"tree_param":{"num_deleted":"0","num_feature":"30","num_nodes":"29","size_leaf_vector":"1"}},{"base_weights":[-8.515783E-2,-4.5869306E-2,-4.373855E-1,-2.903844E-2,-6.990515E-1,5.3947914E-1,-4.9511185E-1,-5.7945672E-2,3.114354E-1,-7.511861E-1,5.645314E-1,7.561207E-1,-3.4862593E-1,-3.753419E-1,-8.4524316E-1,-8.476505E-3,2.4477044E-2,9.437623E-2,2.703214E-2,-8.060395E-2,-4.3893814E-2,1.0396176E-1,-8.107852E-3,9.910469E-2,-3.2663446E-2,-5.3671878E-2,1.9302715E-2,-3.2568548E-2,-1.07722595E-1,-8.752728E-2,4.546443E-2],"categories":[],"categories_nodes":[],"categories_segments":[],"categories_sizes":[],"default_left":[0,0,0,0,0,0,0,0,0,0,0,0,0,0,0,0,0,0,0,0,0,0,0,0,0,0,0,0,0,0,0],"id":12,"left_children":[1,3,5,7,9,11,13,15,17,19,21,23,25,27,29,-1,-1,-1,-1,-1,-1,-1,-1,-1,-1,-1,-1,-1,-1,-1,-1],"loss_changes":[6.456789E1,4.6153152E1,2.6671608E1,4.032719E1,7.371521E0,5.382354E0,1.8244804E1,3.0675909E1,8.081488E0,1.3883171E0,1.5411528E0,5.844262E0,7.0486516E-1,1.1206947E1,4.7707367E0,0E0,0E0,0E0,0E0,0E0,0E0,0E0,0E0,0E0,0E0,0E0,0E0,0E0,0E0,0E0,0E0],"parents":[2147483647,0,0,1,1,2,2,3,3,4,4,5,5,6,6,7,7,8,8,9,9,10,10,11,11,12,12,13,13,14,14],"right_children":[2,4,6,8,10,12,14,16,18,20,22,24,26,28,30,-1,-1,-1,-1,-1,-1,-1,-1,-1,-1,-1,-1,-1,-1,-1,-1],"split_conditions":[9.996607E-1,9.4E1,3E0,5E0,4E0,9.4177926E-1,3E0,1E0,3E0,6.8E1,6.6E1,7E0,5E0,8.4E1,1.0000998E0,-8.476505E-3,2.4477044E-2,9.437623E-2,2.703214E-2,-8.060395E-2,-4.3893814E-2,1.0396176E-1,-8.107852E-3,9.910469E-2,-3.2663446E-2,-5.3671878E-2,1.9302715E-2,-3.2568548E-2,-1.07722595E-1,-8.752728E-2,4.546443E-2],"split_indices":[28,10,0,24,0,25,3,27,9,15,15,15,17,8,28,0,0,0,0,0,0,0,0,0,0,0,0,0,0,0,0],"split_type":[0,0,0,0,0,0,0,0,0,0,0,0,0,0,0,0,0,0,0,0,0,0,0,0,0,0,0,0,0,0,0],"sum_hessian":[4.6662637E3,4.1990225E3,4.672412E2,4.0945603E3,1.0446207E2,2.5604675E1,4.4163654E2,3.7748909E3,3.1966953E2,1.00712265E2,3.7498066E0,2.0703053E1,4.9016237E0,3.3061465E2,1.11021866E2,3.468331E3,3.065596E2,1.8175684E1,3.0149384E2,8.431842E1,1.639384E1,1.8086123E0,1.9411943E0,1.7081554E1,3.6214974E0,3.644986E0,1.2566376E0,3.101373E2,2.0477364E1,1.0883426E2,2.1876054E0],"tree_param":{"num_deleted":"0","num_feature":"30","num_nodes":"31","size_leaf_vector":"1"}},{"base_weights":[-7.3645614E-2,-4.7479745E-2,-5.592763E-1,-3.216113E-2,-6.415322E-1,4.480893E-1,-6.404087E-1,-2.919437E-1,-1.6080716E-3,-6.7749506E-1,2.3241003E-1,1.7029771E-1,1.2329133E0,-4.3913206E-1,-7.977399E-1,-3.137347E-2,1.391016E-1,-1.3974787E-3,7.2375976E-2,-3.945216E-2,-7.267274E-2,6.952215E-2,-3.9189782E-2,-5.4372765E-2,3.3427745E-2,1.776438E-1,4.885743E-2,-3.0942235E-2,-9.8787785E-2,-8.108095E-2,2.058647E-2],"categories":[],"categories_nodes":[],"categories_segments":[],"categories_sizes":[],"default_left":[0,0,0,0,0,0,0,0,0,0,0,0,0,0,0,0,0,0,0,0,0,0,0,0,0,0,0,0,0,0,0],"id":13,"left_children":[1,3,5,7,9,11,13,15,17,19,21,23,25,27,29,-1,-1,-1,-1,-1,-1,-1,-1,-1,-1,-1,-1,-1,-1,-1,-1],"loss_changes":[5.9242474E1,4.0264687E1,1.9769096E1,3.42618E1,3.65345E0,3.7918925E0,6.648636E0,1.7095516E1,3.4666782E1,1.2052422E0,1.757858E0,1.9049459E0,1.0085888E0,6.7544804E0,1.7779846E0,0E0,0E0,0E0,0E0,0E0,0E0,0E0,0E0,0E0,0E0,0E0,0E0,0E0,0E0,0E0,0E0],"parents":[2147483647,0,0,1,1,2,2,3,3,4,4,5,5,6,6,7,7,8,8,9,9,10,10,11,11,12,12,13,13,14,14],"right_children":[2,4,6,8,10,12,14,16,18,20,22,24,26,28,30,-1,-1,-1,-1,-1,-1,-1,-1,-1,-1,-1,-1,-1,-1,-1,-1],"split_conditions":[9.9993014E-1,9.4E1,3E0,4E1,4E0,6.3E1,3.6E1,3E0,1.7E1,4E0,6.6E1,8E0,7E0,8.2E1,1E0,-3.137347E-2,1.391016E-1,-1.3974787E-3,7.2375976E-2,-3.945216E-2,-7.267274E-2,6.952215E-2,-3.9189782E-2,-5.4372765E-2,3.3427745E-2,1.776438E-1,4.885743E-2,-3.0942235E-2,-9.8787785E-2,-8.108095E-2,2.058647E-2],"split_indices":[28,10,0,10,0,13,11,1,12,16,15,16,16,8,14,0,0,0,0,0,0,0,0,0,0,0,0,0,0,0,0],"split_type":[0,0,0,0,0,0,0,0,0,0,0,0,0,0,0,0,0,0,0,0,0,0,0,0,0,0,0,0,0,0,0],"sum_hessian":[4.6633003E3,4.4259287E3,2.3737204E2,4.3156953E3,1.1023312E2,1.735566E1,2.2001637E2,4.5325583E2,3.8624395E3,1.060922E2,4.1409235E0,1.371734E1,3.6383193E0,9.819057E1,1.21825806E2,4.4826526E2,4.990572E0,3.7986575E3,6.3782154E1,1.7058472E1,8.903373E1,2.312807E0,1.8281162E0,2.129393E0,1.1587947E1,1.3014138E0,2.3369055E0,8.068301E1,1.7507563E1,1.2044934E2,1.3764663E0],"tree_param":{"num_deleted":"0","num_feature":"30","num_nodes":"31","size_leaf_vector":"1"}},{"base_weights":[-7.0340335E-2,7.96207E-2,-1.6850035E-1,1.0020753E-1,-5.2216285E-1,-2.639971E-1,4.841936E-2,-4.173716E-2,1.9225861E-1,5.569391E-1,-6.422989E-1,2.5557572E-1,-3.0659413E-1,2.0467748E-1,-3.2514635E-1,1.0189712E-2,-3.1158378E-2,2.3160841E-2,-1.4028105E-2,-2.437346E-2,1.0432737E-1,-8.5065894E-2,6.362977E-3,3.636538E-2,-3.7306756E-2,-1.9180758E-2,-4.6308123E-2,1.2084576E-2,4.4352826E-2,7.9379685E-2,-3.3971768E-2],"categories":[],"categories_nodes":[],"categories_segments":[],"categories_sizes":[],"default_left":[0,0,0,0,0,0,0,0,0,0,0,0,0,0,0,0,0,0,0,0,0,0,0,0,0,0,0,0,0,0,0],"id":14,"left_children":[1,3,5,7,9,11,13,15,17,19,21,23,25,27,29,-1,-1,-1,-1,-1,-1,-1,-1,-1,-1,-1,-1,-1,-1,-1,-1],"loss_changes":[6.81128E1,2.2734894E1,5.7939964E1,2.315038E1,8.229841E0,4.3053802E1,5.0011112E1,2.7069294E1,1.40938835E1,2.831562E0,8.159332E0,1.0169229E1,3.2155487E1,1.2038193E1,4.390278E0,0E0,0E0,0E0,0E0,0E0,0E0,0E0,0E0,0E0,0E0,0E0,0E0,0E0,0E0,0E0,0E0],"parents":[2147483647,0,0,1,1,2,2,3,3,4,4,5,5,6,6,7,7,8,8,9,9,10,10,11,11,12,12,13,13,14,14],"right_children":[2,4,6,8,10,12,14,16,18,20,22,24,26,28,30,-1,-1,-1,-1,-1,-1,-1,-1,-1,-1,-1,-1,-1,-1,-1,-1],"split_conditions":[9.59596E-2,8.6E1,9.3E1,6.185375E-1,4E0,3E0,1.6E1,4.5738238E-1,8.914322E-1,1.5E1,1E0,3.7159532E-1,2E0,5.8E1,9.4E1,1.0189712E-2,-3.1158378E-2,2.3160841E-2,-1.4028105E-2,-2.437346E-2,1.0432737E-1,-8.5065894E-2,6.362977E-3,3.636538E-2,-3.7306756E-2,-1.9180758E-2,-4.6308123E-2,1.2084576E-2,4.4352826E-2,7.9379685E-2,-3.3971768E-2],"split_indices":[29,8,8,25,4,0,16,25,22,16,19,27,6,15,8,0,0,0,0,0,0,0,0,0,0,0,0,0,0,0,0],"split_type":[0,0,0,0,0,0,0,0,0,0,0,0,0,0,0,0,0,0,0,0,0,0,0,0,0,0,0,0,0,0,0],"sum_hessian":[4.625261E3,1.8298901E3,2.795371E3,1.7701667E3,5.9723396E1,1.9407556E3,8.546155E2,6.96577E2,1.0735897E3,5.6186733E0,5.410472E1,1.4667711E2,1.7940785E3,6.02887E2,2.5172841E2,4.550075E2,2.4156955E2,9.602641E2,1.1332559E2,2.3116827E0,3.3069906E0,4.1616333E1,1.2488387E1,1.2551905E2,2.1158054E1,1.036217E3,7.578614E2,4.4737393E2,1.5551312E2,2.5485291E0,2.4917989E2],"tree_param":{"num_deleted":"0","num_feature":"30","num_nodes":"31","size_leaf_vector":"1"}},{"base_weights":[-6.9576256E-2,5.1705886E-2,-1.4951171E-1,8.603034E-2,-3.613412E-1,-3.9356068E-1,-9.4024666E-2,-4.1146223E-2,2.7560893E-1,-9.817984E-2,-6.5139526E-1,-2.2545426E-1,-6.991365E-1,7.3243165E-1,-1.3073555E-1,-7.7120587E-3,4.6280384E-2,-1.7074874E-2,3.172472E-2,-4.2606868E-2,2.418588E-2,-7.1955614E-2,-2.2044502E-2,-6.105649E-3,-5.4478586E-2,-4.4220444E-2,-7.827089E-2,9.261551E-3,1.244753E-1,-1.0159518E-2,-6.785163E-2],"categories":[],"categories_nodes":[],"categories_segments":[],"categories_sizes":[],"default_left":[0,0,0,0,0,0,0,0,0,0,0,0,0,0,0,0,0,0,0,0,0,0,0,0,0,0,0,0,0,0,0],"id":15,"left_children":[1,3,5,7,9,11,13,15,17,19,21,23,25,27,29,-1,-1,-1,-1,-1,-1,-1,-1,-1,-1,-1,-1,-1,-1,-1,-1],"loss_changes":[4.4704033E1,2.6008045E1,3.759654E1,4.081695E1,1.0681261E1,2.6271774E1,6.88344E1,1.8415573E1,1.2685989E1,8.463453E0,1.8031616E0,1.7468462E1,3.5643616E0,3.1519577E1,3.457148E1,0E0,0E0,0E0,0E0,0E0,0E0,0E0,0E0,0E0,0E0,0E0,0E0,0E0,0E0,0E0,0E0],"parents":[2147483647,0,0,1,1,2,2,3,3,4,4,5,5,6,6,7,7,8,8,9,9,10,10,11,11,12,12,13,13,14,14],"right_children":[2,4,6,8,10,12,14,16,18,20,22,24,26,28,30,-1,-1,-1,-1,-1,-1,-1,-1,-1,-1,-1,-1,-1,-1,-1,-1],"split_conditions":[9.59596E-2,8.914322E-1,5.6E1,6.6604567E-1,1E0,3.8E1,6.9E1,3.1E1,4E0,9.41639E-1,9.6511155E-1,1E1,8.61844E-1,6.2E1,3.1E1,-7.7120587E-3,4.6280384E-2,-1.7074874E-2,3.172472E-2,-4.2606868E-2,2.418588E-2,-7.1955614E-2,-2.2044502E-2,-6.105649E-3,-5.4478586E-2,-4.4220444E-2,-7.827089E-2,9.261551E-3,1.244753E-1,-1.0159518E-2,-6.785163E-2],"split_indices":[29,22,10,25,26,11,10,11,7,22,22,12,22,10,11,0,0,0,0,0,0,0,0,0,0,0,0,0,0,0,0],"split_type":[0,0,0,0,0,0,0,0,0,0,0,0,0,0,0,0,0,0,0,0,0,0,0,0,0,0,0,0,0,0,0],"sum_hessian":[4.6093657E3,1.8312512E3,2.7781145E3,1.69148E3,1.3977126E2,5.134985E2,2.264616E3,1.01282275E3,6.786572E2,7.398466E1,6.57866E1,3.3238263E2,1.8111586E2,9.55091E1,2.169107E3,9.461304E2,6.6692345E1,5.764189E1,6.210153E2,3.753643E1,3.6448227E1,5.6224255E1,9.562347E0,2.2020714E2,1.12175476E2,4.5996647E1,1.351192E2,4.2995117E1,5.251398E1,2.0606707E3,1.08436325E2],"tree_param":{"num_deleted":"0","num_feature":"30","num_nodes":"31","size_leaf_vector":"1"}},{"base_weights":[-5.5911828E-2,-3.7333094E-2,-6.290763E-1,-2.3459231E-2,-6.0264957E-1,-7.077242E-1,1.5987933E-2,7.443352E-2,-9.373444E-2,-4.949569E-2,-6.919702E-1,-3.7753922E-1,-7.933982E-1,5.7000417E-1,-3.1086335E-1,9.427674E-3,-4.6122327E-2,-4.0002433E-3,-3.639336E-2,-6.983181E-2,2.2475656E-2,-3.3373624E-2,-7.494916E-2,-5.0095882E-2,7.2491966E-2,-8.3387814E-2,-7.1671233E-3,1.1315582E-1,-2.3790104E-2,-5.859368E-2,7.5185664E-2],"categories":[],"categories_nodes":[],"categories_segments":[],"categories_sizes":[],"default_left":[0,0,0,0,0,0,0,0,0,0,0,0,0,0,0,0,0,0,0,0,0,0,0,0,0,0,0,0,0,0,0],"id":16,"left_children":[1,3,5,7,9,11,13,15,17,19,21,23,25,27,29,-1,-1,-1,-1,-1,-1,-1,-1,-1,-1,-1,-1,-1,-1,-1,-1],"loss_changes":[4.8728207E1,3.477417E1,7.300461E0,2.9797068E1,5.213253E0,3.3237686E0,3.1816301E0,1.9283726E1,3.658869E1,2.9760067E0,1.6325417E0,4.2131877E0,2.8848534E0,3.2223766E0,3.6801941E0,0E0,0E0,0E0,0E0,0E0,0E0,0E0,0E0,0E0,0E0,0E0,0E0,0E0,0E0,0E0,0E0],"parents":[2147483647,0,0,1,1,2,2,3,3,4,4,5,5,6,6,7,7,8,8,9,9,10,10,11,11,12,12,13,13,14,14],"right_children":[2,4,6,8,10,12,14,16,18,20,22,24,26,28,30,-1,-1,-1,-1,-1,-1,-1,-1,-1,-1,-1,-1,-1,-1,-1,-1],"split_conditions":[3E0,9.4E1,4.4444445E-1,9.59596E-2,1E0,6.143456E-1,6.8686867E-1,8.1E1,4E0,8.155979E-1,4E0,5.3E1,3E0,1E0,6.5E1,9.427674E-3,-4.6122327E-2,-4.0002433E-3,-3.639336E-2,-6.983181E-2,2.2475656E-2,-3.3373624E-2,-7.494916E-2,-5.0095882E-2,7.2491966E-2,-8.3387814E-2,-7.1671233E-3,1.1315582E-1,-2.3790104E-2,-5.859368E-2,7.5185664E-2],"split_indices":[3,10,29,29,13,25,29,8,6,22,16,13,2,10,15,0,0,0,0,0,0,0,0,0,0,0,0,0,0,0,0],"split_type":[0,0,0,0,0,0,0,0,0,0,0,0,0,0,0,0,0,0,0,0,0,0,0,0,0,0,0,0,0,0,0],"sum_hessian":[4.577195E3,4.434518E3,1.4267674E2,4.3293105E3,1.05207405E2,1.2708506E2,1.5591679E1,1.8091381E3,2.5201726E3,1.4842637E1,9.036477E1,2.7295538E1,9.978953E1,5.50935E0,1.008233E1,1.7453077E3,6.3830334E1,2.1030972E3,4.1707547E2,3.9504502E0,1.0892186E1,1.3443381E1,7.692139E1,2.5038132E1,2.2574046E0,9.4342674E1,5.4468484E0,3.0138755E0,2.4954743E0,8.365623E0,1.7167059E0],"tree_param":{"num_deleted":"0","num_feature":"30","num_nodes":"31","size_leaf_vector":"1"}},{"base_weights":[-5.334615E-2,-3.7229564E-2,-5.7680637E-1,3.0901367E-2,-1.22038335E-1,-6.1278844E-1,1.790476E-1,3.5869963E-3,4.4543278E-1,-4.7794323E-2,-3.6397815E-1,-3.1014007E-1,-8.202311E-1,4.85539E-3,-1.724159E-2,2.8527796E-2,1.0088187E-1,2.760324E-3,-1.8024301E-2,4.626633E-2,-4.191355E-2,-4.4820633E-2,1.2703416E-2,-8.289557E-2,-1.2140982E-2],"categories":[],"categories_nodes":[],"categories_segments":[],"categories_sizes":[],"default_left":[0,0,0,0,0,0,0,0,0,0,0,0,0,0,0,0,0,0,0,0,0,0,0,0,0],"id":17,"left_children":[1,3,5,7,9,11,-1,13,15,17,19,21,23,-1,-1,-1,-1,-1,-1,-1,-1,-1,-1,-1,-1],"loss_changes":[3.8399433E1,2.5538513E1,1.2678192E1,2.7754404E1,3.5348427E1,8.200436E0,0E0,1.8217875E1,1.3384819E1,1.5061314E1,2.1266376E1,3.459673E0,3.828125E-1,0E0,0E0,0E0,0E0,0E0,0E0,0E0,0E0,0E0,0E0,0E0,0E0],"parents":[2147483647,0,0,1,1,2,2,3,3,4,4,5,5,7,7,8,8,9,9,10,10,11,11,12,12],"right_children":[2,4,6,8,10,12,-1,14,16,18,20,22,24,-1,-1,-1,-1,-1,-1,-1,-1,-1,-1,-1,-1],"split_conditions":[1E0,1.919192E-1,3E0,1.4646465E-1,2E0,3.1E1,1.790476E-1,9.59596E-2,1.1E1,5.7E1,2E0,4.4444445E-1,1E1,4.85539E-3,-1.724159E-2,2.8527796E-2,1.0088187E-1,2.760324E-3,-1.8024301E-2,4.626633E-2,-4.191355E-2,-4.4820633E-2,1.2703416E-2,-8.289557E-2,-1.2140982E-2],"split_indices":[21,29,1,29,6,11,0,29,7,15,2,29,14,0,0,0,0,0,0,0,0,0,0,0,0],"split_type":[0,0,0,0,0,0,0,0,0,0,0,0,0,0,0,0,0,0,0,0,0,0,0,0,0],"sum_hessian":[4.553187E3,4.4182275E3,1.3495973E2,2.4503665E3,1.9678607E3,1.3366914E2,1.2905934E0,2.2998342E3,1.505324E2,1.5066982E3,4.6116254E2,5.537494E1,7.82942E1,1.8323994E3,4.6743478E2,1.1838516E2,3.2147224E1,9.606381E2,5.4606006E2,2.8384018E1,4.3277853E2,4.2064957E1,1.3309985E1,7.7144844E1,1.1493508E0],"tree_param":{"num_deleted":"0","num_feature":"30","num_nodes":"25","size_leaf_vector":"1"}},{"base_weights":[-4.933868E-2,-2.9278917E-2,-4.6694034E-1,-1.7214818E-2,-5.714314E-1,5.2011704E-1,-5.6403077E-1,-3.9542608E-2,2.4199733E-1,-9.5568293E-1,-4.676429E-1,-9.762972E-2,1.0475569E0,-6.4553267E-1,-9.497937E-2,-6.200998E-3,2.0189334E-2,4.430726E-4,3.797432E-2,-9.984503E-2,-3.360522E-2,-5.495879E-2,5.761442E-3,-4.604906E-2,9.478109E-2,1.285644E-1,-8.721628E-3,-3.0729705E-3,-6.97077E-2,-4.2177234E-2,3.0734727E-2],"categories":[],"categories_nodes":[],"categories_segments":[],"categories_sizes":[],"default_left":[0,0,0,0,0,0,0,0,0,0,0,0,0,0,0,0,0,0,0,0,0,0,0,0,0,0,0,0,0,0,0],"id":18,"left_children":[1,3,5,7,9,11,13,15,17,19,21,23,25,27,29,-1,-1,-1,-1,-1,-1,-1,-1,-1,-1,-1,-1,-1,-1,-1,-1],"loss_changes":[3.7865818E1,2.8217094E1,2.014893E1,2.4449303E1,3.298359E0,6.31732E0,7.168194E0,2.1106615E1,1.0961763E1,1.6832161E-1,3.2984886E0,4.1161747E0,2.9151316E0,5.07885E0,3.9645734E0,0E0,0E0,0E0,0E0,0E0,0E0,0E0,0E0,0E0,0E0,0E0,0E0,0E0,0E0,0E0,0E0],"parents":[2147483647,0,0,1,1,2,2,3,3,4,4,5,5,6,6,7,7,8,8,9,9,10,10,11,11,12,12,13,13,14,14],"right_children":[2,4,6,8,10,12,14,16,18,20,22,24,26,28,30,-1,-1,-1,-1,-1,-1,-1,-1,-1,-1,-1,-1,-1,-1,-1,-1],"split_conditions":[9.9993014E-1,9.4E1,3E0,5E0,6E0,4.4E1,1.0002196E0,1E0,6.688217E-1,9.7571206E-1,8.958588E-1,5E0,4E0,4E0,5.9E1,-6.200998E-3,2.0189334E-2,4.430726E-4,3.797432E-2,-9.984503E-2,-3.360522E-2,-5.495879E-2,5.761442E-3,-4.604906E-2,9.478109E-2,1.285644E-1,-8.721628E-3,-3.0729705E-3,-6.97077E-2,-4.2177234E-2,3.0734727E-2],"split_indices":[28,10,0,5,11,7,28,27,22,22,22,17,17,4,10,0,0,0,0,0,0,0,0,0,0,0,0,0,0,0,0],"split_type":[0,0,0,0,0,0,0,0,0,0,0,0,0,0,0,0,0,0,0,0,0,0,0,0,0,0,0,0,0,0,0],"sum_hessian":[4.520849E3,4.3146616E3,2.0618744E2,4.22175E3,9.2911575E1,1.8074844E1,1.881126E2,3.8877205E3,3.340296E2,1.801339E1,7.4898186E1,8.700069E0,9.374775E0,1.5994453E2,2.8168053E1,3.55742E3,3.3030063E2,1.2297319E2,2.1105641E2,1.6278475E1,1.7349162E0,6.475024E1,1.0147955E1,6.873781E0,1.8262885E0,7.6390676E0,1.7357069E0,1.2495745E1,1.4744879E2,1.55164E1,1.2651651E1],"tree_param":{"num_deleted":"0","num_feature":"30","num_nodes":"31","size_leaf_vector":"1"}},{"base_weights":[-3.8756844E-2,-2.4834864E-2,-5.2031904E-1,-1.3348173E-2,-5.5679375E-1,-1.68367E-1,-7.960352E-1,-2.9482877E-2,4.5143208E-1,-3.9956772E-1,-9.036397E-1,-2.4121141E-1,1.6115293E-1,-8.048192E-1,-1.9283643E-2,-6.8499143E-3,1.3960267E-2,2.3156432E-2,8.774605E-2,2.5991559E-2,-4.735249E-2,-9.326043E-2,-6.0648187E-3,-3.0464206E-2,6.646077E-2,-8.1440546E-2,-9.736738E-3],"categories":[],"categories_nodes":[],"categories_segments":[],"categories_sizes":[],"default_left":[0,0,0,0,0,0,0,0,0,0,0,0,0,0,0,0,0,0,0,0,0,0,0,0,0,0,0],"id":19,"left_children":[1,3,5,7,9,11,13,15,17,19,21,23,-1,25,-1,-1,-1,-1,-1,-1,-1,-1,-1,-1,-1,-1,-1],"loss_changes":[3.0320257E1,2.6868519E1,1.2197311E1,3.2307533E1,4.7073936E0,7.7906356E0,2.2092819E-1,2.7472418E1,1.3336016E1,3.3297129E0,6.319313E-1,3.4036286E0,0E0,3.9307404E-1,0E0,0E0,0E0,0E0,0E0,0E0,0E0,0E0,0E0,0E0,0E0,0E0,0E0],"parents":[2147483647,0,0,1,1,2,2,3,3,4,4,5,5,6,6,7,7,8,8,9,9,10,10,11,11,13,13],"right_children":[2,4,6,8,10,12,14,16,18,20,22,24,-1,26,-1,-1,-1,-1,-1,-1,-1,-1,-1,-1,-1,-1,-1],"split_conditions":[3E0,5.8E1,3.1E1,5.5E1,6.3E1,3E0,1E1,7.4E1,1.4646465E-1,1E0,8.9E1,9.906847E-1,1.6115293E-1,5.4E1,-1.9283643E-2,-6.8499143E-3,1.3960267E-2,2.3156432E-2,8.774605E-2,2.5991559E-2,-4.735249E-2,-9.326043E-2,-6.0648187E-3,-3.0464206E-2,6.646077E-2,-8.1440546E-2,-9.736738E-3],"split_indices":[3,11,11,11,11,1,14,7,29,17,15,25,0,11,0,0,0,0,0,0,0,0,0,0,0,0,0],"split_type":[0,0,0,0,0,0,0,0,0,0,0,0,0,0,0,0,0,0,0,0,0,0,0,0,0,0,0],"sum_hessian":[4.523437E3,4.397361E3,1.2607627E2,4.305418E3,9.194263E1,5.6089104E1,6.998717E1,4.1618765E3,1.4354169E2,6.47454E1,2.7197233E1,5.4714333E1,1.3747703E0,6.865315E1,1.3340163E0,3.3820645E3,7.7981195E2,9.569716E1,4.7844532E1,6.2751226E0,5.8470272E1,2.6191023E1,1.0062099E0,5.175391E1,2.960422E0,6.758616E1,1.0669947E0],"tree_param":{"num_deleted":"0","num_feature":"30","num_nodes":"27","size_leaf_vector":"1"}},{"base_weights":[-3.448864E-2,-1.7797152E-2,-4.1007796E-1,-4.0175654E-2,2.4210037E-1,-4.4862854E-1,8.3805156E-1,-8.0004655E-2,1.2976415E-1,1.2498779E-1,4.5272428E-1,-5.391312E-1,-5.6846853E-2,1.20833315E-1,3.4949726E-1,-5.972082E-3,-4.1006204E-2,-6.151827E-2,1.6631162E-2,9.288023E-3,1.21758364E-1,5.2111626E-2,-8.588766E-2,8.2605325E-2,-5.544427E-2,6.17349E-3,-9.638791E-2,-3.7212782E-3,5.739202E-2],"categories":[],"categories_nodes":[],"categories_segments":[],"categories_sizes":[],"default_left":[0,0,0,0,0,0,0,0,0,0,0,0,0,0,0,0,0,0,0,0,0,0,0,0,0,0,0,0,0],"id":20,"left_children":[1,3,5,7,9,11,13,15,17,19,21,23,25,-1,27,-1,-1,-1,-1,-1,-1,-1,-1,-1,-1,-1,-1,-1,-1],"loss_changes":[2.8149559E1,2.5026474E1,9.569057E0,2.6821468E1,8.358278E0,6.563961E0,6.763277E-1,2.1463577E1,2.0589428E1,7.626419E0,1.1348438E1,3.6136818E0,3.9336362E0,0E0,3.7070054E-1,0E0,0E0,0E0,0E0,0E0,0E0,0E0,0E0,0E0,0E0,0E0,0E0,0E0,0E0],"parents":[2147483647,0,0,1,1,2,2,3,3,4,4,5,5,6,6,7,7,8,8,9,9,10,10,11,11,12,12,14,14],"right_children":[2,4,6,8,10,12,14,16,18,20,22,24,26,-1,28,-1,-1,-1,-1,-1,-1,-1,-1,-1,-1,-1,-1,-1,-1],"split_conditions":[9.9993014E-1,5E0,6.3E1,7.4E1,9.9873245E-1,1.0002296E0,7E0,5.7E1,3.8E1,2E0,9.998004E-1,-9.930689E-2,1.000509E0,1.20833315E-1,8.9084977E-1,-5.972082E-3,-4.1006204E-2,-6.151827E-2,1.6631162E-2,9.288023E-3,1.21758364E-1,5.2111626E-2,-8.588766E-2,8.2605325E-2,-5.544427E-2,6.17349E-3,-9.638791E-2,-3.7212782E-3,5.739202E-2],"split_indices":[28,5,13,7,28,28,16,7,8,1,28,22,28,0,22,0,0,0,0,0,0,0,0,0,0,0,0,0,0],"split_type":[0,0,0,0,0,0,0,0,0,0,0,0,0,0,0,0,0,0,0,0,0,0,0,0,0,0,0,0,0],"sum_hessian":[4.49034E3,4.3002793E3,1.9006042E2,3.9601367E3,3.4014255E2,1.8498735E2,5.0730844E0,3.2086506E3,7.5148615E2,2.1962085E2,1.20521706E2,1.4996817E2,3.5019176E1,2.0477703E0,3.0253143E0,3.0239907E3,1.8465993E2,3.440366E1,7.170825E2,2.1440524E2,5.2156086E0,1.15121506E2,5.4002004E0,1.0760562E0,1.4889212E2,3.1794436E1,3.2247398E0,1.4173023E0,1.608012E0],"tree_param":{"num_deleted":"0","num_feature":"30","num_nodes":"29","size_leaf_vector":"1"}},{"base_weights":[-1.598012E-2,-4.013879E-3,-5.5738616E-1,9.56704E-3,-4.995345E-1,-9.205027E-1,-4.041976E-1,1.978519E-2,-4.9969313E-1,-2.180789E-1,-7.4770564E-1,-3.001981E-1,-9.782564E-2,7.706452E-2,-4.4547117E-1,5.4419995E-4,4.1763093E-2,-2.6346479E-2,-9.0965375E-2,-4.1028783E-2,2.7115384E-2,-5.4239955E-2,-9.055125E-2,-3.560808E-2,-7.6123304E-3,-5.747748E-2,6.3530626E-3],"categories":[],"categories_nodes":[],"categories_segments":[],"categories_sizes":[],"default_left":[0,0,0,0,0,0,0,0,0,0,0,0,0,0,0,0,0,0,0,0,0,0,0,0,0,0,0],"id":21,"left_children":[1,3,5,7,9,11,13,15,17,19,21,23,-1,-1,25,-1,-1,-1,-1,-1,-1,-1,-1,-1,-1,-1,-1],"loss_changes":[2.892123E1,2.9406054E1,4.9976273E0,2.2143114E1,7.978943E0,7.043648E-1,3.721817E0,2.3797113E1,7.86639E0,5.380189E0,1.5024681E0,2.067256E-2,0E0,0E0,4.508279E0,0E0,0E0,0E0,0E0,0E0,0E0,0E0,0E0,0E0,0E0,0E0,0E0],"parents":[2147483647,0,0,1,1,2,2,3,3,4,4,5,5,6,6,7,7,8,8,9,9,10,10,11,11,14,14],"right_children":[2,4,6,8,10,12,14,16,18,20,22,24,-1,-1,26,-1,-1,-1,-1,-1,-1,-1,-1,-1,-1,-1,-1],"split_conditions":[9.4E1,3E0,8.253377E-1,5.8E1,3.1E1,-3.458559E-1,8.2031566E-1,5.5E1,4E0,3.939394E-1,8.6196053E-1,2E0,-9.782564E-2,7.706452E-2,6.5E1,5.4419995E-4,4.1763093E-2,-2.6346479E-2,-9.0965375E-2,-4.1028783E-2,2.7115384E-2,-5.4239955E-2,-9.055125E-2,-3.560808E-2,-7.6123304E-3,-5.747748E-2,6.3530626E-3],"split_indices":[10,3,25,11,11,22,22,11,12,29,22,3,0,0,15,0,0,0,0,0,0,0,0,0,0,0,0],"split_type":[0,0,0,0,0,0,0,0,0,0,0,0,0,0,0,0,0,0,0,0,0,0,0,0,0,0,0],"sum_hessian":[4.4634653E3,4.367932E3,9.553331E1,4.2523667E3,1.1556551E2,2.6858723E1,6.867459E1,4.1696646E3,8.270189E1,5.503173E1,6.0533783E1,2.8156023E0,2.4043121E1,1.7309815E0,6.694361E1,4.0255486E3,1.4411595E2,5.3510574E1,2.9191317E1,3.962521E1,1.5406521E1,2.8235992E1,3.229779E1,1.7820548E0,1.0335475E0,5.327958E1,1.3664029E1],"tree_param":{"num_deleted":"0","num_feature":"30","num_nodes":"27","size_leaf_vector":"1"}},{"base_weights":[-2.7680965E-2,-1.9590642E-1,2.0012392E-3,-2.8920946E-1,2.8298393E-1,5.85654E-1,-2.2895662E-2,3.3472142E-1,-3.2644197E-1,3.40031E-1,-6.7257184E-1,-9.846564E-2,6.2219197E-1,-4.2026E-1,-7.484202E-3,6.5429166E-2,-8.719674E-3,-1.9357797E-2,-4.7285806E-2,2.393593E-2,9.003447E-2,-8.5828304E-2,-2.7348408E-2,5.8414E-2,1.6324931E-1,-4.511394E-2,1.7230599E-1,6.32727E-4,-4.9672246E-2],"categories":[],"categories_nodes":[],"categories_segments":[],"categories_sizes":[],"default_left":[0,0,0,0,0,0,0,0,0,0,0,0,0,0,0,0,0,0,0,0,0,0,0,0,0,0,0,0,0],"id":22,"left_children":[1,3,5,7,9,11,13,15,17,19,21,-1,23,25,27,-1,-1,-1,-1,-1,-1,-1,-1,-1,-1,-1,-1,-1,-1],"loss_changes":[2.2314287E1,3.0029266E1,5.5224926E1,1.3151817E1,6.213829E0,9.533634E0,2.2318989E1,4.3865895E0,1.0225204E1,5.66636E0,2.4860382E-1,0E0,4.911434E0,9.7832985E0,2.3720377E1,0E0,0E0,0E0,0E0,0E0,0E0,0E0,0E0,0E0,0E0,0E0,0E0,0E0,0E0],"parents":[2147483647,0,0,1,1,2,2,3,3,4,4,5,5,6,6,7,7,8,8,9,9,10,10,12,12,13,13,14,14],"right_children":[2,4,6,8,10,12,14,16,18,20,22,-1,24,26,28,-1,-1,-1,-1,-1,-1,-1,-1,-1,-1,-1,-1,-1,-1],"split_conditions":[5.6E1,6.264591E-1,6.7E1,3E0,3.989899E-1,4E0,1.2E1,8.9434445E-1,2.8E1,8.7E1,2E0,-9.846564E-2,7E0,4.1E1,3.1E1,6.5429166E-2,-8.719674E-3,-1.9357797E-2,-4.7285806E-2,2.393593E-2,9.003447E-2,-8.5828304E-2,-2.7348408E-2,5.8414E-2,1.6324931E-1,-4.511394E-2,1.7230599E-1,6.32727E-4,-4.9672246E-2],"split_indices":[10,27,10,0,29,4,11,22,11,15,3,0,14,14,11,0,0,0,0,0,0,0,0,0,0,0,0,0,0],"split_type":[0,0,0,0,0,0,0,0,0,0,0,0,0,0,0,0,0,0,0,0,0,0,0,0,0,0,0,0,0],"sum_hessian":[4.467765E3,6.6923584E2,3.7985293E3,5.6044037E2,1.0879549E2,1.5448344E2,3.644046E3,3.1110489E1,5.293299E2,1.0327413E2,5.5213547E0,2.9227295E0,1.5156071E2,1.3507385E2,3.5089722E3,1.7388952E1,1.3721537E1,2.7872522E2,2.5060464E2,8.875474E1,1.4519394E1,2.982751E0,2.5386038E0,1.4758043E2,3.9802785E0,1.3393375E2,1.1401047E0,3.4135916E3,9.538055E1],"tree_param":{"num_deleted":"0","num_feature":"30","num_nodes":"29","size_leaf_vector":"1"}},{"base_weights":[-2.2451319E-2,-1.1889019E-2,-4.5547083E-1,-7.1650883E-3,-9.1588944E-1,-2.2355455E-1,-6.589219E-1,3.7376504E-2,-9.9465795E-2,-9.5306925E-2,-7.949373E-3,-5.2081573E-1,1.915842E-2,-4.6145067E-1,-8.570377E-1,-5.4732836E-3,2.0650769E-2,-6.757269E-3,-7.012595E-2,8.495542E-2,-6.620212E-2,3.3728395E-2,-5.180451E-2,-8.335344E-2,-3.1285834E-2,-9.4263725E-2,-5.2889206E-2],"categories":[],"categories_nodes":[],"categories_segments":[],"categories_sizes":[],"default_left":[0,0,0,0,0,0,0,0,0,0,0,0,0,0,0,0,0,0,0,0,0,0,0,0,0,0,0],"id":23,"left_children":[1,3,5,7,9,11,13,15,17,-1,-1,19,21,23,25,-1,-1,-1,-1,-1,-1,-1,-1,-1,-1,-1,-1],"loss_changes":[2.0474438E1,1.8664484E1,4.882229E0,1.7889357E1,6.3077545E-1,3.7131212E0,1.805872E0,4.573625E1,2.7136238E1,0E0,0E0,5.033538E0,5.168393E0,1.4170527E0,2.5766182E-1,0E0,0E0,0E0,0E0,0E0,0E0,0E0,0E0,0E0,0E0,0E0,0E0],"parents":[2147483647,0,0,1,1,2,2,3,3,4,4,5,5,6,6,7,7,8,8,11,11,12,12,13,13,14,14],"right_children":[2,4,6,8,10,12,14,16,18,-1,-1,20,22,24,26,-1,-1,-1,-1,-1,-1,-1,-1,-1,-1,-1,-1],"split_conditions":[3E0,6.3E1,3.1E1,4E0,8.8E1,1.1E1,1.0000199E0,3E0,8.1E1,-9.5306925E-2,-7.949373E-3,1E0,1.6E1,9.9993014E-1,6.2E1,-5.4732836E-3,2.0650769E-2,-6.757269E-3,-7.012595E-2,8.495542E-2,-6.620212E-2,3.3728395E-2,-5.180451E-2,-8.335344E-2,-3.1285834E-2,-9.4263725E-2,-5.2889206E-2],"split_indices":[3,11,11,6,15,16,28,6,8,0,0,17,16,28,15,0,0,0,0,0,0,0,0,0,0,0,0],"split_type":[0,0,0,0,0,0,0,0,0,0,0,0,0,0,0,0,0,0,0,0,0,0,0,0,0,0,0],"sum_hessian":[4.4767603E3,4.3711655E3,1.055949E2,4.349445E3,2.1720465E1,5.032623E1,5.526867E1,2.9341204E3,1.4153246E3,2.0662472E1,1.0579933E0,2.2106106E1,2.8220125E1,2.934668E1,2.592199E1,1.9000331E3,1.0340872E3,1.3451484E3,7.01762E1,1.5964485E0,2.0509657E1,1.795785E1,1.0262277E1,7.059572E0,2.2287107E1,1.9073814E1,6.8481755E0],"tree_param":{"num_deleted":"0","num_feature":"30","num_nodes":"27","size_leaf_vector":"1"}},{"base_weights":[-1.1909242E-2,-2.1994247E-3,-4.114147E-1,6.7304196E-3,-4.4169682E-1,-1.5221101E-1,-6.578266E-1,-1.7355108E-1,3.0515391E-2,-4.922484E-1,4.8170015E-1,-3.3102933E-1,2.711413E-1,-4.5237538E-1,-8.103803E-2,-1.0751607E-2,-1.1122187E-1,1.218262E-2,-2.6756146E-3,-8.3715625E-2,-4.0464327E-2,9.390538E-2,-1.1353294E-2,-2.111992E-2,-7.396181E-2,6.893012E-2,-2.3608966E-2,-5.215607E-3,-6.7258574E-2],"categories":[],"categories_nodes":[],"categories_segments":[],"categories_sizes":[],"default_left":[0,0,0,0,0,0,0,0,0,0,0,0,0,0,0,0,0,0,0,0,0,0,0,0,0,0,0,0,0],"id":24,"left_children":[1,3,5,7,9,11,13,15,17,19,21,23,25,27,-1,-1,-1,-1,-1,-1,-1,-1,-1,-1,-1,-1,-1,-1,-1],"loss_changes":[1.7303286E1,1.709875E1,6.660042E0,1.8316082E1,4.2869625E0,4.093148E0,1.324585E0,3.0740767E1,1.9736189E1,2.1616192E0,1.4700991E0,1.6861639E0,3.6101832E0,2.1908326E0,0E0,0E0,0E0,0E0,0E0,0E0,0E0,0E0,0E0,0E0,0E0,0E0,0E0,0E0,0E0],"parents":[2147483647,0,0,1,1,2,2,3,3,4,4,5,5,6,6,7,7,8,8,9,9,10,10,11,11,12,12,13,13],"right_children":[2,4,6,8,10,12,14,16,18,20,22,24,26,28,-1,-1,-1,-1,-1,-1,-1,-1,-1,-1,-1,-1,-1,-1,-1],"split_conditions":[3E0,9.4E1,3.1E1,6E0,4E0,8.914322E-1,8.6196053E-1,4E0,3.5E1,6E0,6.6E1,1.6E1,9.98962E-1,1.8E1,-8.103803E-2,-1.0751607E-2,-1.1122187E-1,1.218262E-2,-2.6756146E-3,-8.3715625E-2,-4.0464327E-2,9.390538E-2,-1.1353294E-2,-2.111992E-2,-7.396181E-2,6.893012E-2,-2.3608966E-2,-5.215607E-3,-6.7258574E-2],"split_indices":[3,10,11,7,0,22,22,7,7,11,15,16,28,15,0,0,0,0,0,0,0,0,0,0,0,0,0,0,0],"split_type":[0,0,0,0,0,0,0,0,0,0,0,0,0,0,0,0,0,0,0,0,0,0,0,0,0,0,0,0,0],"sum_hessian":[4.4598486E3,4.3550073E3,1.0484117E2,4.2692485E3,8.575922E1,5.1882767E1,5.2958405E1,4.968684E2,3.77238E3,8.175068E1,4.0085416E0,3.6629173E1,1.5253593E1,2.4256447E1,2.870196E1,4.6525256E2,3.1615854E1,1.4536414E3,2.3187385E3,1.4825516E1,6.692516E1,1.940169E0,2.0683727E0,2.9495644E1,7.1335278E0,8.1641445E0,7.0894494E0,9.048386E0,1.5208062E1],"tree_param":{"num_deleted":"0","num_feature":"30","num_nodes":"29","size_leaf_vector":"1"}},{"base_weights":[-2.0755948E-2,-5.966251E-3,-3.3935535E-1,2.9333257E-3,-4.0198937E-1,-2.355969E-1,-7.7778226E-1,-2.1833953E-2,1.1311738E-1,-4.2997945E-2,-5.454877E-1,-5.7549655E-1,-1.1805948E-1,-8.3922446E-1,1.9729564E-2,-6.263868E-4,-4.2956155E-2,-5.6356158E-2,1.4659728E-2,-4.3571625E-2,4.692037E-2,-5.9218824E-2,8.398652E-2,-6.5859415E-2,4.7515493E-2,5.509005E-2,-1.6270857E-2,-8.960242E-2,-3.342333E-2],"categories":[],"categories_nodes":[],"categories_segments":[],"categories_sizes":[],"default_left":[0,0,0,0,0,0,0,0,0,0,0,0,0,0,0,0,0,0,0,0,0,0,0,0,0,0,0,0,0],"id":25,"left_children":[1,3,5,7,9,11,13,15,17,19,21,23,25,27,-1,-1,-1,-1,-1,-1,-1,-1,-1,-1,-1,-1,-1,-1,-1],"loss_changes":[2.099096E1,1.5010363E1,8.806746E0,1.1371311E1,4.798566E0,6.3736877E0,2.4053345E0,2.159607E1,1.7407848E1,5.7997994E0,4.818329E0,3.907505E0,3.7057142E0,7.1473885E-1,0E0,0E0,0E0,0E0,0E0,0E0,0E0,0E0,0E0,0E0,0E0,0E0,0E0,0E0,0E0],"parents":[2147483647,0,0,1,1,2,2,3,3,4,4,5,5,6,6,7,7,8,8,9,9,10,10,11,11,12,12,13,13],"right_children":[2,4,6,8,10,12,14,16,18,20,22,24,26,28,-1,-1,-1,-1,-1,-1,-1,-1,-1,-1,-1,-1,-1,-1,-1],"split_conditions":[9.5753974E-1,1E0,4E0,7.5E1,1.2256809E-1,4E1,1.8E1,6.5E1,3.8E1,1.3E1,1.0000998E0,3.774319E-1,4E0,7.9E1,1.9729564E-2,-6.263868E-4,-4.2956155E-2,-5.6356158E-2,1.4659728E-2,-4.3571625E-2,4.692037E-2,-5.9218824E-2,8.398652E-2,-6.5859415E-2,4.7515493E-2,5.509005E-2,-1.6270857E-2,-8.960242E-2,-3.342333E-2],"split_indices":[22,21,12,7,27,8,12,7,8,16,28,27,4,15,0,0,0,0,0,0,0,0,0,0,0,0,0,0,0],"split_type":[0,0,0,0,0,0,0,0,0,0,0,0,0,0,0,0,0,0,0,0,0,0,0,0,0,0,0,0,0],"sum_hessian":[4.454227E3,4.2576035E3,1.9662343E2,4.164999E3,9.260479E1,1.602386E2,3.638483E1,3.4012617E3,7.6373706E2,2.6816721E1,6.578806E1,4.0171803E1,1.200668E2,3.43591E1,2.0257306E0,3.2771318E3,1.24130005E2,3.525938E1,7.284777E2,1.52632885E1,1.1553432E1,6.4196526E1,1.591543E0,3.7573235E1,2.5985649E0,6.8029146E0,1.1326389E2,3.0189186E1,4.169913E0],"tree_param":{"num_deleted":"0","num_feature":"30","num_nodes":"29","size_leaf_vector":"1"}},{"base_weights":[-1.714976E-2,2.9476061E-2,-1.0983147E-1,-8.901776E-3,1.9871539E-1,-3.738759E-1,-7.4891396E-2,1.8146288E-2,-3.3519387E-1,2.3082003E-1,-2.2865501E-1,-2.6039428E-1,-1.0302162E0,-1.0074967E0,-6.3010626E-2,2.8538916E-3,-4.6514753E-2,1.4772579E-2,-4.1852638E-2,5.3532053E-2,1.7994372E-2,-5.419144E-2,-6.2796148E-3,-4.078958E-2,7.1210176E-2,-1.0997146E-1,-4.503438E-2,-1.05673485E-1,-1.9030226E-2,1.3761594E-2,-1.3091221E-2],"categories":[],"categories_nodes":[],"categories_segments":[],"categories_sizes":[],"default_left":[0,0,0,0,0,0,0,0,0,0,0,0,0,0,0,0,0,0,0,0,0,0,0,0,0,0,0,0,0,0,0],"id":26,"left_children":[1,3,5,7,9,11,13,15,17,19,21,23,25,27,29,-1,-1,-1,-1,-1,-1,-1,-1,-1,-1,-1,-1,-1,-1,-1,-1],"loss_changes":[1.9143196E1,1.9146002E1,1.3650396E1,2.1219461E1,7.5289574E0,1.2618265E1,1.4458297E1,1.116656E1,7.468458E0,7.7629013E0,1.9702067E0,2.1641876E1,5.1895523E-1,4.5958138E-1,1.7662369E1,0E0,0E0,0E0,0E0,0E0,0E0,0E0,0E0,0E0,0E0,0E0,0E0,0E0,0E0,0E0,0E0],"parents":[2147483647,0,0,1,1,2,2,3,3,4,4,5,5,6,6,7,7,8,8,9,9,10,10,11,11,12,12,13,13,14,14],"right_children":[2,4,6,8,10,12,14,16,18,20,22,24,26,28,30,-1,-1,-1,-1,-1,-1,-1,-1,-1,-1,-1,-1,-1,-1,-1,-1],"split_conditions":[8.4967095E-1,7.936397E-1,7E0,7.7931154E-1,6.8686867E-1,4E0,3E0,6.7171717E-1,1E1,2.4E1,5E0,1E0,9.89899E-1,4E0,3.1E1,2.8538916E-3,-4.6514753E-2,1.4772579E-2,-4.1852638E-2,5.3532053E-2,1.7994372E-2,-5.419144E-2,-6.2796148E-3,-4.078958E-2,7.1210176E-2,-1.0997146E-1,-4.503438E-2,-1.05673485E-1,-1.9030226E-2,1.3761594E-2,-1.3091221E-2],"split_indices":[22,22,7,22,29,7,4,29,7,11,17,7,29,17,7,0,0,0,0,0,0,0,0,0,0,0,0,0,0,0,0],"split_type":[0,0,0,0,0,0,0,0,0,0,0,0,0,0,0,0,0,0,0,0,0,0,0,0,0,0,0,0,0,0,0],"sum_hessian":[4.4281514E3,2.9465156E3,1.4816356E3,2.4026274E3,5.4388837E2,1.7201398E2,1.3096216E3,2.219579E3,1.8304817E2,5.0631335E2,3.7575024E1,1.4784775E2,2.4166225E1,1.5419706E1,1.2942019E3,2.173776E3,4.5803364E1,2.682456E1,1.5622362E2,7.112145E1,4.351919E2,1.2222651E1,2.5352373E1,1.2888058E2,1.8967157E1,2.0779322E1,3.3869038E0,1.426696E1,1.1527462E0,3.269998E2,9.6720215E2],"tree_param":{"num_deleted":"0","num_feature":"30","num_nodes":"31","size_leaf_vector":"1"}},{"base_weights":[-2.261228E-2,5.2633055E-2,-7.5993866E-2,6.718162E-2,-4.1768515E-1,-4.9134303E-2,-4.2727733E-1,7.322535E-2,-8.379958E-1,-4.7907075E-1,8.250853E-2,-1.1052421E-3,-2.4198133E-1,-5.536431E-1,1.485583E-2,-1.2024349E-2,9.97335E-3,-9.0002455E-2,-1.0435729E-2,-6.439396E-2,1.145566E-2,-9.11765E-3,1.7522348E-2,-1.1286527E-2,-4.1100603E-2,-6.112646E-2,3.99098E-4,-4.276065E-2,4.4986732E-2],"categories":[],"categories_nodes":[],"categories_segments":[],"categories_sizes":[],"default_left":[0,0,0,0,0,0,0,0,0,0,0,0,0,0,0,0,0,0,0,0,0,0,0,0,0,0,0,0,0],"id":27,"left_children":[1,3,5,7,9,11,13,15,17,19,-1,21,23,25,27,-1,-1,-1,-1,-1,-1,-1,-1,-1,-1,-1,-1,-1,-1],"loss_changes":[1.7747961E1,1.2576532E1,2.4365685E1,9.7977495E0,4.6037655E0,2.2249172E1,1.0257992E1,9.0836115E0,4.469061E-1,5.280655E0,0E0,3.0576256E1,1.0406553E1,4.5877457E0,8.228703E0,0E0,0E0,0E0,0E0,0E0,0E0,0E0,0E0,0E0,0E0,0E0,0E0,0E0,0E0],"parents":[2147483647,0,0,1,1,2,2,3,3,4,4,5,5,6,6,7,7,8,8,9,9,11,11,12,12,13,13,14,14],"right_children":[2,4,6,8,10,12,14,16,18,20,-1,22,24,26,28,-1,-1,-1,-1,-1,-1,-1,-1,-1,-1,-1,-1,-1,-1],"split_conditions":[9.59596E-2,8.6E1,1E1,9.5E1,9.8E1,1.7E1,1.7E1,6E0,9.8E1,2E0,8.250853E-2,9.5E1,8.1E1,8.2E1,2.5E1,-1.2024349E-2,9.97335E-3,-9.0002455E-2,-1.0435729E-2,-6.439396E-2,1.145566E-2,-9.11765E-3,1.7522348E-2,-1.1286527E-2,-4.1100603E-2,-6.112646E-2,3.99098E-4,-4.276065E-2,4.4986732E-2],"split_indices":[29,8,12,10,7,16,12,7,10,1,0,8,8,15,10,0,0,0,0,0,0,0,0,0,0,0,0,0,0],"split_type":[0,0,0,0,0,0,0,0,0,0,0,0,0,0,0,0,0,0,0,0,0,0,0,0,0,0,0,0,0],"sum_hessian":[4.416531E3,1.8329146E3,2.5836162E3,1.7787489E3,5.4165665E1,2.4011604E3,1.8245576E2,1.7678643E3,1.088466E1,5.2201717E1,1.9639469E0,1.9231904E3,4.779699E2,1.417034E2,4.075236E1,2.1260892E2,1.5552554E3,9.826998E0,1.0576621E0,4.0788677E1,1.1413041E1,1.2732692E3,6.499213E2,2.719206E2,2.0604933E2,1.2834506E2,1.3358339E1,2.02116E1,2.054076E1],"tree_param":{"num_deleted":"0","num_feature":"30","num_nodes":"29","size_leaf_vector":"1"}},{"base_weights":[-2.4141947E-2,-1.2561766E-2,-3.0138537E-1,2.6982315E-2,-9.7011216E-2,3.042941E-1,-3.6811692E-1,-3.6945038E-2,1.4597112E-1,-4.893876E-2,-2.4565077E-1,-3.0958587E-1,8.0032307E-1,-4.5487034E-1,4.3382198E-2,-1.1859289E-3,-5.853433E-2,3.9926704E-2,9.938812E-3,-5.489352E-3,2.230377E-1,-3.565119E-2,1.4490129E-2,-6.0507614E-2,3.8433332E-2,1.0992668E-1,-7.133319E-2,-5.000909E-2,1.9345706E-2,-3.4083154E-2,5.788085E-2],"categories":[],"categories_nodes":[],"categories_segments":[],"categories_sizes":[],"default_left":[0,0,0,0,0,0,0,0,0,0,0,0,0,0,0,0,0,0,0,0,0,0,0,0,0,0,0,0,0,0,0],"id":28,"left_children":[1,3,5,7,9,11,13,15,17,19,21,23,25,27,29,-1,-1,-1,-1,-1,-1,-1,-1,-1,-1,-1,-1,-1,-1,-1,-1],"loss_changes":[1.4176345E1,1.4164384E1,7.267742E0,2.1981327E1,9.653429E0,5.7646284E0,5.7289143E0,2.5858273E1,1.187635E1,1.4012169E1,1.4353371E1,2.0406525E0,5.444695E0,3.97159E0,6.1134133E0,0E0,0E0,0E0,0E0,0E0,0E0,0E0,0E0,0E0,0E0,0E0,0E0,0E0,0E0,0E0,0E0],"parents":[2147483647,0,0,1,1,2,2,3,3,4,4,5,5,6,6,7,7,8,8,9,9,10,10,11,11,12,12,13,13,14,14],"right_children":[2,4,6,8,10,12,14,16,18,20,22,24,26,28,30,-1,-1,-1,-1,-1,-1,-1,-1,-1,-1,-1,-1,-1,-1,-1,-1],"split_conditions":[9.999201E-1,1E0,3E0,6.666667E-1,1.010101E-1,4.4E1,2E0,3.3333334E-1,3.4E1,7E0,9.082441E-1,1.919192E-1,9.212855E-1,5.2020204E-1,8.1E1,-1.1859289E-3,-5.853433E-2,3.9926704E-2,9.938812E-3,-5.489352E-3,2.230377E-1,-3.565119E-2,1.4490129E-2,-6.0507614E-2,3.8433332E-2,1.0992668E-1,-7.133319E-2,-5.000909E-2,1.9345706E-2,-3.4083154E-2,5.788085E-2],"split_indices":[28,26,0,26,29,7,1,26,8,0,25,29,25,29,7,0,0,0,0,0,0,0,0,0,0,0,0,0,0,0,0],"split_type":[0,0,0,0,0,0,0,0,0,0,0,0,0,0,0,0,0,0,0,0,0,0,0,0,0,0,0,0,0,0,0],"sum_hessian":[4.415759E3,4.2397153E3,1.7604335E2,2.8880466E3,1.3516687E3,1.7117634E1,1.5892572E2,1.8791519E3,1.0088946E3,1.0223525E3,3.2931625E2,7.818015E0,9.299619E0,1.3116727E2,2.775846E1,1.7979297E3,8.1222275E1,1.5554497E2,8.533497E2,1.02066187E3,1.6905838E0,2.565732E2,7.274304E1,5.5729346E0,2.245081E0,7.99449E0,1.3051285E0,1.2282866E2,8.338597E0,1.637293E1,1.1385527E1],"tree_param":{"num_deleted":"0","num_feature":"30","num_nodes":"31","size_leaf_vector":"1"}},{"base_weights":[-1.3456325E-2,-4.5656934E-3,-4.3510213E-1,5.612013E-2,-5.331731E-2,1.4790463E-1,-5.555834E-1,7.3282935E-2,-4.6399105E-1,-1.4580658E-2,-2.994031E-1,-2.2513036E-1,8.4301525E-1,-2.4654046E-1,-6.6894263E-1,5.8768573E-3,5.145679E-2,-5.3727902E-2,2.5520591E-2,-5.014738E-3,2.9395258E-2,-3.298623E-2,6.707676E-2,4.0246606E-2,-5.7459004E-2,1.5092523E-1,1.5067046E-2,1.0061105E-2,-6.404478E-2,-6.959344E-2,2.5219753E-2],"categories":[],"categories_nodes":[],"categories_segments":[],"categories_sizes":[],"default_left":[0,0,0,0,0,0,0,0,0,0,0,0,0,0,0,0,0,0,0,0,0,0,0,0,0,0,0,0,0,0,0],"id":29,"left_children":[1,3,5,7,9,11,13,15,17,19,21,23,25,27,29,-1,-1,-1,-1,-1,-1,-1,-1,-1,-1,-1,-1,-1,-1,-1,-1],"loss_changes":[1.646622E1,1.2734565E1,6.453516E0,1.715085E1,2.2748135E1,4.422708E0,2.4759235E0,1.1864608E1,3.3728914E0,2.2655964E1,9.812307E0,2.7342484E0,2.499524E0,3.0473728E0,1.5322533E0,0E0,0E0,0E0,0E0,0E0,0E0,0E0,0E0,0E0,0E0,0E0,0E0,0E0,0E0,0E0,0E0],"parents":[2147483647,0,0,1,1,2,2,3,3,4,4,5,5,6,6,7,7,8,8,9,9,10,10,11,11,12,12,13,13,14,14],"right_children":[2,4,6,8,10,12,14,16,18,20,22,24,26,28,30,-1,-1,-1,-1,-1,-1,-1,-1,-1,-1,-1,-1,-1,-1,-1,-1],"split_conditions":[3E0,1.010101E-1,1E0,8.4E1,4E0,2E0,1.2E1,1.7E1,4E0,3E0,7.777778E-1,7.730794E-1,2.3232323E-1,4E0,4E0,5.8768573E-3,5.145679E-2,-5.3727902E-2,2.5520591E-2,-5.014738E-3,2.9395258E-2,-3.298623E-2,6.707676E-2,4.0246606E-2,-5.7459004E-2,1.5092523E-1,1.5067046E-2,1.0061105E-2,-6.404478E-2,-6.959344E-2,2.5219753E-2],"split_indices":[3,29,10,8,6,1,11,12,5,6,29,22,29,6,2,0,0,0,0,0,0,0,0,0,0,0,0,0,0,0,0],"split_type":[0,0,0,0,0,0,0,0,0,0,0,0,0,0,0,0,0,0,0,0,0,0,0,0,0,0,0,0,0,0,0],"sum_hessian":[4.3920474E3,4.3023413E3,8.970638E1,1.9165171E3,2.3858242E3,1.5324375E1,7.4382E1,1.8561271E3,6.039002E1,2.0622605E3,3.2356357E2,1.0412547E1,4.9118285E0,2.081378E1,5.3568226E1,1.798118E3,5.8008984E1,5.5034782E1,5.3552375E0,1.8498529E3,2.1240767E2,3.1435422E2,9.209373E0,3.669962E0,6.742585E0,1.9018152E0,3.010013E0,1.1459274E1,9.3545065E0,5.2280754E1,1.2874719E0],"tree_param":{"num_deleted":"0","num_feature":"30","num_nodes":"31","size_leaf_vector":"1"}},{"base_weights":[-1.2853267E-2,-3.681056E-2,1.5514876E-1,-6.7619053E-3,-1.8621087E-1,-8.9818656E-1,2.0160732E-1,5.2187836E-4,-6.896553E-1,-1.6052262E-1,-7.914936E-1,-9.612153E-1,-2.8261584E-1,-1.6529575E-1,2.385745E-1,-1.3306135E-3,5.3821452E-2,-1.8390423E-3,-7.6696284E-2,2.4429897E-2,-1.9718705E-2,-4.5142185E-2,-1.0071156E-1,-2.276211E-2,-1.04259074E-1,2.6567373E-2,-6.658718E-2,-5.149245E-2,4.6870135E-2,1.975071E-2,5.5322643E-2],"categories":[],"categories_nodes":[],"categories_segments":[],"categories_sizes":[],"default_left":[0,0,0,0,0,0,0,0,0,0,0,0,0,0,0,0,0,0,0,0,0,0,0,0,0,0,0,0,0,0,0],"id":30,"left_children":[1,3,5,7,9,11,13,15,17,19,21,23,25,27,29,-1,-1,-1,-1,-1,-1,-1,-1,-1,-1,-1,-1,-1,-1,-1,-1],"loss_changes":[1.7716301E1,1.7291082E1,2.7065048E1,1.5956882E1,9.901278E0,6.35849E-1,7.1869907E0,2.3614727E1,1.7428074E0,9.249976E0,1.4521275E0,1.0044403E0,9.3107104E-1,1.10642805E1,6.082266E0,0E0,0E0,0E0,0E0,0E0,0E0,0E0,0E0,0E0,0E0,0E0,0E0,0E0,0E0,0E0,0E0],"parents":[2147483647,0,0,1,1,2,2,3,3,4,4,5,5,6,6,7,7,8,8,9,9,10,10,11,11,12,12,13,13,14,14],"right_children":[2,4,6,8,10,12,14,16,18,20,22,24,26,28,30,-1,-1,-1,-1,-1,-1,-1,-1,-1,-1,-1,-1,-1,-1,-1,-1],"split_conditions":[8.5E1,9.9915165E-1,3.8E1,5.8E1,8.2E1,7.4E1,2E0,5.5E1,1.2626262E-1,3E0,4.5454547E-2,1E0,7.794863E-1,8.8E1,4.4444445E-1,-1.3306135E-3,5.3821452E-2,-1.8390423E-3,-7.6696284E-2,2.4429897E-2,-1.9718705E-2,-4.5142185E-2,-1.0071156E-1,-2.276211E-2,-1.04259074E-1,2.6567373E-2,-6.658718E-2,-5.149245E-2,4.6870135E-2,1.975071E-2,5.5322643E-2],"split_indices":[7,28,8,11,8,15,1,11,29,0,29,17,22,8,29,0,0,0,0,0,0,0,0,0,0,0,0,0,0,0,0],"split_type":[0,0,0,0,0,0,0,0,0,0,0,0,0,0,0,0,0,0,0,0,0,0,0,0,0,0,0,0,0,0,0],"sum_hessian":[4.3992847E3,3.85092E3,5.483649E2,3.2069553E3,6.4396466E2,2.2390118E1,5.259748E2,3.1740994E3,3.2855904E1,6.189611E2,2.5003551E1,1.980116E1,2.5889573E0,4.782595E1,4.7814883E2,3.0954675E3,7.8631874E1,3.5209756E0,2.9334929E1,5.0933025E1,5.680281E2,1.0902334E1,1.4101217E1,2.3563128E0,1.7444847E1,1.1913701E0,1.3975871E0,3.0947323E1,1.6878626E1,4.2438687E2,5.376197E1],"tree_param":{"num_deleted":"0","num_feature":"30","num_nodes":"31","size_leaf_vector":"1"}},{"base_weights":[-1.6241072E-2,-5.997226E-1,-1.1050843E-2,-8.245329E-1,-2.7256945E-1,2.9741317E-1,-2.1221643E-2,3.710638E-2,-9.4111574E-1,1.0085626E-1,-6.70602E-1,-9.158891E-2,4.2324117E-1,-5.610308E-3,-2.375379E-1,-5.4360088E-2,-1.02322534E-1,-3.5058443E-2,5.533603E-2,-8.692305E-2,3.576824E-2,1.8349044E-2,-4.4519253E-2,4.818042E-2,-3.7698436E-3,3.314423E-3,-8.713852E-3,-4.504895E-2,2.7171722E-2],"categories":[],"categories_nodes":[],"categories_segments":[],"categories_sizes":[],"default_left":[0,0,0,0,0,0,0,0,0,0,0,0,0,0,0,0,0,0,0,0,0,0,0,0,0,0,0,0,0],"id":31,"left_children":[1,3,5,7,9,11,13,-1,15,17,19,21,23,25,27,-1,-1,-1,-1,-1,-1,-1,-1,-1,-1,-1,-1,-1,-1],"loss_changes":[1.3229821E1,2.6081285E0,1.3601134E1,3.4625244E0,2.6214526E0,6.8122797E0,1.4168053E1,0E0,1.17269516E-1,2.1824799E0,2.0362983E0,3.451479E0,2.8455086E0,1.2370978E1,3.0748276E1,0E0,0E0,0E0,0E0,0E0,0E0,0E0,0E0,0E0,0E0,0E0,0E0,0E0,0E0],"parents":[2147483647,0,0,1,1,2,2,3,3,4,4,5,5,6,6,8,8,9,9,10,10,11,11,12,12,13,13,14,14],"right_children":[2,4,6,8,10,12,14,-1,16,18,20,22,24,26,28,-1,-1,-1,-1,-1,-1,-1,-1,-1,-1,-1,-1,-1,-1],"split_conditions":[1.1E1,1.3E1,-3.5353534E-2,2E0,5E1,2.9182879E-3,1.1E1,3.710638E-2,7E0,1.3E1,9.4E1,7E0,1.7E1,5.7E1,1.7E1,-5.4360088E-2,-1.02322534E-1,-3.5058443E-2,5.533603E-2,-8.692305E-2,3.576824E-2,1.8349044E-2,-4.4519253E-2,4.818042E-2,-3.7698436E-3,3.314423E-3,-8.713852E-3,-4.504895E-2,2.7171722E-2],"split_indices":[11,15,29,11,15,27,12,0,16,16,15,9,12,15,12,0,0,0,0,0,0,0,0,0,0,0,0,0,0],"split_type":[0,0,0,0,0,0,0,0,0,0,0,0,0,0,0,0,0,0,0,0,0,0,0,0,0,0,0,0,0],"sum_hessian":[4.3697695E3,3.7517624E1,4.3322515E3,2.1335886E1,1.618174E1,1.3738368E2,4.194868E3,1.7016857E0,1.9634201E1,8.734155E0,7.447585E0,3.3644016E1,1.0373966E2,3.9134631E3,2.814049E2,4.6658726E0,1.49683275E1,4.4849644E0,4.2491903E0,6.371512E0,1.076073E0,1.919371E1,1.4450306E1,9.200503E1,1.1734632E1,2.6529658E3,1.2604972E3,1.9851057E2,8.289434E1],"tree_param":{"num_deleted":"0","num_feature":"30","num_nodes":"29","size_leaf_vector":"1"}},{"base_weights":[-9.1842385E-3,-5.429612E-1,-4.8489035E-3,4.54289E-2,-6.215747E-1,-1.7104568E-3,-7.438549E-1,-8.263295E-1,-2.7389103E-1,-1.2926893E-2,2.2034907E-1,-8.9859825E-1,-4.024414E-1,-8.553597E-2,-2.6318086E-2,2.2056403E-2,-7.272584E-2,-9.65731E-6,-3.647817E-2,4.569294E-3,6.4284004E-2,-6.4163953E-3,-9.7164184E-2,-6.10422E-2,-8.00176E-3],"categories":[],"categories_nodes":[],"categories_segments":[],"categories_sizes":[],"default_left":[0,0,0,0,0,0,0,0,0,0,0,0,0,0,0,0,0,0,0,0,0,0,0,0,0],"id":32,"left_children":[1,3,5,-1,7,9,11,13,15,17,19,21,23,-1,-1,-1,-1,-1,-1,-1,-1,-1,-1,-1,-1],"loss_changes":[1.0155462E1,3.0542278E0,1.0100095E1,0E0,2.1368399E0,1.0807271E1,6.112976E-1,1.0832596E-1,3.2537718E0,1.864559E1,1.5365593E1,6.6058826E-1,4.5775723E-1,0E0,0E0,0E0,0E0,0E0,0E0,0E0,0E0,0E0,0E0,0E0,0E0],"parents":[2147483647,0,0,1,1,2,2,4,4,5,5,6,6,7,7,8,8,9,9,10,10,11,11,12,12],"right_children":[2,4,6,-1,8,10,12,14,16,18,20,22,24,-1,-1,-1,-1,-1,-1,-1,-1,-1,-1,-1,-1],"split_conditions":[1.1E1,2E0,6.3E1,4.54289E-2,1.7E1,5.5E1,9.98942E-1,9.9954087E-1,5E1,3.1E1,4.3939394E-1,8.3232415E-1,9.1383326E-1,-8.553597E-2,-2.6318086E-2,2.2056403E-2,-7.272584E-2,-9.65731E-6,-3.647817E-2,4.569294E-3,6.4284004E-2,-6.4163953E-3,-9.7164184E-2,-6.10422E-2,-8.00176E-3],"split_indices":[11,11,11,0,15,11,28,28,15,11,29,25,25,0,0,0,0,0,0,0,0,0,0,0,0],"split_type":[0,0,0,0,0,0,0,0,0,0,0,0,0,0,0,0,0,0,0,0,0,0,0,0,0],"sum_hessian":[4.3886494E3,3.4356472E1,4.354293E3,2.1612465E0,3.2195225E1,4.3368774E3,1.7415747E1,1.9396019E1,1.2799206E1,4.129247E3,2.0763037E2,1.0861054E1,6.5546937E0,1.7951723E1,1.4442964E0,6.367802E0,6.4314036E0,3.9849373E3,1.4430972E2,1.4768579E2,5.9944584E1,1.0254111E0,9.835643E0,3.4415083E0,3.1131854E0],"tree_param":{"num_deleted":"0","num_feature":"30","num_nodes":"25","size_leaf_vector":"1"}},{"base_weights":[-1.2222118E-2,-1.1008406E-3,-2.6270548E-1,5.2383114E-3,-3.6890027E-1,-3.4000257E-1,2.9929596E-1,2.8952625E-1,-5.7738866E-3,-6.9687E-1,-1.978021E-1,4.838789E-1,-3.9103556E-1,4.4452026E-1,-7.324907E-2,7.0257805E-2,1.7171452E-2,-1.7488785E-2,1.8431513E-3,-7.5903386E-2,1.034216E-2,-3.500885E-2,1.3104707E-2,-8.28471E-3,1.0618758E-1,-4.0922824E-2,9.196631E-2,-2.5485769E-2,5.1118966E-2],"categories":[],"categories_nodes":[],"categories_segments":[],"categories_sizes":[],"default_left":[0,0,0,0,0,0,0,0,0,0,0,0,0,0,0,0,0,0,0,0,0,0,0,0,0,0,0,0,0],"id":33,"left_children":[1,3,5,7,9,11,13,15,17,19,21,23,25,27,-1,-1,-1,-1,-1,-1,-1,-1,-1,-1,-1,-1,-1,-1,-1],"loss_changes":[1.2148506E1,9.740158E0,8.155542E0,1.2859063E1,3.8340855E0,7.061392E0,3.7641265E0,7.3331833E0,1.619202E1,1.2660236E0,2.4452605E0,3.3573089E0,4.0596333E0,1.09727E0,0E0,0E0,0E0,0E0,0E0,0E0,0E0,0E0,0E0,0E0,0E0,0E0,0E0,0E0,0E0],"parents":[2147483647,0,0,1,1,2,2,3,3,4,4,5,5,6,6,7,7,8,8,9,9,10,10,11,11,12,12,13,13],"right_children":[2,4,6,8,10,12,14,16,18,20,22,24,26,28,-1,-1,-1,-1,-1,-1,-1,-1,-1,-1,-1,-1,-1,-1,-1],"split_conditions":[9.5753974E-1,9.4E1,5.5E1,-3.5353534E-2,9.7E1,4E0,6.7E1,2E0,5.6E1,9.096628E-1,4E0,1E0,1.2568094E0,4.7E1,-7.324907E-2,7.0257805E-2,1.7171452E-2,-1.7488785E-2,1.8431513E-3,-7.5903386E-2,1.034216E-2,-3.500885E-2,1.3104707E-2,-8.28471E-3,1.0618758E-1,-4.0922824E-2,9.196631E-2,-2.5485769E-2,5.1118966E-2],"split_indices":[22,10,11,29,10,4,10,17,10,22,17,19,27,10,0,0,0,0,0,0,0,0,0,0,0,0,0,0,0],"split_type":[0,0,0,0,0,0,0,0,0,0,0,0,0,0,0,0,0,0,0,0,0,0,0,0,0,0,0,0,0],"sum_hessian":[4.360137E3,4.1757417E3,1.8439548E2,4.1059595E3,6.97819E1,1.624476E2,2.1947863E1,1.5217442E2,3.9537852E3,2.28702E1,4.6911697E1,8.980698E0,1.534669E2,1.9738794E1,2.2090676E0,3.2669727E1,1.1950469E2,4.9427158E2,3.4595137E3,2.1269606E1,1.6005948E0,3.2019318E1,1.4892379E1,4.9671106E0,4.013587E0,1.520443E2,1.422618E0,1.4722127E0,1.8266582E1],"tree_param":{"num_deleted":"0","num_feature":"30","num_nodes":"29","size_leaf_vector":"1"}},{"base_weights":[-2.0510977E-2,-1.5070923E-1,-4.027107E-3,-1.0041823E-1,-8.064014E-1,3.1946698E-1,-2.1336125E-2,-1.8208598E-1,1.5894938E-1,-9.8964494E-1,-1.3158393E-1,1.2085572E-1,9.9744666E-1,-4.1263238E-1,2.1403522E-4,-2.3470113E-4,-5.574928E-2,5.3694346E-3,3.193723E-1,-1.05810754E-1,1.28113E-2,5.637095E-2,-6.1133236E-2,6.0245555E-2,-3.2208213E-3,2.0594083E-1,7.862637E-2,1.2507317E-2,-7.4769594E-2,1.0058953E-2,-4.742753E-3],"categories":[],"categories_nodes":[],"categories_segments":[],"categories_sizes":[],"default_left":[0,0,0,0,0,0,0,0,0,0,0,0,0,0,0,0,0,0,0,0,0,0,0,0,0,0,0,0,0,0,0],"id":34,"left_children":[1,3,5,7,9,11,13,15,17,19,21,23,25,27,29,-1,-1,-1,-1,-1,-1,-1,-1,-1,-1,-1,-1,-1,-1,-1,-1],"loss_changes":[9.383194E0,1.6120792E1,2.1743643E1,9.719078E0,4.180147E0,2.64368E1,3.108051E1,2.3506155E1,3.4992283E1,2.2216434E0,3.212418E0,1.134786E1,8.371483E0,3.4756462E1,1.6715132E1,0E0,0E0,0E0,0E0,0E0,0E0,0E0,0E0,0E0,0E0,0E0,0E0,0E0,0E0,0E0,0E0],"parents":[2147483647,0,0,1,1,2,2,3,3,4,4,5,5,6,6,7,7,8,8,9,9,10,10,11,11,12,12,13,13,14,14],"right_children":[2,4,6,8,10,12,14,16,18,20,22,24,26,28,30,-1,-1,-1,-1,-1,-1,-1,-1,-1,-1,-1,-1,-1,-1,-1,-1],"split_conditions":[7E0,4E0,7E0,2E0,6E0,6E0,2.7E1,7E0,4E0,9.89899E-1,5.050505E-2,8E0,1E0,2E0,6E1,-2.3470113E-4,-5.574928E-2,5.3694346E-3,3.193723E-1,-1.05810754E-1,1.28113E-2,5.637095E-2,-6.1133236E-2,6.0245555E-2,-3.2208213E-3,2.0594083E-1,7.862637E-2,1.2507317E-2,-7.4769594E-2,1.0058953E-2,-4.742753E-3],"split_indices":[7,7,8,1,7,8,8,9,0,29,29,7,17,1,8,0,0,0,0,0,0,0,0,0,0,0,0,0,0,0,0],"split_type":[0,0,0,0,0,0,0,0,0,0,0,0,0,0,0,0,0,0,0,0,0,0,0,0,0,0,0,0,0,0,0],"sum_hessian":[4.371345E3,4.903288E2,3.8810166E3,4.5647104E2,3.385776E1,1.9622601E2,3.6847905E3,3.4738654E2,1.0908452E2,2.626035E1,7.5974135E0,1.5267792E2,4.3548088E1,1.9139502E2,3.4933955E3,2.3559402E2,1.117925E2,1.06411545E2,2.672978E0,2.4795023E1,1.4653263E0,3.0304334E0,4.5669804E0,3.6113754E1,1.1656416E2,5.771841E0,3.7776245E1,7.37188E1,1.1767622E2,1.1240453E3,2.36935E3],"tree_param":{"num_deleted":"0","num_feature":"30","num_nodes":"31","size_leaf_vector":"1"}},{"base_weights":[1.0579512E-3,8.570175E-3,-4.3481705E-1,2.9852843E-2,-8.7013364E-2,-5.2755725E-1,-5.9753586E-2,7.443294E-2,-4.964156E-2,-1.6746816E-1,1.9828862E-1,-7.2600067E-1,-2.3249902E-1,-5.0102204E-1,4.17889E-1,1.2310568E-2,-5.9703654E-3,1.3242045E-2,-1.160858E-2,-1.4357186E-2,-6.831353E-2,-7.361733E-2,2.5100237E-2,-4.2863365E-2,-9.153904E-2,8.352249E-2,-4.9096785E-2,-7.575255E-2,1.352329E-2,9.641936E-2,-5.0704695E-2],"categories":[],"categories_nodes":[],"categories_segments":[],"categories_sizes":[],"default_left":[0,0,0,0,0,0,0,0,0,0,0,0,0,0,0,0,0,0,0,0,0,0,0,0,0,0,0,0,0,0,0],"id":35,"left_children":[1,3,5,7,9,11,13,15,17,19,21,23,25,27,29,-1,-1,-1,-1,-1,-1,-1,-1,-1,-1,-1,-1,-1,-1,-1,-1],"loss_changes":[1.4251986E1,8.706597E0,2.5335693E0,1.2408039E1,1.7924675E1,3.2856407E0,3.5284111E0,1.4651387E1,1.5236208E1,7.400671E0,8.6530075E0,1.5676556E0,7.363138E0,1.5125194E0,4.585444E0,0E0,0E0,0E0,0E0,0E0,0E0,0E0,0E0,0E0,0E0,0E0,0E0,0E0,0E0,0E0,0E0],"parents":[2147483647,0,0,1,1,2,2,3,3,4,4,5,5,6,6,7,7,8,8,9,9,10,10,11,11,12,12,13,13,14,14],"right_children":[2,4,6,8,10,12,14,16,18,20,22,24,26,28,30,-1,-1,-1,-1,-1,-1,-1,-1,-1,-1,-1,-1,-1,-1,-1,-1],"split_conditions":[9.4E1,9.98962E-1,6.8E1,8E0,8.1E1,3E0,1.3229571E-1,1.6E1,2.5E1,8.2E1,5E0,7.782101E-3,1.2840466E-1,1.6E1,6.284047E-1,1.2310568E-2,-5.9703654E-3,1.3242045E-2,-1.160858E-2,-1.4357186E-2,-6.831353E-2,-7.361733E-2,2.5100237E-2,-4.2863365E-2,-9.153904E-2,8.352249E-2,-4.9096785E-2,-7.575255E-2,1.352329E-2,9.641936E-2,-5.0704695E-2],"split_indices":[10,28,15,9,7,17,27,16,8,8,9,27,27,16,27,0,0,0,0,0,0,0,0,0,0,0,0,0,0,0,0],"split_type":[0,0,0,0,0,0,0,0,0,0,0,0,0,0,0,0,0,0,0,0,0,0,0,0,0,0,0,0,0,0,0],"sum_hessian":[4.350424E3,4.2776787E3,7.274465E1,3.4992273E3,7.7845166E2,5.7997337E1,1.47473135E1,2.2419922E3,1.2572352E3,6.075393E2,1.7091232E2,3.380262E1,2.4194717E1,7.6400924E0,7.107221E0,1.645125E3,5.968671E2,3.3588718E2,9.21348E2,5.818543E2,2.5685038E1,8.434131E0,1.624782E2,1.4421765E1,1.9380854E1,4.280542E0,1.9914175E1,5.3091364E0,2.3309562E0,4.4414673E0,2.6657538E0],"tree_param":{"num_deleted":"0","num_feature":"30","num_nodes":"31","size_leaf_vector":"1"}},{"base_weights":[-1.51424175E-2,-3.0039292E-2,1.520617E-1,-2.7135218E-2,-7.5186175E-1,5.592423E-2,3.094023E-1,-3.8054246E-2,1.6749142E-1,-1.4422017E-1,-8.4241223E-1,9.772155E-2,-9.1753685E-1,3.6717007E-1,-7.5784713E-1,-2.5978694E-3,-3.6808435E-2,5.4599334E-2,-9.78384E-4,3.084965E-2,-5.64104E-2,-9.0410195E-2,-6.3743815E-3,1.2550372E-2,-8.693449E-2,-1.265503E-1,7.5139396E-2,1.6014012E-2,6.2362153E-2,-9.774449E-2,1.404206E-2],"categories":[],"categories_nodes":[],"categories_segments":[],"categories_sizes":[],"default_left":[0,0,0,0,0,0,0,0,0,0,0,0,0,0,0,0,0,0,0,0,0,0,0,0,0,0,0,0,0,0,0],"id":36,"left_children":[1,3,5,7,9,11,13,15,17,19,21,23,25,27,29,-1,-1,-1,-1,-1,-1,-1,-1,-1,-1,-1,-1,-1,-1,-1,-1],"loss_changes":[1.089852E1,8.399486E0,5.397216E0,8.510376E0,7.6205254E-1,9.179853E0,8.634751E0,1.5094195E1,1.4281361E1,7.99256E-1,6.0376453E-1,5.8887215E0,6.348163E0,6.762701E0,1.5745125E0,0E0,0E0,0E0,0E0,0E0,0E0,0E0,0E0,0E0,0E0,0E0,0E0,0E0,0E0,0E0,0E0],"parents":[2147483647,0,0,1,1,2,2,3,3,4,4,5,5,6,6,7,7,8,8,9,9,10,10,11,11,12,12,13,13,14,14],"right_children":[2,4,6,8,10,12,14,16,18,20,22,24,26,28,30,-1,-1,-1,-1,-1,-1,-1,-1,-1,-1,-1,-1,-1,-1,-1,-1],"split_conditions":[5E0,6.3E1,9.9873245E-1,5.5E1,9E0,9.9814355E-1,7.782101E-3,3.1E1,5.7E1,2.9182879E-3,1E0,2.3E1,1.9E1,8.155566E-1,4E0,-2.5978694E-3,-3.6808435E-2,5.4599334E-2,-9.78384E-4,3.084965E-2,-5.64104E-2,-9.0410195E-2,-6.3743815E-3,1.2550372E-2,-8.693449E-2,-1.265503E-1,7.5139396E-2,1.6014012E-2,6.2362153E-2,-9.774449E-2,1.404206E-2],"split_indices":[5,11,28,11,16,28,27,11,11,27,28,16,16,25,0,0,0,0,0,0,0,0,0,0,0,0,0,0,0,0,0],"split_type":[0,0,0,0,0,0,0,0,0,0,0,0,0,0,0,0,0,0,0,0,0,0,0,0,0,0,0,0,0,0,0],"sum_hessian":[4.372643E3,4.0156897E3,3.5695328E2,4.0006316E3,1.5057958E1,2.2241176E2,1.3454152E2,3.7888713E3,2.1176044E2,2.2891643E0,1.2768793E1,2.1411783E2,8.293922E0,1.2825531E2,6.2862034E0,3.6561733E3,1.326979E2,6.688142E1,1.4487901E2,1.2291653E0,1.0599989E0,1.1682189E1,1.0866045E0,2.089843E2,5.133541E0,7.0630336E0,1.2308892E0,7.186449E1,5.6390835E1,4.980489E0,1.3057146E0],"tree_param":{"num_deleted":"0","num_feature":"30","num_nodes":"31","size_leaf_vector":"1"}},{"base_weights":[-7.1561006E-3,-3.9190943E-3,-8.7527233E-1,5.114035E-2,-4.994688E-2,-9.2693645E-1,-1.0045855E-2,2.4661757E-2,2.6642638E-1,-8.737623E-2,1.1283479E-1,-8.625906E-3,-9.851366E-2,-6.377638E-2,3.1727862E-3,3.4143697E-2,-1.3048301E-2,-3.7888978E-3,-2.2004182E-2,2.8590744E-2,2.8616094E-4],"categories":[],"categories_nodes":[],"categories_segments":[],"categories_sizes":[],"default_left":[0,0,0,0,0,0,0,0,0,0,0,0,0,0,0,0,0,0,0,0,0],"id":37,"left_children":[1,3,5,7,9,11,-1,13,15,17,19,-1,-1,-1,-1,-1,-1,-1,-1,-1,-1],"loss_changes":[1.2265091E1,1.1028266E1,5.5594254E-1,1.1288724E1,1.4450975E1,6.5281296E-1,0E0,8.284386E0,6.5025635E0,1.2647153E1,8.441273E0,0E0,0E0,0E0,0E0,0E0,0E0,0E0,0E0,0E0,0E0],"parents":[2147483647,0,0,1,1,2,2,3,3,4,4,5,5,7,7,8,8,9,9,10,10],"right_children":[2,4,6,8,10,12,-1,14,16,18,20,-1,-1,-1,-1,-1,-1,-1,-1,-1,-1],"split_conditions":[6.3E1,1.5E1,8.7E1,1.3E1,8.7E1,8E0,-1.0045855E-2,1.1E1,8.9981943E-1,1.6E1,8.8E1,-8.625906E-3,-9.851366E-2,-6.377638E-2,3.1727862E-3,3.4143697E-2,-1.3048301E-2,-3.7888978E-3,-2.2004182E-2,2.8590744E-2,2.8616094E-4],"split_indices":[11,15,15,15,15,16,0,11,22,16,15,0,0,0,0,0,0,0,0,0,0],"split_type":[0,0,0,0,0,0,0,0,0,0,0,0,0,0,0,0,0,0,0,0,0],"sum_hessian":[4.36487E3,4.349656E3,1.5214354E1,1.9804669E3,2.3691887E3,1.4079226E1,1.1351283E0,1.7645543E3,2.1591261E2,1.9266467E3,4.4254205E2,1.0723071E0,1.3006918E1,1.7681818E1,1.7468724E3,1.8171135E2,3.4201256E1,1.404152E3,5.224948E2,1.7132143E2,2.712206E2],"tree_param":{"num_deleted":"0","num_feature":"30","num_nodes":"21","size_leaf_vector":"1"}},{"base_weights":[-1.7775288E-3,3.1351667E-2,-6.09675E-2,5.9172984E-2,-2.8727797E-1,-3.6585152E-1,6.1550837E-2,1.1228109E-1,-5.188019E-2,1.8351796E-1,-3.836838E-1,-3.0695486E-1,-8.4689945E-1,5.339768E-2,2.405891E-1,1.9350586E-2,-1.7445717E-3,1.8227035E-2,-1.4267157E-2,3.855992E-5,1.12751305E-1,-1.7009858E-3,-4.52148E-2,-1.9199511E-2,-4.9779743E-2,-8.990046E-2,3.2260496E-2,3.1122455E-2,-1.2521896E-3],"categories":[],"categories_nodes":[],"categories_segments":[],"categories_sizes":[],"default_left":[0,0,0,0,0,0,0,0,0,0,0,0,0,0,0,0,0,0,0,0,0,0,0,0,0,0,0,0,0],"id":38,"left_children":[1,3,5,7,9,11,13,15,17,19,21,23,25,27,-1,-1,-1,-1,-1,-1,-1,-1,-1,-1,-1,-1,-1,-1,-1],"loss_changes":[8.563522E0,2.4837982E1,5.8561523E1,1.5198394E1,1.0283497E1,1.2471905E1,2.1255398E1,1.8368616E1,1.7756693E1,6.7283335E0,4.689211E0,8.72245E0,3.2423897E0,1.8969765E1,0E0,0E0,0E0,0E0,0E0,0E0,0E0,0E0,0E0,0E0,0E0,0E0,0E0,0E0,0E0],"parents":[2147483647,0,0,1,1,2,2,3,3,4,4,5,5,6,6,7,7,8,8,9,9,10,10,11,11,12,12,13,13],"right_children":[2,4,6,8,10,12,14,16,18,20,22,24,26,28,-1,-1,-1,-1,-1,-1,-1,-1,-1,-1,-1,-1,-1,-1,-1],"split_conditions":[1E1,2E0,2E0,1.5E1,1E0,7.5E1,4E0,2E0,4.5454547E-2,7E0,1.1E1,8.2957655E-1,8.754864E-1,2.5E1,2.405891E-1,1.9350586E-2,-1.7445717E-3,1.8227035E-2,-1.4267157E-2,3.855992E-5,1.12751305E-1,-1.7009858E-3,-4.52148E-2,-1.9199511E-2,-4.9779743E-2,-8.990046E-2,3.2260496E-2,3.1122455E-2,-1.2521896E-3],"split_indices":[9,1,1,16,10,8,0,12,29,1,8,22,27,8,0,0,0,0,0,0,0,0,0,0,0,0,0,0,0],"split_type":[0,0,0,0,0,0,0,0,0,0,0,0,0,0,0,0,0,0,0,0,0,0,0,0,0,0,0,0,0],"sum_hessian":[4.365128E3,2.7989814E3,1.5661465E3,2.5749617E3,2.2401987E2,4.483792E2,1.1177673E3,1.7419237E3,8.330379E2,3.79225E1,1.8609737E2,4.0092984E2,4.7449383E1,1.1149126E3,2.8546715E0,1.0709113E3,6.7101245E2,2.3247597E2,6.0056195E2,3.2598827E1,5.3236713E0,2.9476795E1,1.5662056E2,2.5146088E2,1.4946896E2,4.5646965E1,1.8024204E0,2.2625505E2,8.886576E2],"tree_param":{"num_deleted":"0","num_feature":"30","num_nodes":"29","size_leaf_vector":"1"}},{"base_weights":[-1.7938841E-2,-3.8857527E-2,7.713215E-2,3.1361957E-3,-1.7447193E-1,-2.0786434E-1,1.3835038E-1,-9.768924E-4,1.7792718E0,8.797632E-2,-3.6894685E-1,-3.120193E-1,4.148495E-1,-7.2241664E-1,1.6433802E-1,2.0979599E-3,-2.8856961E-2,2.058122E-1,2.7267486E-2,-1.3806321E-2,4.1999053E-2,-6.833984E-2,-3.2058902E-2,8.1046715E-2,-3.6200847E-2,7.346063E-2,-1.5296019E-2,-8.172403E-2,-2.6999399E-2,1.39014395E-2,6.342914E-2],"categories":[],"categories_nodes":[],"categories_segments":[],"categories_sizes":[],"default_left":[0,0,0,0,0,0,0,0,0,0,0,0,0,0,0,0,0,0,0,0,0,0,0,0,0,0,0,0,0,0,0],"id":39,"left_children":[1,3,5,7,9,11,13,15,17,19,21,23,25,27,29,-1,-1,-1,-1,-1,-1,-1,-1,-1,-1,-1,-1,-1,-1,-1,-1],"loss_changes":[8.656398E0,2.031496E1,1.3725748E1,1.990654E1,4.3080357E1,9.1588E0,1.45882635E1,1.7177605E1,2.0836868E0,2.7059118E1,7.150429E0,7.017761E0,3.8121917E0,6.005564E-1,7.3940067E0,0E0,0E0,0E0,0E0,0E0,0E0,0E0,0E0,0E0,0E0,0E0,0E0,0E0,0E0,0E0,0E0],"parents":[2147483647,0,0,1,1,2,2,3,3,4,4,5,5,6,6,7,7,8,8,9,9,10,10,11,11,12,12,13,13,14,14],"right_children":[2,4,6,8,10,12,14,16,18,20,22,24,26,28,30,-1,-1,-1,-1,-1,-1,-1,-1,-1,-1,-1,-1,-1,-1,-1,-1],"split_conditions":[7.4E1,1.6E1,1E0,1.3E1,2.6E1,1.8E1,3.8E1,1E0,2.5680932E-1,6E0,5E0,2E0,1.5E1,2.5680932E-1,7.070707E-1,2.0979599E-3,-2.8856961E-2,2.058122E-1,2.7267486E-2,-1.3806321E-2,4.1999053E-2,-6.833984E-2,-3.2058902E-2,8.1046715E-2,-3.6200847E-2,7.346063E-2,-1.5296019E-2,-8.172403E-2,-2.6999399E-2,1.39014395E-2,6.342914E-2],"split_indices":[7,9,19,9,8,16,8,19,27,8,7,8,15,27,29,0,0,0,0,0,0,0,0,0,0,0,0,0,0,0,0],"split_type":[0,0,0,0,0,0,0,0,0,0,0,0,0,0,0,0,0,0,0,0,0,0,0,0,0,0,0,0,0,0,0],"sum_hessian":[4.350154E3,3.5660903E3,7.840637E2,2.7236687E3,8.4242163E2,1.3821579E2,6.458479E2,2.718373E3,5.295625E0,3.5878326E2,4.836384E2,1.1883793E2,1.9377865E1,1.8142157E1,6.2770575E2,2.5264187E3,1.9195436E2,4.1596575E0,1.1359675E0,2.1380574E2,1.4497752E2,6.2712475E1,4.209259E2,4.418115E0,1.14419815E2,1.2208822E1,7.169042E0,1.4331946E1,3.8102095E0,5.968405E2,3.0865202E1],"tree_param":{"num_deleted":"0","num_feature":"30","num_nodes":"31","size_leaf_vector":"1"}},{"base_weights":[-1.3153424E-2,-1.307974E-1,1.5438321E-3,-7.297421E-2,-6.412406E-1,4.9416605E-1,-4.2585614E-3,1.8580176E-2,-3.779393E-1,-9.30282E-1,-2.0320866E-1,2.3204707E-1,1.2623155E0,7.916417E-1,-7.6951627E-3,-2.9993996E-3,5.379338E-2,-4.9848106E-2,5.4197884E-3,-5.0637614E-2,-1.0233077E-1,-3.697976E-2,9.545136E-2,-3.4407325E-2,4.921159E-2,1.5939917E-1,1.4346585E-2,1.1661786E-1,-6.823711E-3,-1.9864826E-2,1.0834782E-3],"categories":[],"categories_nodes":[],"categories_segments":[],"categories_sizes":[],"default_left":[0,0,0,0,0,0,0,0,0,0,0,0,0,0,0,0,0,0,0,0,0,0,0,0,0,0,0,0,0,0,0],"id":40,"left_children":[1,3,5,7,9,11,13,15,17,19,21,23,25,27,29,-1,-1,-1,-1,-1,-1,-1,-1,-1,-1,-1,-1,-1,-1,-1,-1],"loss_changes":[7.4889364E0,1.4150433E1,1.1010134E1,1.2102181E1,5.991535E0,8.735739E0,1.0419764E1,8.445154E0,5.2396784E0,6.3054657E-1,4.3425345E0,5.3621874E0,3.9213657E0,5.354335E0,1.3419268E1,0E0,0E0,0E0,0E0,0E0,0E0,0E0,0E0,0E0,0E0,0E0,0E0,0E0,0E0,0E0,0E0],"parents":[2147483647,0,0,1,1,2,2,3,3,4,4,5,5,6,6,7,7,8,8,9,9,10,10,11,11,12,12,13,13,14,14],"right_children":[2,4,6,8,10,12,14,16,18,20,22,24,26,28,30,-1,-1,-1,-1,-1,-1,-1,-1,-1,-1,-1,-1,-1,-1,-1,-1],"split_conditions":[7E0,2E0,1E1,9.988921E-1,4.8E1,5E0,2E0,1E0,5E0,3E0,8.4E1,9E0,8.737774E-1,5E0,2.7E1,-2.9993996E-3,5.379338E-2,-4.9848106E-2,5.4197884E-3,-5.0637614E-2,-1.0233077E-1,-3.697976E-2,9.545136E-2,-3.4407325E-2,4.921159E-2,1.5939917E-1,1.4346585E-2,1.1661786E-1,-6.823711E-3,-1.9864826E-2,1.0834782E-3],"split_indices":[7,7,7,28,8,17,8,7,17,7,15,16,25,17,8,0,0,0,0,0,0,0,0,0,0,0,0,0,0,0,0],"split_type":[0,0,0,0,0,0,0,0,0,0,0,0,0,0,0,0,0,0,0,0,0,0,0,0,0,0,0,0,0,0,0],"sum_hessian":[4.330142E3,4.8000992E2,3.8501323E3,4.3219382E2,4.7816113E1,4.3841373E1,3.806291E3,3.3312463E2,9.906917E1,2.813022E1,1.9685892E1,3.3658146E1,1.01832285E1,1.5378372E1,3.7909126E3,3.0549457E2,2.7630087E1,7.73417E1,2.1727468E1,6.2217836E0,2.1908438E1,1.7804516E1,1.8813754E0,1.0367786E1,2.3290358E1,7.5271735E0,2.6560545E0,1.0464252E1,4.91412E0,3.3446756E2,3.456445E3],"tree_param":{"num_deleted":"0","num_feature":"30","num_nodes":"31","size_leaf_vector":"1"}},{"base_weights":[-8.649615E-3,1.8551387E-2,-6.4275555E-2,-1.7403921E-2,1.537184E-1,-2.2947715E-1,-2.6260704E-2,1.2840955E-2,-2.436653E-1,2.0446326E-1,-1.524507E-1,-2.6317495E-1,6.1969876E-1,2.9005903E-1,-5.3275447E-2,1.2895293E-2,-3.8175173E-3,-3.908142E-2,-1.287388E-2,7.052922E-2,1.7012889E-2,8.355876E-2,-2.2626707E-2,-1.8048888E-2,-5.1854517E-2,1.1266898E-1,-3.6864415E-2,6.7391254E-2,-2.1574624E-2,1.4169822E-2,-1.0750453E-2],"categories":[],"categories_nodes":[],"categories_segments":[],"categories_sizes":[],"default_left":[0,0,0,0,0,0,0,0,0,0,0,0,0,0,0,0,0,0,0,0,0,0,0,0,0,0,0,0,0,0,0],"id":41,"left_children":[1,3,5,7,9,11,13,15,17,19,21,23,25,27,29,-1,-1,-1,-1,-1,-1,-1,-1,-1,-1,-1,-1,-1,-1,-1,-1],"loss_changes":[6.570407E0,1.4177126E1,8.949688E0,1.5774451E1,9.553743E0,7.792941E0,9.931489E0,1.2052667E1,4.5460777E0,8.928373E0,6.5864377E0,5.336479E0,5.6642146E0,1.790285E1,1.1328058E1,0E0,0E0,0E0,0E0,0E0,0E0,0E0,0E0,0E0,0E0,0E0,0E0,0E0,0E0,0E0,0E0],"parents":[2147483647,0,0,1,1,2,2,3,3,4,4,5,5,6,6,7,7,8,8,9,9,10,10,11,11,12,12,13,13,14,14],"right_children":[2,4,6,8,10,12,14,16,18,20,22,24,26,28,30,-1,-1,-1,-1,-1,-1,-1,-1,-1,-1,-1,-1,-1,-1,-1,-1],"split_conditions":[8.4967095E-1,7.84816E-1,9.082441E-1,7.426758E-1,9.9915165E-1,1.0002695E0,1E0,2E0,3.8E1,7.7762246E-1,1E0,8.8852E-1,5.7E1,2E0,6.7E1,1.2895293E-2,-3.8175173E-3,-3.908142E-2,-1.287388E-2,7.052922E-2,1.7012889E-2,8.355876E-2,-2.2626707E-2,-1.8048888E-2,-5.1854517E-2,1.1266898E-1,-3.6864415E-2,6.7391254E-2,-2.1574624E-2,1.4169822E-2,-1.0750453E-2],"split_indices":[22,25,25,22,28,28,17,17,8,22,17,22,11,6,10,0,0,0,0,0,0,0,0,0,0,0,0,0,0,0,0],"split_type":[0,0,0,0,0,0,0,0,0,0,0,0,0,0,0,0,0,0,0,0,0,0,0,0,0,0,0,0,0,0,0],"sum_hessian":[4.340614E3,2.9155708E3,1.4250432E3,2.3036548E3,6.1191595E2,2.656347E2,1.1594086E3,2.0328608E3,2.707939E2,5.2520074E2,8.6715256E1,2.561596E2,9.475087E0,9.046013E1,1.0689484E3,6.200678E2,1.4127931E3,1.1769707E2,1.5309685E2,3.2441463E1,4.9275928E2,5.31074E0,8.140451E1,1.9479416E2,6.1365456E1,6.170052E0,3.305035E0,5.1241108E1,3.921902E1,2.3226317E2,8.3668524E2],"tree_param":{"num_deleted":"0","num_feature":"30","num_nodes":"31","size_leaf_vector":"1"}},{"base_weights":[7.976675E-3,-5.514988E-1,1.1997754E-2,-7.150807E-1,-3.1537962E-1,4.4503722E-2,-4.452348E-2,-1.0170646E-2,-7.853856E-2,3.8989502E-1,-5.333568E-1,8.5009575E-2,-4.447045E-2,-1.5177101E-1,6.488846E-2,-2.6409103E-2,9.0741664E-2,-7.84716E-2,-1.5821889E-2,8.150286E-3,1.314135E-1,-2.2702541E-2,1.8300442E-3,-1.95689E-2,3.0507633E-2,5.4890472E-2,2.2513813E-3],"categories":[],"categories_nodes":[],"categories_segments":[],"categories_sizes":[],"default_left":[0,0,0,0,0,0,0,0,0,0,0,0,0,0,0,0,0,0,0,0,0,0,0,0,0,0,0],"id":42,"left_children":[1,3,5,7,9,11,13,-1,-1,15,17,19,21,23,25,-1,-1,-1,-1,-1,-1,-1,-1,-1,-1,-1,-1],"loss_changes":[9.809416E0,9.763031E-1,7.952387E0,6.787462E-1,2.4406807E0,9.906721E0,1.8555592E1,0E0,0E0,1.5956863E0,9.618058E-1,8.032798E0,9.861978E0,1.607945E1,1.6048052E1,0E0,0E0,0E0,0E0,0E0,0E0,0E0,0E0,0E0,0E0,0E0,0E0],"parents":[2147483647,0,0,1,1,2,2,3,3,4,4,5,5,6,6,9,9,10,10,11,11,12,12,13,13,14,14],"right_children":[2,4,6,8,10,12,14,-1,-1,16,18,20,22,24,26,-1,-1,-1,-1,-1,-1,-1,-1,-1,-1,-1,-1],"split_conditions":[1.1E1,1.3E1,7.782101E-3,2E0,1.9E1,5.7E1,2.5680932E-1,-1.0170646E-2,-7.853856E-2,1.3E1,1.4E1,7E0,5.9E1,9.89899E-1,3.7159532E-1,-2.6409103E-2,9.0741664E-2,-7.84716E-2,-1.5821889E-2,8.150286E-3,1.314135E-1,-2.2702541E-2,1.8300442E-3,-1.95689E-2,3.0507633E-2,5.4890472E-2,2.2513813E-3],"split_indices":[11,15,27,11,15,15,27,0,0,16,16,0,15,29,27,0,0,0,0,0,0,0,0,0,0,0,0],"split_type":[0,0,0,0,0,0,0,0,0,0,0,0,0,0,0,0,0,0,0,0,0,0,0,0,0,0,0],"sum_hessian":[4.3563906E3,3.011538E1,4.3262754E3,1.6592041E1,1.3523337E1,2.7467834E3,1.5794918E3,1.9578097E0,1.46342325E1,3.0066128E0,1.0516725E1,1.8875248E3,8.5925867E2,7.9743994E2,7.820519E2,1.5445207E0,1.4620922E0,5.6435113E0,4.873213E0,1.8832181E3,4.306542E0,2.1918677E2,6.400719E2,7.280246E2,6.9415344E1,6.199318E1,7.200587E2],"tree_param":{"num_deleted":"0","num_feature":"30","num_nodes":"27","size_leaf_vector":"1"}},{"base_weights":[-1.1124797E-2,-1.4963599E-1,6.040496E-3,-5.658171E-2,-4.5693433E-1,7.862702E-2,-4.1314453E-2,-1.8374577E-2,-7.2313845E-1,-2.1205613E-1,-6.725428E-1,5.855544E-2,8.7957096E-1,-1.4929797E-2,-2.634416E-1,-6.071537E-3,5.7625797E-2,-9.51648E-2,-1.8067468E-2,-5.9766978E-2,1.0818332E-3,-8.214647E-2,-2.7736057E-2,1.9773547E-2,-1.0237115E-3,1.0011597E-1,-1.4759284E-2,1.3776458E-3,-1.7764984E-2,-3.682605E-2,-1.0453024E-3],"categories":[],"categories_nodes":[],"categories_segments":[],"categories_sizes":[],"default_left":[0,0,0,0,0,0,0,0,0,0,0,0,0,0,0,0,0,0,0,0,0,0,0,0,0,0,0,0,0,0,0],"id":43,"left_children":[1,3,5,7,9,11,13,15,17,19,21,23,25,27,29,-1,-1,-1,-1,-1,-1,-1,-1,-1,-1,-1,-1,-1,-1,-1,-1],"loss_changes":[1.0266282E1,1.3588561E1,1.3211057E1,9.322604E0,5.692602E0,2.4342758E1,1.362844E1,8.79004E0,2.2883158E0,4.5793505E0,3.2038956E0,1.4185648E1,4.771908E0,9.718994E0,6.5433826E0,0E0,0E0,0E0,0E0,0E0,0E0,0E0,0E0,0E0,0E0,0E0,0E0,0E0,0E0,0E0,0E0],"parents":[2147483647,0,0,1,1,2,2,3,3,4,4,5,5,6,6,7,7,8,8,9,9,10,10,11,11,12,12,13,13,14,14],"right_children":[2,4,6,8,10,12,14,16,18,20,22,24,26,28,30,-1,-1,-1,-1,-1,-1,-1,-1,-1,-1,-1,-1,-1,-1,-1,-1],"split_conditions":[7E0,9.988921E-1,6E1,4E0,7.7931154E-1,5.5E1,7E0,1E0,6E0,5.4254764E-1,4E0,3.5E1,8.355845E-1,2E0,7.4E1,-6.071537E-3,5.7625797E-2,-9.51648E-2,-1.8067468E-2,-5.9766978E-2,1.0818332E-3,-8.214647E-2,-2.7736057E-2,1.9773547E-2,-1.0237115E-3,1.0011597E-1,-1.4759284E-2,1.3776458E-3,-1.7764984E-2,-3.682605E-2,-1.0453024E-3],"split_indices":[7,28,8,7,22,8,9,29,7,22,17,7,25,3,7,0,0,0,0,0,0,0,0,0,0,0,0,0,0,0,0],"split_type":[0,0,0,0,0,0,0,0,0,0,0,0,0,0,0,0,0,0,0,0,0,0,0,0,0,0,0,0,0,0,0],"sum_hessian":[4.316565E3,4.7510474E2,3.8414604E3,3.6558466E2,1.0952007E2,1.5164136E3,2.3250466E3,3.4673718E2,1.884746E1,5.2208073E1,5.7312E1,1.4803883E3,3.6025284E1,2.079149E3,2.4589777E2,3.2452713E2,2.221005E1,1.2730506E1,6.116954E0,1.8506609E1,3.3701466E1,4.0842186E1,1.6469814E1,4.890585E2,9.9132983E2,3.223486E1,3.7904272E0,1.7681382E3,3.1101074E2,1.735404E2,7.235736E1],"tree_param":{"num_deleted":"0","num_feature":"30","num_nodes":"31","size_leaf_vector":"1"}},{"base_weights":[-1.1197451E-2,-1.3349731E-2,9.937833E-1,-1.352527E-1,6.21664E-3,1.4634674E0,-7.128231E-2,2.2954623E-1,-1.9974026E-1,3.919124E-1,-1.2802927E-2,5.7910305E-1,2.1013558E-1,5.7084616E-2,-6.728727E-2,4.743118E-2,-8.708403E-3,-1.2945594E-2,-4.702191E-2,-9.805639E-2,4.210366E-2,-4.2279993E-4,-4.3249447E-2,7.5464614E-2,5.894776E-3],"categories":[],"categories_nodes":[],"categories_segments":[],"categories_sizes":[],"default_left":[0,0,0,0,0,0,0,0,0,0,0,0,0,0,0,0,0,0,0,0,0,0,0,0,0],"id":44,"left_children":[1,3,5,7,9,11,13,15,17,19,21,23,-1,-1,-1,-1,-1,-1,-1,-1,-1,-1,-1,-1,-1],"loss_changes":[9.3887005E0,1.0319639E1,4.7446613E0,1.4122976E1,2.7358543E1,2.4407701E0,1.8490905E0,7.043884E0,9.616089E0,7.4186287E0,1.2790279E1,3.2964838E-1,0E0,0E0,0E0,0E0,0E0,0E0,0E0,0E0,0E0,0E0,0E0,0E0,0E0],"parents":[2147483647,0,0,1,1,2,2,3,3,4,4,5,5,6,6,7,7,8,8,9,9,10,10,11,11],"right_children":[2,4,6,8,10,12,14,16,18,20,22,24,-1,-1,-1,-1,-1,-1,-1,-1,-1,-1,-1,-1,-1],"split_conditions":[3E0,5.6E1,2.3232323E-1,-3.5353534E-2,6.9E1,4E0,3E0,3E0,4.3E1,4E0,4E0,1E0,2.1013558E-1,5.7084616E-2,-6.728727E-2,4.743118E-2,-8.708403E-3,-1.2945594E-2,-4.702191E-2,-9.805639E-2,4.210366E-2,-4.2279993E-4,-4.3249447E-2,7.5464614E-2,5.894776E-3],"split_indices":[19,10,29,29,10,17,17,17,10,4,12,15,0,0,0,0,0,0,0,0,0,0,0,0,0],"split_type":[0,0,0,0,0,0,0,0,0,0,0,0,0,0,0,0,0,0,0,0,0,0,0,0,0],"sum_hessian":[4.333456E3,4.3251797E3,8.276151E0,5.973902E2,3.7277896E3,5.483788E0,2.7923632E0,8.935566E1,5.0803452E2,1.7426584E2,3.553524E3,3.0974066E0,2.3863811E0,1.3753939E0,1.4169694E0,5.0116203E1,3.923946E1,4.0442316E2,1.0361134E2,2.9422877E0,1.7132355E2,3.4833635E3,7.016026E1,1.9787908E0,1.1186159E0],"tree_param":{"num_deleted":"0","num_feature":"30","num_nodes":"25","size_leaf_vector":"1"}},{"base_weights":[3.0205355E-3,-4.5490953E-1,6.220115E-3,-2.4490091E-1,-8.5075784E-1,8.595946E-3,-5.074263E-1,-5.748844E-1,1.1493121E-1,-9.3719155E-2,-1.1185399E-2,-8.96386E-5,1.6109243E-1,-6.937252E-1,4.2207286E-1,1.0278135E-2,-6.922936E-2,-2.0905418E-2,8.440522E-2,2.9500118E-3,-6.864843E-3,-3.157852E-2,2.4929961E-2,-7.3327206E-2,-3.5291032E-3,-1.1712245E-2,6.708416E-2],"categories":[],"categories_nodes":[],"categories_segments":[],"categories_sizes":[],"default_left":[0,0,0,0,0,0,0,0,0,0,0,0,0,0,0,0,0,0,0,0,0,0,0,0,0,0,0],"id":45,"left_children":[1,3,5,7,9,11,13,15,17,-1,-1,19,21,23,25,-1,-1,-1,-1,-1,-1,-1,-1,-1,-1,-1,-1],"loss_changes":[6.3150706E0,2.2777748E0,5.2264905E0,2.5529153E0,5.314131E-1,5.6431794E0,3.7074142E0,9.5365286E-1,2.7400048E0,0E0,0E0,8.181381E0,9.736076E0,4.1170216E-1,6.035863E-1,0E0,0E0,0E0,0E0,0E0,0E0,0E0,0E0,0E0,0E0,0E0,0E0],"parents":[2147483647,0,0,1,1,2,2,3,3,4,4,5,5,6,6,7,7,8,8,11,11,12,12,13,13,14,14],"right_children":[2,4,6,8,10,12,14,16,18,-1,-1,20,22,24,26,-1,-1,-1,-1,-1,-1,-1,-1,-1,-1,-1,-1],"split_conditions":[1E1,8.1E1,9.9301064E-1,1.3E1,9.7571206E-1,5.4E1,2E0,-3.458559E-1,6.666667E-1,-9.3719155E-2,-1.1185399E-2,4E0,3.7E1,9.4E1,5.4E1,1.0278135E-2,-6.922936E-2,-2.0905418E-2,8.440522E-2,2.9500118E-3,-6.864843E-3,-3.157852E-2,2.4929961E-2,-7.3327206E-2,-3.5291032E-3,-1.1712245E-2,6.708416E-2],"split_indices":[11,10,22,15,22,11,1,22,21,0,0,6,10,10,7,0,0,0,0,0,0,0,0,0,0,0,0],"split_type":[0,0,0,0,0,0,0,0,0,0,0,0,0,0,0,0,0,0,0,0,0,0,0,0,0,0,0],"sum_hessian":[4.3071567E3,2.8905931E1,4.278251E3,1.994384E1,8.962091E0,4.259532E3,1.8718866E1,1.0091657E1,9.852183E0,7.783283E0,1.1788079E0,4.030945E3,2.2858696E2,1.5804781E1,2.9140856E0,1.508638E0,8.583018E0,7.315026E0,2.5371575E0,2.8160964E3,1.2148486E3,3.5278656E1,1.9330832E2,1.4802078E1,1.0027019E0,1.0870796E0,1.8270059E0],"tree_param":{"num_deleted":"0","num_feature":"30","num_nodes":"27","size_leaf_vector":"1"}},{"base_weights":[6.6938036E-4,3.6478708E-3,-8.5467243E-1,-1.1002237E-1,1.7715827E-2,-9.109539E-2,-4.699583E-3,-7.1961254E-2,-9.452943E-2,9.1549486E-2,-8.300443E-3,9.7040954E-4,-3.6379E-2,6.52629E-3,1.0706301E-1,-9.158727E-2,7.833726E-5],"categories":[],"categories_nodes":[],"categories_segments":[],"categories_sizes":[],"default_left":[0,0,0,0,0,0,0,0,0,0,0,0,0,0,0,0,0],"id":46,"left_children":[1,3,5,7,9,-1,-1,11,-1,13,15,-1,-1,-1,-1,-1,-1],"loss_changes":[1.0982206E1,6.8710384E0,6.371813E-1,1.4976147E1,7.344962E0,0E0,0E0,1.0815631E1,0E0,2.5570904E1,2.3316078E1,0E0,0E0,0E0,0E0,0E0,0E0],"parents":[2147483647,0,0,1,1,2,2,3,3,4,4,7,7,9,9,10,10],"right_children":[2,4,6,8,10,-1,-1,12,-1,14,16,-1,-1,-1,-1,-1,-1],"split_conditions":[6.3E1,6E0,6.666667E-1,4E0,2.4E1,-9.109539E-2,-4.699583E-3,9.988921E-1,-9.452943E-2,2.3E1,2.7E1,9.7040954E-4,-3.6379E-2,6.52629E-3,1.0706301E-1,-9.158727E-2,7.833726E-5],"split_indices":[11,7,21,7,7,0,0,28,0,7,7,0,0,0,0,0,0],"split_type":[0,0,0,0,0,0,0,0,0,0,0,0,0,0,0,0,0],"sum_hessian":[4.308534E3,4.294575E3,1.3958931E1,4.7221536E2,3.82236E3,1.2930055E1,1.0288764E0,4.5267435E2,1.9541016E1,9.952738E2,2.8270862E3,3.5445142E2,9.822294E1,9.702899E2,2.4983912E1,2.7026432E1,2.8000598E3],"tree_param":{"num_deleted":"0","num_feature":"30","num_nodes":"17","size_leaf_vector":"1"}},{"base_weights":[-1.5471329E-2,2.820429E-2,-5.225183E-2,3.3814494E-2,-7.5674987E-1,-3.7411454E-1,-3.854944E-2,8.335137E-3,2.1510276E-1,-8.3276045E-1,6.7411372E-3,-5.4349077E-1,2.1741237E-1,-6.2056586E-2,5.7489034E-2,1.3358169E-3,-7.5723164E-2,2.485229E-2,-3.7009094E-2,-8.7497935E-2,-2.5623051E-2,1.9231258E-2,-6.1183732E-2,4.7853492E-2,-3.148176E-2,1.5062087E-3,-1.38694765E-2,2.6294237E-2,-5.18588E-3],"categories":[],"categories_nodes":[],"categories_segments":[],"categories_sizes":[],"default_left":[0,0,0,0,0,0,0,0,0,0,0,0,0,0,0,0,0,0,0,0,0,0,0,0,0,0,0,0,0],"id":47,"left_children":[1,3,5,7,9,11,13,15,17,19,-1,21,23,25,27,-1,-1,-1,-1,-1,-1,-1,-1,-1,-1,-1,-1,-1,-1],"loss_changes":[6.9453983E0,8.73066E0,1.0336049E1,9.068608E0,9.3759155E-1,9.7081585E0,5.0880547E0,6.6348243E0,4.823596E0,9.119129E-2,0E0,3.874134E0,3.2110553E0,1.069839E1,9.974576E0,0E0,0E0,0E0,0E0,0E0,0E0,0E0,0E0,0E0,0E0,0E0,0E0,0E0,0E0],"parents":[2147483647,0,0,1,1,2,2,3,3,4,4,5,5,6,6,7,7,8,8,9,9,11,11,12,12,13,13,14,14],"right_children":[2,4,6,8,10,12,14,16,18,20,-1,22,24,26,28,-1,-1,-1,-1,-1,-1,-1,-1,-1,-1,-1,-1,-1,-1],"split_conditions":[1.5E1,8.5E1,2.1E1,1.1E1,4E0,9.5E1,8.7E1,1.8E1,9.5753974E-1,6E0,6.7411372E-3,1.7974256E-1,8.9347076E-1,5.7E1,6E0,1.3358169E-3,-7.5723164E-2,2.485229E-2,-3.7009094E-2,-8.7497935E-2,-2.5623051E-2,1.9231258E-2,-6.1183732E-2,4.7853492E-2,-3.148176E-2,1.5062087E-3,-1.38694765E-2,2.6294237E-2,-5.18588E-3],"split_indices":[15,14,15,15,5,8,15,9,22,17,0,22,22,15,9,0,0,0,0,0,0,0,0,0,0,0,0,0,0],"split_type":[0,0,0,0,0,0,0,0,0,0,0,0,0,0,0,0,0,0,0,0,0,0,0,0,0,0,0,0,0],"sum_hessian":[4.3216313E3,1.9757396E3,2.3458916E3,1.962669E3,1.3070614E1,9.471758E1,2.251174E3,1.7217322E3,2.4093675E2,1.1957377E1,1.1132363E0,7.3696686E1,2.1020899E1,1.8087932E3,4.4238086E2,1.7114854E3,1.0246838E1,2.2846457E2,1.2472191E1,1.0659151E1,1.2982266E0,6.1094933E0,6.758719E1,1.4169802E1,6.851098E0,9.019708E2,9.068224E2,1.531754E2,2.8920547E2],"tree_param":{"num_deleted":"0","num_feature":"30","num_nodes":"29","size_leaf_vector":"1"}},{"base_weights":[-2.5127179E-3,5.664421E-5,-6.413643E-1,-1.3110648E-2,9.074916E-2,-8.2287306E-1,3.0476028E-1,2.0374468E-2,-1.0008949E-1,-7.0597905E-1,1.22793116E-1,-1.0526746E-1,